%YAML:1.0
---
opencv_ml_svm:
   format: 3
   svmType: C_SVC
   kernel:
      type: RBF
      gamma: 1.
   C: 3.
   term_criteria: { epsilon:1.1920928955078125e-07, iterations:1000 }
   var_count: 24
   class_count: 2
   class_labels: !!opencv-matrix
      rows: 2
      cols: 1
      dt: i
      data: [ 0, 1 ]
   sv_total: 1365
   support_vectors:
      - [ 1.30208328e-01, 1.47928998e-01, 1.30208328e-01, 0.,
          2.60416660e-02, 2.95857992e-02, 2.60416660e-02, 0.,
          9.94991958e-01, 9.94310439e-01, 9.94991958e-01, 1.,
          9.94798481e-01, 9.94091630e-01, 9.94798481e-01, 1.,
          -2.61096610e-03, -2.96735903e-03, -2.61096610e-03, 1.,
          9.89624023e-01, 9.88218188e-01, 9.89624023e-01, 1. ]
      - [ 8.31770802e+00, 1.37928991e+01, 1.25416670e+01, 8.37869835e+00,
          1.92187500e+00, 2.77514791e+00, 2.64583325e+00, 1.95266271e+00,
          5.13700426e-01, 3.93596560e-01, 3.83496195e-01, 5.02517998e-01,
          3.31538141e-01, 2.35945582e-01, 2.40910053e-01, 3.04230630e-01,
          4.20334905e-01, 4.66845967e-02, 1.21167883e-01, 4.28972304e-01,
          1.09917536e-01, 5.56703210e-02, 5.80376536e-02, 9.25562829e-02 ]
      - [ 6.35416651e+00, 3.48520708e+00, 4.60416651e+00, 7.50887585e+00,
          9.27083313e-01, 5.02958596e-01, 6.77083313e-01, 1.09467459e+00,
          8.64099085e-01, 9.27455604e-01, 9.00608957e-01, 8.39804888e-01,
          8.63947749e-01, 9.06900048e-01, 8.57510626e-01, 8.40903163e-01,
          -7.25372955e-02, 3.52631480e-01, 4.57415581e-01,
          -8.67120847e-02, 7.46405721e-01, 8.22467685e-01,
          7.35324442e-01, 7.07118094e-01 ]
      - [ 1.87500000e-01, 2.13017747e-01, 1.87500000e-01, 0.,
          3.12500000e-02, 3.55029590e-02, 3.12500000e-02, 0.,
          9.94932413e-01, 9.94242787e-01, 9.94932413e-01, 1.,
          9.94798481e-01, 9.94091630e-01, 9.94798481e-01, 1.,
          -2.61096610e-03, -2.96735903e-03, -2.61096610e-03, 1.,
          9.89624023e-01, 9.88218188e-01, 9.89624023e-01, 1. ]
      - [ 1.72916663e+00, 5.69822502e+00, 6.13541651e+00, 5.43195248e+00,
          3.95833343e-01, 1.05917156e+00, 1.11458337e+00, 9.82248545e-01,
          9.00032640e-01, 7.96810687e-01, 7.91052520e-01, 8.13972235e-01,
          8.13542664e-01, 7.78798044e-01, 7.74694741e-01, 7.95753479e-01,
          7.78758824e-01, -1.09186135e-01, -1.12643771e-01,
          -9.74647030e-02, 6.61851645e-01, 6.06526375e-01,
          6.00151896e-01, 6.33223653e-01 ]
      - [ 1.85416663e+00, 2.31360936e+00, 3.10416675e+00, 3.52662730e+00,
          3.22916657e-01, 3.60946745e-01, 5.00000000e-01, 5.68047345e-01,
          9.34099078e-01, 9.42798078e-01, 9.19304550e-01, 9.08322334e-01,
          9.17169631e-01, 9.41219091e-01, 9.17317450e-01, 9.06175852e-01,
          5.80188692e-01, -2.89714020e-02, -4.19580415e-02,
          -4.79420684e-02, 8.41200113e-01, 8.85893345e-01,
          8.41471374e-01, 8.21154714e-01 ]
      - [ 8.18229198e+00, 1.06035500e+01, 7.63020849e+00, 5.79289961e+00,
          1.86979163e+00, 2.29585791e+00, 1.75520837e+00, 1.39053249e+00,
          5.44292748e-01, 4.70766217e-01, 5.70181370e-01, 6.42183185e-01,
          4.06233311e-01, 3.50913018e-01, 4.24247444e-01, 4.88084972e-01,
          2.77845532e-01, 1.03081852e-01, 3.38842183e-01, 5.03258288e-01,
          1.65025502e-01, 1.23139948e-01, 1.79985896e-01, 2.38226950e-01 ]
      - [ 5.53125000e+00, 6.00591707e+00, 5.16666651e+00, 6.08284044e+00,
          1.87500000e+00, 1.94674551e+00, 1.77083337e+00, 1.96449709e+00,
          3.85999233e-01, 3.78388137e-01, 4.06255603e-01, 3.72493625e-01,
          1.63462028e-01, 1.60419434e-01, 1.61121964e-01, 1.64992228e-01,
          7.81166628e-02, 3.84297371e-02, 1.66729376e-01,
          -9.94058885e-03, 2.67198347e-02, 2.57343929e-02,
          2.59602871e-02, 2.72224359e-02 ]
      - [ 1.24322920e+01, 1.01183434e+01, 7.93750000e+00, 13.,
          2.07812500e+00, 1.62130177e+00, 1.41666663e+00, 2.18343186e+00,
          6.26089573e-01, 7.16867030e-01, 7.22365499e-01, 6.09595358e-01,
          6.00462317e-01, 6.42713606e-01, 6.22847855e-01, 5.85739017e-01,
          6.39588460e-02, 2.87626445e-01, 4.21391696e-01, 1.82485469e-02,
          3.60555023e-01, 4.13080782e-01, 3.87939453e-01, 3.43090236e-01 ]
      - [ 4.36458349e+00, 6.06508875e+00, 4.22395849e+00, 2.82248521e+00,
          1.07291663e+00, 1.40236688e+00, 1.04687500e+00, 7.39644945e-01,
          7.15272069e-01, 6.52709424e-01, 7.22292125e-01, 7.88321137e-01,
          6.29734695e-01, 5.81148207e-01, 6.38419330e-01, 6.94264650e-01,
          2.89523184e-01, 1.08807996e-01, 3.89669865e-01, 5.34493089e-01,
          3.96565765e-01, 3.37733269e-01, 4.07579213e-01, 4.82003421e-01 ]
      - [ 8.62500000e+00, 6.73964500e+00, 7.73437500e+00, 9.63313580e+00,
          2.15625000e+00, 1.76923072e+00, 1.93229163e+00, 2.24852061e+00,
          4.14120078e-01, 5.01942337e-01, 4.66395557e-01, 4.14005131e-01,
          2.28009626e-01, 2.76306659e-01, 2.62801588e-01, 2.36982062e-01,
          1.04456425e-01, 2.12601423e-01, 1.91780612e-01,
          -7.83905759e-03, 5.19883893e-02, 7.63453692e-02,
          6.90646693e-02, 5.61604984e-02 ]
      - [ 1.09843750e+01, 7.74556208e+00, 1.62864590e+01, 1.66923084e+01,
          1.89062500e+00, 1.43786979e+00, 2.71354175e+00, 2.70414209e+00,
          6.46474779e-01, 7.04243481e-01, 5.15734673e-01, 5.40144861e-01,
          4.36398029e-01, 4.60551202e-01, 3.57008368e-01, 3.99375409e-01,
          5.02356827e-01, 6.41674519e-01, 2.36874536e-01, 2.41778225e-01,
          1.90443248e-01, 2.12107420e-01, 1.27454966e-01, 1.59500718e-01 ]
      - [ 7.27083349e+00, 4.04733706e+00, 6.28645849e+00, 9.20118332e+00,
          1.21875000e+00, 6.98224843e-01, 1.04687500e+00, 1.48520708e+00,
          7.83567667e-01, 8.67743313e-01, 8.13616574e-01, 7.53320754e-01,
          7.53680229e-01, 8.24143767e-01, 7.69336224e-01, 7.34407485e-01,
          2.44026259e-01, 5.63231587e-01, 2.45800540e-01, 1.20061580e-02,
          5.68033874e-01, 6.79212928e-01, 5.91878235e-01, 5.39354384e-01 ]
      - [ 4.56770849e+00, 5.42603540e+00, 3.08854175e+00, 1.63905323e+00,
          7.76041687e-01, 9.05325472e-01, 5.88541687e-01, 3.49112421e-01,
          8.58212173e-01, 8.38442206e-01, 8.76205206e-01, 9.17066395e-01,
          8.40149522e-01, 8.18933606e-01, 8.39309633e-01, 8.93980801e-01,
          -9.42680798e-03, -8.16962570e-02, 4.45490748e-01,
          4.03659850e-01, 7.05851257e-01, 6.70652270e-01, 7.04440653e-01,
          7.99201727e-01 ]
      - [ 8.39583302e+00, 1.21656809e+01, 1.21614580e+01, 1.18579884e+01,
          2.26041675e+00, 2.81656814e+00, 2.81770825e+00, 2.78106499e+00,
          3.49941820e-01, 2.96031386e-01, 2.86904603e-01, 2.98272580e-01,
          1.47911161e-01, 1.39399037e-01, 1.41873315e-01, 1.41146272e-01,
          1.28629029e-01, -1.61054045e-01, -1.64384365e-01,
          -1.65645614e-01, 2.18777135e-02, 1.94320921e-02,
          2.01280378e-02, 1.99222714e-02 ]
      - [ 1.28750000e+01, 8.53254414e+00, 1.10208330e+01, 1.40946741e+01,
          2.88541675e+00, 2.20118332e+00, 2.57291675e+00, 3.14792895e+00,
          2.90016204e-01, 3.82693678e-01, 3.32610577e-01, 2.42010146e-01,
          1.40769601e-01, 1.47276670e-01, 1.48140237e-01, 1.47098258e-01,
          -2.41333857e-01, 1.83695212e-01, 1.91926062e-02,
          -2.83650726e-01, 1.98160801e-02, 2.16904171e-02,
          2.19455287e-02, 2.16378979e-02 ]
      - [ 4.03645849e+00, 1.02366865e+00, 4., 4.82248497e+00,
          6.61458313e-01, 1.59763306e-01, 6.56250000e-01, 7.86982238e-01,
          8.84362221e-01, 9.73955393e-01, 8.84576738e-01, 8.65234196e-01,
          8.76301110e-01, 9.41246986e-01, 8.76301110e-01, 8.59802186e-01,
          2.42607400e-01, 7.57209122e-01, 1.41169757e-01,
          -3.47155193e-03, 7.67903626e-01, 8.85945857e-01,
          7.67903626e-01, 7.39259839e-01 ]
      - [ 1.34479170e+01, 1.22603550e+01, 1.39479170e+01, 1.44082842e+01,
          2.72916675e+00, 2.43786979e+00, 2.72916675e+00, 2.86982250e+00,
          3.76831234e-01, 4.58988339e-01, 3.89031768e-01, 3.65965426e-01,
          2.40741089e-01, 2.64656514e-01, 2.35788554e-01, 2.18774930e-01,
          5.16129017e-04, 3.11327539e-02, 1.99899357e-02,
          -3.89261208e-02, 5.79562709e-02, 7.00430647e-02,
          5.55962473e-02, 4.78624701e-02 ]
      - [ 1.20208330e+01, 8.71597672e+00, 3.65104175e+00, 9.09467411e+00,
          1.95833337e+00, 1.52071011e+00, 7.44791687e-01, 1.53254437e+00,
          6.64209545e-01, 7.12974787e-01, 8.27551365e-01, 7.17930913e-01,
          6.03515267e-01, 6.18505955e-01, 6.81704998e-01, 6.31613493e-01,
          1.27159268e-01, 4.21104342e-01, 7.85797298e-01, 4.12874132e-01,
          3.64230692e-01, 3.82549644e-01, 4.64721680e-01, 3.98935616e-01 ]
      - [ 1.00416670e+01, 8.34319496e+00, 8.72395802e+00, 8.95266247e+00,
          2.59375000e+00, 2.26035500e+00, 2.31770825e+00, 2.42011833e+00,
          2.89699256e-01, 3.60527575e-01, 3.49797457e-01, 3.15963984e-01,
          1.49824485e-01, 1.48755088e-01, 1.47911161e-01, 1.49752080e-01,
          -1.00986846e-01, 9.29542109e-02, 1.67287588e-02,
          -3.15000489e-02, 2.24473737e-02, 2.21280772e-02,
          2.18777135e-02, 2.24256851e-02 ]
      - [ 1.70468750e+01, 1.63017750e+01, 8.41145802e+00, 1.75502968e+01,
          3.19270825e+00, 3.01183438e+00, 1.79687500e+00, 3.25443792e+00,
          3.31164598e-01, 3.78698319e-01, 5.55849791e-01, 3.27813059e-01,
          2.34606370e-01, 2.60085940e-01, 3.14770401e-01, 2.46433899e-01,
          -1.06398337e-01, -1.06471717e-01, 3.95639777e-01,
          -1.74755320e-01, 5.50401472e-02, 6.76446930e-02,
          9.90804061e-02, 6.07296675e-02 ]
      - [ 9.07812500e+00, 9.20118332e+00, 9.30729198e+00, 9.92899418e+00,
          2.49479175e+00, 2.37278104e+00, 2.38020825e+00, 2.60355020e+00,
          2.93365806e-01, 3.39918852e-01, 3.46651047e-01, 2.83639103e-01,
          1.43442079e-01, 1.41208276e-01, 1.37454614e-01, 1.39524564e-01,
          -3.95900719e-02, 9.80231445e-03, 5.08866534e-02,
          -7.83979669e-02, 2.05756295e-02, 1.99397784e-02,
          1.88937709e-02, 1.94671061e-02 ]
      - [ 1.20677080e+01, 1.25739641e+01, 8.25520802e+00, 1.08934908e+01,
          2.67187500e+00, 2.71597624e+00, 2.02604175e+00, 2.44378710e+00,
          3.47266197e-01, 3.55062485e-01, 4.61263239e-01, 4.00227070e-01,
          1.65932626e-01, 1.76823109e-01, 2.44209185e-01, 1.90455347e-01,
          2.75931042e-02, -4.59123850e-02, 3.01241875e-01,
          1.02491356e-01, 2.75336374e-02, 3.12664136e-02, 5.96381277e-02,
          3.62732410e-02 ]
      - [ 1.80989590e+01, 1.18165684e+01, 1.76927090e+01, 1.99230766e+01,
          2.86979175e+00, 1.97041416e+00, 2.84895825e+00, 3.18934917e+00,
          5.19845784e-01, 6.48982406e-01, 5.15176952e-01, 4.62898999e-01,
          4.30562556e-01, 4.61898655e-01, 4.24375296e-01, 3.99375409e-01,
          1.34495080e-01, 4.40258592e-01, 1.49912640e-01, 2.99121067e-02,
          1.85384110e-01, 2.13350371e-01, 1.80094406e-01, 1.59500718e-01 ]
      - [ 7.66666651e+00, 5.34911251e+00, 2.90104175e+00, 6.11834335e+00,
          1.65625000e+00, 1.26627219e+00, 8.28125000e-01, 1.31360948e+00,
          6.20444477e-01, 6.79103851e-01, 7.58308947e-01, 6.95238471e-01,
          5.35914481e-01, 5.63219130e-01, 6.28570557e-01, 6.02359891e-01,
          1.29246339e-01, 3.56125355e-01, 6.95076048e-01, 2.93869972e-01,
          2.87204325e-01, 3.17215770e-01, 3.95100921e-01, 3.62837434e-01 ]
      - [ 5.25520849e+00, 1.67159767e+01, 1.68437500e+01, 1.45739641e+01,
          1.68229163e+00, 3.46153855e+00, 3.56250000e+00, 3.11834311e+00,
          4.61023241e-01, 2.29743913e-01, 2.00971395e-01, 2.66792685e-01,
          1.96334139e-01, 1.63285732e-01, 1.77465886e-01, 1.61398605e-01,
          5.29310584e-01, -3.63360524e-01, -4.13673937e-01,
          -1.95279151e-01, 3.85470912e-02, 2.66622324e-02,
          3.14941406e-02, 2.60495078e-02 ]
      - [ 1.36822920e+01, 1.42366867e+01, 1.00104170e+01, 1.44260359e+01,
          2.93229175e+00, 3.00591707e+00, 2.39583325e+00, 3.06508875e+00,
          3.17241400e-01, 3.09485286e-01, 3.77617419e-01, 2.87739724e-01,
          1.67194799e-01, 1.64247826e-01, 1.54372394e-01, 1.64939165e-01,
          -5.57631850e-02, -6.38831183e-02, 1.82703674e-01,
          -8.63610953e-02, 2.79541016e-02, 2.69773472e-02,
          2.38308385e-02, 2.72049289e-02 ]
      - [ 9.65104198e+00, 9.68639088e+00, 8.15625000e+00, 1.06213017e+01,
          2.42187500e+00, 2.42011833e+00, 2.05208325e+00, 2.50295854e+00,
          3.37722868e-01, 3.34633648e-01, 4.37662423e-01, 3.45843166e-01,
          1.50095820e-01, 1.59049466e-01, 1.85097456e-01, 1.49166420e-01,
          6.51631579e-02, 4.57757115e-02, 2.53040791e-01,
          -3.36876302e-03, 2.25287545e-02, 2.52967328e-02,
          3.42610665e-02, 2.22506206e-02 ]
      - [ 3.97916675e+00, 1.45562124e+00, 4.56250000e+00, 5.14201164e+00,
          5.93750000e-01, 2.13017747e-01, 6.77083313e-01, 7.63313591e-01,
          9.10959959e-01, 9.68047321e-01, 8.99129570e-01, 8.85645270e-01,
          8.97406578e-01, 9.52975094e-01, 8.97814572e-01, 8.84254158e-01,
          2.68170029e-01, 5.16615093e-01, -7.08948076e-03,
          -6.00582510e-02, 8.05338562e-01, 9.08161461e-01,
          8.06070983e-01, 7.81905413e-01 ]
      - [ 7.75520849e+00, 8.28402328e+00, 5.08854151e+00, 3.97041416e+00,
          1.28645837e+00, 1.37278104e+00, 9.01041687e-01, 6.80473387e-01,
          7.81398356e-01, 7.63458788e-01, 8.26613367e-01, 8.70701909e-01,
          7.59140253e-01, 7.33107209e-01, 7.62678564e-01, 8.29880357e-01,
          1.04696080e-01, 1.18236773e-01, 5.20298898e-01, 5.24322093e-01,
          5.76293945e-01, 5.37446141e-01, 5.81678629e-01, 6.88701391e-01 ]
      - [ 7.45312500e+00, 8.24260330e+00, 6.75000000e+00, 7.75739622e+00,
          2.17187500e+00, 2.27810645e+00, 1.98958337e+00, 2.14792895e+00,
          3.57941300e-01, 3.46154481e-01, 3.84503782e-01, 3.72070074e-01,
          1.65973499e-01, 1.48696229e-01, 1.66096032e-01, 1.56217501e-01,
          1.50288776e-01, 4.62402329e-02, 2.00693846e-01, 1.12992302e-01,
          2.75472011e-02, 2.21105702e-02, 2.75878906e-02, 2.44039074e-02 ]
      - [ 1.82604160e+01, 1.92662716e+01, 1.30312500e+01, 2.14378700e+01,
          3.25000000e+00, 3.40828395e+00, 2.47916675e+00, 3.78106499e+00,
          3.71817619e-01, 3.17212462e-01, 4.77911144e-01, 2.70782053e-01,
          2.43625328e-01, 2.52746552e-01, 2.78170824e-01, 2.39261150e-01,
          -1.86061710e-02, -5.48811816e-02, 2.95310527e-01,
          -1.85774282e-01, 5.93532994e-02, 6.38808161e-02,
          7.73790181e-02, 5.72458953e-02 ]
      - [ 1.28385420e+01, 7.27810669e+00, 6.05729151e+00, 1.35621300e+01,
          2.34895825e+00, 1.55029583e+00, 1.31770837e+00, 2.43786979e+00,
          5.24111688e-01, 6.29195154e-01, 6.69914901e-01, 5.15342116e-01,
          3.99907082e-01, 4.62788463e-01, 4.79421347e-01, 3.95211339e-01,
          2.10899487e-01, 5.70328355e-01, 6.29592955e-01, 1.85398296e-01,
          1.59925669e-01, 2.14173168e-01, 2.29844838e-01, 1.56192005e-01 ]
      - [ 9.13541698e+00, 1.23727808e+01, 1.45625000e+01, 1.20828400e+01,
          2.18750000e+00, 2.82248521e+00, 3.25000000e+00, 2.72189355e+00,
          4.20016229e-01, 3.09576869e-01, 2.29266077e-01, 3.36355120e-01,
          1.77045032e-01, 1.59872860e-01, 1.64784297e-01, 1.67623848e-01,
          1.44037947e-01, -9.17457715e-02, -2.32447624e-01,
          -3.40634659e-02, 3.13449427e-02, 2.55593285e-02,
          2.71538626e-02, 2.80977562e-02 ]
      - [ 1.22135420e+01, 1.28816566e+01, 9.66145802e+00, 1.08047333e+01,
          2.85937500e+00, 2.96449709e+00, 2.44270825e+00, 2.65088749e+00,
          2.81328857e-01, 2.58348793e-01, 3.34409028e-01, 3.04694146e-01,
          1.42255217e-01, 1.45362347e-01, 1.49824485e-01, 1.41208276e-01,
          -1.37212366e-01, -1.73676625e-01, 1.02128588e-01,
          2.64313575e-02, 2.02365443e-02, 2.11302117e-02, 2.24473737e-02,
          1.99397784e-02 ]
      - [ 1.02708330e+01, 1.17928991e+01, 9.97395802e+00, 9.31360912e+00,
          2.60416675e+00, 2.81065083e+00, 2.52604175e+00, 2.46153855e+00,
          2.93518901e-01, 2.86080360e-01, 3.19914252e-01, 3.27954412e-01,
          1.41010270e-01, 1.36864305e-01, 1.35566831e-01, 1.46023229e-01,
          -1.06679998e-01, -1.84738472e-01, 3.57793309e-02,
          6.33789450e-02, 1.98838972e-02, 1.87318362e-02, 1.83783639e-02,
          2.13227831e-02 ]
      - [ 9.45312500e+00, 9.16568089e+00, 8.72395802e+00, 9.66863918e+00,
          2.47395825e+00, 2.43195271e+00, 2.25520825e+00, 2.50887585e+00,
          3.12003911e-01, 3.21190298e-01, 3.70009482e-01, 3.06409866e-01,
          1.35316476e-01, 1.38643488e-01, 1.51713669e-01, 1.39147639e-01,
          -2.77541578e-03, 8.73638839e-02, 1.86793491e-01,
          5.35661296e-04, 1.83105469e-02, 1.92220155e-02, 2.30170358e-02,
          1.93620678e-02 ]
      - [ 4.30729151e+00, 5.36686373e+00, 3.84895825e+00, 8.46153855e-01,
          6.82291687e-01, 8.46153855e-01, 6.40625000e-01, 1.59763306e-01,
          8.86858463e-01, 8.64975035e-01, 8.86472285e-01, 9.66144741e-01,
          8.76455903e-01, 8.60066831e-01, 8.75991523e-01, 9.41079557e-01,
          1.32666752e-01, -7.14707598e-02, 2.69083858e-01,
          7.41674483e-01, 7.68174887e-01, 7.39714980e-01, 7.67361104e-01,
          8.85630727e-01 ]
      - [ 6.30208349e+00, 2.98816562e+00, 3.07812500e+00, 6.99408293e+00,
          1.34375000e+00, 7.51479268e-01, 8.17708313e-01, 1.44378698e+00,
          6.97842717e-01, 8.02666545e-01, 7.74665773e-01, 6.85770273e-01,
          6.56652927e-01, 7.12680101e-01, 6.89804375e-01, 6.34337723e-01,
          1.25873864e-01, 6.04757071e-01, 6.37353182e-01, 9.90772396e-02,
          4.31193024e-01, 5.07912874e-01, 4.75830078e-01, 4.02384371e-01 ]
      - [ 8.22916698e+00, 1.13431950e+01, 9.78645802e+00, 1.19289942e+01,
          2.28125000e+00, 2.72781062e+00, 2.40104175e+00, 2.84023666e+00,
          3.47494900e-01, 3.00016642e-01, 3.65887105e-01, 2.81991512e-01,
          1.57201961e-01, 1.45482734e-01, 1.52871460e-01, 1.48813918e-01,
          1.54397219e-01, -1.33912593e-01, -3.03746015e-03,
          -1.87254325e-01, 2.47124564e-02, 2.11652257e-02,
          2.33696830e-02, 2.21455824e-02 ]
      - [ 1.60833340e+01, 1.53431950e+01, 6.84375000e+00, 1.45029583e+01,
          2.90625000e+00, 2.66863894e+00, 1.47916663e+00, 2.65680480e+00,
          4.20328557e-01, 4.92903590e-01, 6.39327168e-01, 4.61950868e-01,
          3.54492038e-01, 4.05616879e-01, 3.96021754e-01, 3.67602795e-01,
          -2.40539491e-01, -2.49084666e-01, 5.61555445e-01,
          -1.88029617e-01, 1.25664607e-01, 1.64525047e-01,
          1.56833231e-01, 1.35131821e-01 ]
      - [ 6.84375000e+00, 7.91715956e+00, 8.15104198e+00, 7.88165665e+00,
          1.83333337e+00, 2.13017750e+00, 2.14062500e+00, 2.09467459e+00,
          4.79162216e-01, 4.00374770e-01, 3.96336496e-01, 3.98063630e-01,
          2.09760740e-01, 2.06804529e-01, 1.79215103e-01, 1.93871662e-01,
          2.85286933e-01, 1.73663586e-01, 1.68629944e-01, 1.57151416e-01,
          4.39995676e-02, 4.27681096e-02, 3.21180560e-02, 3.75862196e-02 ]
      - [ 1.84583340e+01, 2.03195267e+01, 1.05989580e+01, 1.02011833e+01,
          3.17708325e+00, 3.44378710e+00, 2.02604175e+00, 1.96449709e+00,
          4.02693123e-01, 3.71909827e-01, 5.57938755e-01, 5.70745766e-01,
          3.17857713e-01, 3.10100943e-01, 3.74004036e-01, 3.71675819e-01,
          3.74360606e-02, -6.06940128e-02, 4.44083601e-01,
          4.74776834e-01, 1.01033531e-01, 9.61626023e-02, 1.39879018e-01,
          1.38142928e-01 ]
      - [ 1.01979170e+01, 6.69822502e+00, 8.25000000e+00, 1.26982250e+01,
          2.07291675e+00, 1.43195271e+00, 1.66666663e+00, 2.52070999e+00,
          5.41482389e-01, 6.58625305e-01, 6.28337562e-01, 4.53590125e-01,
          3.87644887e-01, 4.62277502e-01, 4.28510070e-01, 3.30673426e-01,
          3.63198102e-01, 5.97701967e-01, 5.38997412e-01, 2.58147269e-01,
          1.50268555e-01, 2.13700503e-01, 1.83620870e-01, 1.09344915e-01 ]
      - [ 8.73437500e+00, 8.26627254e+00, 9.20312500e+00, 9.25443745e+00,
          2.17187500e+00, 2.15976334e+00, 2.19270825e+00, 2.22485209e+00,
          4.19731140e-01, 4.06443149e-01, 4.35285658e-01, 4.18991208e-01,
          2.18284473e-01, 2.18694896e-01, 2.36477837e-01, 2.26481169e-01,
          1.04095630e-01, 1.55460954e-01, 8.13310072e-02, 8.13940540e-02,
          4.76481132e-02, 4.78274561e-02, 5.59217669e-02, 5.12937233e-02 ]
      - [ 1.32708330e+01, 1.43609467e+01, 1.19270830e+01, 1.05502958e+01,
          2.89583325e+00, 3.08284020e+00, 2.56250000e+00, 2.44378710e+00,
          2.93302149e-01, 2.71822780e-01, 3.82292241e-01, 3.74540776e-01,
          1.57288224e-01, 1.52704000e-01, 1.75699249e-01, 1.62425771e-01,
          -7.86754712e-02, -1.52374700e-01, 1.01946108e-01,
          1.25520021e-01, 2.47395840e-02, 2.33185105e-02, 3.08702253e-02,
          2.63821296e-02 ]
      - [ 3.77604175e+00, 2.66272187e+00, 2.56770825e+00, 3.96449709e+00,
          8.59375000e-01, 5.91715991e-01, 6.71875000e-01, 8.99408281e-01,
          7.88502812e-01, 8.57632935e-01, 8.15468013e-01, 7.81276762e-01,
          7.47309625e-01, 8.17414463e-01, 7.61993587e-01, 7.37036824e-01,
          6.78706691e-02, 3.05707723e-01, 4.95672315e-01, 4.33423445e-02,
          5.58471680e-01, 6.68166399e-01, 5.80634236e-01, 5.43223262e-01 ]
      - [ 1.28177080e+01, 1.77929001e+01, 1.59531250e+01, 6.40236664e+00,
          2.40104175e+00, 3.20118332e+00, 2.89062500e+00, 1.39644969e+00,
          4.93460715e-01, 3.61956328e-01, 4.12932426e-01, 6.61172152e-01,
          3.43513191e-01, 2.81889170e-01, 3.04943353e-01, 3.98014218e-01,
          2.75962979e-01, -5.70850680e-03, 9.51916799e-02,
          6.48119926e-01, 1.18001305e-01, 7.94615000e-02, 9.29904506e-02,
          1.58415318e-01 ]
      - [ 1.02083337e+00, 1.15976334e+00, 1.02083337e+00, 0.,
          1.45833328e-01, 1.65680468e-01, 1.45833328e-01, 0.,
          9.79583323e-01, 9.76804733e-01, 9.79583323e-01, 1.,
          9.79277492e-01, 9.76474822e-01, 9.79277492e-01, 1.,
          -1.05263162e-02, -1.19760484e-02, -1.05263162e-02, 1.,
          9.58984375e-01, 9.53503013e-01, 9.58984375e-01, 1. ]
      - [ 4.84375000e+00, 3.68047333e+00, 7.27604151e+00, 8.76331329e+00,
          7.60416687e-01, 5.91715991e-01, 1.14062500e+00, 1.33136094e+00,
          8.71168315e-01, 8.98528636e-01, 8.14021945e-01, 7.92753220e-01,
          8.00949574e-01, 8.76968205e-01, 8.01618159e-01, 7.77245462e-01,
          5.40816307e-01, 4.54957426e-01, 6.17847927e-02,
          -2.97539728e-03, 6.41520202e-01, 7.69073188e-01,
          6.42591715e-01, 6.04110479e-01 ]
      - [ 9.13020802e+00, 1.35207100e+01, 1.56562500e+01, 1.86627216e+01,
          2.00520825e+00, 2.62130189e+00, 3.03125000e+00, 3.52662730e+00,
          5.08083880e-01, 4.25824612e-01, 3.38074565e-01, 2.59808660e-01,
          2.71833092e-01, 2.43683547e-01, 2.02053800e-01, 2.08364695e-01,
          4.54138100e-01, 9.88833010e-02, -6.04148693e-02,
          -2.47626588e-01, 7.38932267e-02, 5.93816750e-02,
          4.08257395e-02, 4.34158482e-02 ]
      - [ 8.61458302e+00, 9.75147915e+00, 9.73958302e+00, 9.28994083e+00,
          2.07291675e+00, 2.43786979e+00, 2.38541675e+00, 2.24852061e+00,
          4.43316281e-01, 3.36077094e-01, 3.54784280e-01, 4.01492417e-01,
          1.86266199e-01, 1.81271881e-01, 1.75699249e-01, 1.87864006e-01,
          1.12164788e-01, -1.73927709e-01, -1.02438606e-01,
          -6.91203028e-02, 3.46950963e-02, 3.28594930e-02,
          3.08702253e-02, 3.52928825e-02 ]
      - [ 1.06979170e+01, 1.28461542e+01, 1.38072920e+01, 1.13431950e+01,
          2.28125000e+00, 2.75147939e+00, 2.89062500e+00, 2.38461542e+00,
          4.57080096e-01, 3.51770312e-01, 3.37280095e-01, 4.38344359e-01,
          2.92595237e-01, 2.06973761e-01, 2.14270860e-01, 2.66272187e-01,
          2.35978559e-01, 6.05209023e-02, -4.90515912e-03,
          1.65303081e-01, 8.56119767e-02, 4.28381376e-02, 4.59120013e-02,
          7.09008798e-02 ]
      - [ 5.88541651e+00, 6.53254461e+00, 5.45312500e+00, 1.68047333e+00,
          9.27083313e-01, 1.04142010e+00, 8.69791687e-01, 2.72189349e-01,
          8.51450145e-01, 8.25160086e-01, 8.55220377e-01, 9.52298582e-01,
          8.30871999e-01, 8.14313829e-01, 8.35722506e-01, 9.06320751e-01,
          2.60345131e-01, 4.30429615e-02, 2.07304552e-01, 7.12626338e-01,
          6.90348327e-01, 6.63107038e-01, 6.98432088e-01, 8.21417332e-01 ]
      - [ 1.03958330e+01, 7.99408293e+00, 7.63541651e+00, 1.12662725e+01,
          2.36458325e+00, 1.99408281e+00, 1.95833337e+00, 2.60355020e+00,
          4.19094920e-01, 4.67131227e-01, 4.62367654e-01, 3.47873867e-01,
          2.50785440e-01, 2.87515521e-01, 2.65062720e-01, 2.06635147e-01,
          1.86288670e-01, 3.29263628e-01, 3.74395460e-01, 9.75594744e-02,
          6.28933385e-02, 8.26651752e-02, 7.02582449e-02, 4.26980853e-02 ]
      - [ 7.27083349e+00, 1.13550301e+01, 8.23437500e+00, 9.77514839e+00,
          2.01041675e+00, 2.69230771e+00, 2.28645825e+00, 2.50887585e+00,
          4.08521503e-01, 3.10096085e-01, 3.36846530e-01, 3.28625232e-01,
          1.64825439e-01, 1.64939165e-01, 1.69690982e-01, 1.63071170e-01,
          2.07999438e-01, -1.96231797e-01, 1.20708756e-01,
          -4.64922143e-03, 2.71674264e-02, 2.72049289e-02,
          2.87950300e-02, 2.65922062e-02 ]
      - [ 1.01197920e+01, 1.30355034e+01, 1.11145830e+01, 7.45562124e+00,
          2.04687500e+00, 2.51479292e+00, 2.23958325e+00, 1.71597636e+00,
          5.28845608e-01, 4.51176822e-01, 4.85584378e-01, 5.60633242e-01,
          3.00868601e-01, 2.75322855e-01, 2.94788897e-01, 3.32494885e-01,
          2.85737664e-01, 6.96755648e-02, 1.78332075e-01, 4.07977045e-01,
          9.05219167e-02, 7.58026689e-02, 8.69005024e-02, 1.10552855e-01 ]
      - [ 8.77604198e+00, 1.51301775e+01, 1.47135420e+01, 7.66272211e+00,
          1.67187500e+00, 2.65680480e+00, 2.54687500e+00, 1.49704146e+00,
          6.42965496e-01, 4.98637527e-01, 5.24353385e-01, 6.72444761e-01,
          5.03662288e-01, 4.30897623e-01, 4.54947233e-01, 5.33726513e-01,
          4.95951891e-01, 1.22395284e-01, 1.63225740e-01, 5.70495665e-01,
          2.53675669e-01, 1.85672775e-01, 2.06976995e-01, 2.84863979e-01 ]
      - [ 6.88541651e+00, 9.56804752e+00, 1.19322920e+01, 1.18284025e+01,
          1.22916663e+00, 1.59171593e+00, 1.94270837e+00, 1.95857990e+00,
          7.61066139e-01, 7.19606280e-01, 6.67025268e-01, 6.51630223e-01,
          6.56704545e-01, 6.69803143e-01, 6.23076439e-01, 6.07121944e-01,
          4.94211286e-01, 2.95187682e-01, 1.22739524e-01, 1.37276188e-01,
          4.31260854e-01, 4.48636264e-01, 3.88224274e-01, 3.68597031e-01 ]
      - [ 5.20833349e+00, 1.51360950e+01, 1.74791660e+01, 1.19585800e+01,
          1.06250000e+00, 2.48520708e+00, 2.75000000e+00, 1.94674551e+00,
          7.58290231e-01, 5.66477537e-01, 5.49538910e-01, 6.66950524e-01,
          5.65673888e-01, 4.83725548e-01, 4.73514557e-01, 5.06358147e-01,
          7.31828570e-01, 2.45077223e-01, 1.37487546e-01, 4.11143214e-01,
          3.19986969e-01, 2.33990401e-01, 2.24216044e-01, 2.56398588e-01 ]
      - [ 8.61979198e+00, 1.21301775e+01, 1.21510420e+01, 1.06272192e+01,
          1.96354163e+00, 2.72189355e+00, 2.71354175e+00, 2.36686397e+00,
          5.11351883e-01, 3.38575989e-01, 3.39954734e-01, 4.19700533e-01,
          3.11848283e-01, 2.06931457e-01, 2.07289055e-01, 2.53161788e-01,
          3.63078147e-01, 9.11404192e-02, 7.90477097e-02, 2.01773584e-01,
          9.72493514e-02, 4.28206287e-02, 4.29687500e-02, 6.40908927e-02 ]
      - [ 6.21354151e+00, 8.96449661e+00, 9.08333302e+00, 7.05325460e+00,
          1.80729163e+00, 2.39644980e+00, 2.46875000e+00, 2.09467459e+00,
          4.61370766e-01, 3.25811923e-01, 3.07520986e-01, 3.79418254e-01,
          2.02087358e-01, 1.51784092e-01, 1.49280325e-01, 1.51264176e-01,
          2.88742036e-01, -1.24783367e-01, -8.19138214e-02,
          1.48405865e-01, 4.08392996e-02, 2.30384097e-02, 2.22846139e-02,
          2.28808522e-02 ]
      - [ 8.46354198e+00, 9.20710087e+00, 9.71354198e+00, 7.81065083e+00,
          2.20312500e+00, 2.30769229e+00, 2.44270825e+00, 2.16568041e+00,
          3.80329728e-01, 3.69907469e-01, 3.39617372e-01, 3.71495068e-01,
          1.60953507e-01, 1.66523635e-01, 1.54635757e-01, 1.57944947e-01,
          1.62819535e-01, -1.99360810e-02, 2.55358703e-02,
          2.11162820e-01, 2.59060338e-02, 2.77301222e-02, 2.39122175e-02,
          2.49466058e-02 ]
      - [ 1.09375000e+00, 1.24260354e+00, 1.09375000e+00, 2.89940834e-01,
          1.77083328e-01, 2.01183438e-01, 1.77083328e-01, 4.14201170e-02,
          9.70422268e-01, 9.66396928e-01, 9.70422268e-01, 9.94201183e-01,
          9.68847990e-01, 9.64624107e-01, 9.68847990e-01, 9.94091630e-01,
          -1.45438071e-02, -1.65559128e-02, -1.45438071e-02,
          -2.96735903e-03, 9.38666463e-01, 9.30499613e-01,
          9.38666463e-01, 9.88218188e-01 ]
      - [ 1.05729163e+00, 4.11242580e+00, 4.58854151e+00, 4.40828419e+00,
          3.07291657e-01, 7.98816562e-01, 9.01041687e-01, 8.57988179e-01,
          9.05676067e-01, 8.44859481e-01, 8.20823312e-01, 8.30158830e-01,
          8.50075960e-01, 8.36833656e-01, 8.10452461e-01, 8.19446504e-01,
          8.22706997e-01, -8.41082707e-02, -9.70539153e-02,
          -9.11021084e-02, 7.22629130e-01, 7.00290620e-01,
          6.56833231e-01, 6.71492577e-01 ]
      - [ 1.23437500e+00, 5.86390543e+00, 5.82291651e+00, 5.73964500e+00,
          2.55208343e-01, 8.81656826e-01, 9.16666687e-01, 9.11242604e-01,
          9.37609792e-01, 8.66825998e-01, 8.53204131e-01, 8.53581011e-01,
          8.76161814e-01, 8.60900998e-01, 8.46237957e-01, 8.48426640e-01,
          8.51054370e-01, -7.09848255e-02, -7.77634978e-02,
          -7.79762194e-02, 7.67659485e-01, 7.41150498e-01,
          7.16118693e-01, 7.19827712e-01 ]
      - [ 1.73437500e+00, 2.53254437e+00, 3.11458325e+00, 3.24852061e+00,
          2.65625000e-01, 3.66863906e-01, 4.58333343e-01, 4.79289949e-01,
          9.56494927e-01, 9.47852254e-01, 9.33755636e-01, 9.30538952e-01,
          9.32757080e-01, 9.47346330e-01, 9.33084190e-01, 9.29841697e-01,
          6.01514518e-01, -2.72972584e-02, -3.49004902e-02,
          -3.66534255e-02, 8.70035827e-01, 8.97465050e-01,
          8.70646179e-01, 8.64605606e-01 ]
      - [ 7.35416651e+00, 7.79289961e+00, 5.76041651e+00, 5.15976334e+00,
          1.82291663e+00, 1.98224854e+00, 1.60416663e+00, 1.39644969e+00,
          5.20409048e-01, 4.77967352e-01, 5.42481065e-01, 5.95402181e-01,
          3.76804113e-01, 3.34646642e-01, 3.94700944e-01, 4.25686091e-01,
          2.21175894e-01, 1.82451800e-01, 3.41858447e-01, 4.52371210e-01,
          1.41981333e-01, 1.11988373e-01, 1.55788839e-01, 1.81208640e-01 ]
      - [ 15., 1.07928991e+01, 7.51041651e+00, 1.38520708e+01,
          2.47916675e+00, 1.77514791e+00, 1.40625000e+00, 2.36094666e+00,
          5.63538432e-01, 6.80352688e-01, 7.08046377e-01, 5.67063212e-01,
          5.31760395e-01, 5.84677041e-01, 5.87307453e-01, 5.35756230e-01,
          -1.44565934e-02, 2.92809159e-01, 4.76395994e-01,
          4.54638116e-02, 2.82769084e-01, 3.41847271e-01, 3.44930023e-01,
          2.87034780e-01 ]
      - [ 4.00520849e+00, 4.77514791e+00, 3.22916675e+00, 2.49112415e+00,
          1.03645837e+00, 1.22485209e+00, 8.95833313e-01, 6.92307711e-01,
          7.19728291e-01, 6.72101259e-01, 7.45836139e-01, 7.96138167e-01,
          6.24869764e-01, 5.75806856e-01, 6.28613710e-01, 6.88745677e-01,
          2.85812050e-01, 2.19913006e-01, 4.75391328e-01, 5.76863050e-01,
          3.90462250e-01, 3.31553519e-01, 3.95155162e-01, 4.74370658e-01 ]
      - [ 7.01562500e+00, 8.23076916e+00, 9.02604198e+00, 7.66272211e+00,
          1.91145837e+00, 2.04142022e+00, 2.14062500e+00, 1.93491125e+00,
          4.49843258e-01, 4.42663282e-01, 4.35476780e-01, 4.76586848e-01,
          2.52939522e-01, 2.49680310e-01, 2.44403511e-01, 2.57651359e-01,
          1.88094407e-01, -4.39024381e-02, -4.74611968e-02,
          8.64617005e-02, 6.39784038e-02, 6.23402558e-02, 5.97330742e-02,
          6.63842335e-02 ]
      - [ 1.83229160e+01, 1.57573967e+01, 1.76979160e+01, 1.12899408e+01,
          3.16666675e+00, 2.82248521e+00, 3.10416675e+00, 2.13017750e+00,
          4.09005940e-01, 4.36483681e-01, 4.08734739e-01, 5.50168633e-01,
          3.63372236e-01, 3.41200083e-01, 3.41096133e-01, 3.99769723e-01,
          -2.20115602e-01, -2.14910619e-02, -1.34277493e-01,
          2.26503804e-01, 1.32039383e-01, 1.16417490e-01, 1.16346568e-01,
          1.59815833e-01 ]
      - [ 1.02968750e+01, 5.39644957e+00, 1.06302080e+01, 1.26449699e+01,
          1.70312500e+00, 9.58579898e-01, 1.73437500e+00, 2.06508875e+00,
          6.98393106e-01, 8.16672206e-01, 6.99696183e-01, 6.44258976e-01,
          6.39957726e-01, 7.37131834e-01, 6.41164660e-01, 6.02461576e-01,
          1.92929968e-01, 5.70805609e-01, 1.60182208e-01, 7.50650279e-03,
          4.09545898e-01, 5.43363333e-01, 4.11092132e-01, 3.62959981e-01 ]
      - [ 5.61979151e+00, 5.78698206e+00, 4.39583349e+00, 3.37278104e+00,
          1.03645837e+00, 1.07692313e+00, 8.64583313e-01, 6.98224843e-01,
          7.89348364e-01, 7.77804971e-01, 8.17707956e-01, 8.39191675e-01,
          7.43105233e-01, 7.26558805e-01, 7.61673093e-01, 8.00414801e-01,
          1.08078264e-01, -3.78384478e-02, 3.38536382e-01,
          3.41999203e-01, 5.52205384e-01, 5.27887702e-01, 5.80145955e-01,
          6.40663862e-01 ]
      - [ 1.10052080e+01, 1.37337275e+01, 1.21197920e+01, 1.34437866e+01,
          2.63020825e+00, 3.03550291e+00, 2.77604175e+00, 3.01775146e+00,
          3.22048515e-01, 2.55773753e-01, 3.11139375e-01, 2.70561308e-01,
          1.36115983e-01, 1.43422484e-01, 1.36861280e-01, 1.40025556e-01,
          3.04826237e-02, -1.38952568e-01, -3.72294672e-02,
          -1.22424640e-01, 1.85275599e-02, 2.05700081e-02,
          1.87310111e-02, 1.96071565e-02 ]
      - [ 1.05937500e+01, 6.11834335e+00, 1.05885420e+01, 1.18757401e+01,
          2.57291675e+00, 1.75147927e+00, 2.55729175e+00, 2.82248521e+00,
          3.10792387e-01, 4.64212328e-01, 3.23077977e-01, 2.75273114e-01,
          1.42207533e-01, 1.58774063e-01, 1.45600632e-01, 1.43239275e-01,
          -1.09208755e-01, 3.62594485e-01, -1.04491459e-02,
          -1.67324290e-01, 2.02229824e-02, 2.52092015e-02,
          2.11995449e-02, 2.05174889e-02 ]
      - [ 4.52604151e+00, 5.62130153e-01, 4.43750000e+00, 5.26627207e+00,
          7.23958313e-01, 1.00591719e-01, 7.08333313e-01, 8.40236664e-01,
          8.77301872e-01, 9.80159938e-01, 8.78557980e-01, 8.58516872e-01,
          8.66479456e-01, 9.41535234e-01, 8.66448164e-01, 8.48715425e-01,
          2.02597976e-01, 8.80086780e-01, 1.77076623e-01,
          -2.62971148e-02, 7.50786662e-01, 8.86488557e-01,
          7.50732422e-01, 7.20317900e-01 ]
      - [ 1.43020830e+01, 1.27633133e+01, 1.50208330e+01, 1.33254442e+01,
          2.97916675e+00, 2.82248521e+00, 3.20833325e+00, 2.82840228e+00,
          3.06775540e-01, 3.16691428e-01, 2.49708220e-01, 3.39379877e-01,
          1.65441453e-01, 1.66838720e-01, 1.54460236e-01, 1.59763306e-01,
          -3.84183601e-02, 7.56116733e-02, -1.16693288e-01,
          2.34873332e-02, 2.73708776e-02, 2.78351605e-02, 2.38579642e-02,
          2.55243164e-02 ]
      - [ 1.21562500e+01, 1.43491125e+01, 1.41406250e+01, 1.48520708e+01,
          2.44791675e+00, 2.75147939e+00, 2.67187500e+00, 2.81656814e+00,
          4.38742280e-01, 4.11735386e-01, 4.43359077e-01, 3.93202245e-01,
          2.93197244e-01, 2.97039062e-01, 2.91782916e-01, 2.80144870e-01,
          1.13975808e-01, -8.04131031e-02, 2.69389395e-02,
          -5.41605763e-02, 8.59646276e-02, 8.82322043e-02,
          8.51372629e-02, 7.84811452e-02 ]
      - [ 9.53125000e-01, 7.92899430e-01, 1.39583337e+00, 1.08284020e+00,
          1.40625000e-01, 1.18343197e-01, 2.08333328e-01, 1.59763306e-01,
          9.79619920e-01, 9.82645154e-01, 9.69448209e-01, 9.76846337e-01,
          9.79235947e-01, 9.82293069e-01, 9.68890011e-01, 9.76420999e-01,
          -1.04827229e-02, -8.91027320e-03, -1.57927983e-02,
          -1.19263800e-02, 9.58903015e-01, 9.64899659e-01,
          9.38747823e-01, 9.53397989e-01 ]
      - [ 1.44687500e+01, 1.47396450e+01, 6.45312500e+00, 1.19408283e+01,
          2.34375000e+00, 2.37278104e+00, 1.17187500e+00, 1.92899406e+00,
          5.94583511e-01, 5.89383483e-01, 7.59570837e-01, 6.60467386e-01,
          4.50212151e-01, 4.52111274e-01, 5.32346725e-01, 4.82638597e-01,
          3.12530458e-01, 3.19357634e-01, 7.07161248e-01, 4.60366338e-01,
          2.02690974e-01, 2.04404607e-01, 2.83393025e-01, 2.32940018e-01 ]
      - [ 1.86406250e+01, 1.67514801e+01, 9.24479198e+00, 1.93136101e+01,
          3.35937500e+00, 3.05917168e+00, 1.93229163e+00, 3.46745563e+00,
          3.27559114e-01, 3.75082701e-01, 5.52894771e-01, 3.15262586e-01,
          2.51406640e-01, 2.72028506e-01, 3.28785717e-01, 2.57515460e-01,
          -1.38880447e-01, -5.51027954e-02, 3.83969665e-01,
          -2.00334236e-01, 6.32052943e-02, 7.39995092e-02,
          1.08100042e-01, 6.63142055e-02 ]
      - [ 8.50000000e+00, 7.73964500e+00, 7.45833349e+00, 1.01420116e+01,
          2.26041675e+00, 2.13017750e+00, 2.01041675e+00, 2.50887585e+00,
          3.67469430e-01, 3.70884269e-01, 4.19144303e-01, 3.28376740e-01,
          1.42968506e-01, 1.46262810e-01, 1.54196575e-01, 1.41579717e-01,
          6.95553049e-02, 1.60072953e-01, 2.59721160e-01,
          -1.19949579e-01, 2.04399955e-02, 2.13928092e-02,
          2.37765834e-02, 2.00448167e-02 ]
      - [ 1.23593750e+01, 1.33313608e+01, 1.12135420e+01, 1.10887575e+01,
          2.67187500e+00, 2.78698230e+00, 2.43229175e+00, 2.55621290e+00,
          3.64153773e-01, 3.51752758e-01, 4.19178337e-01, 3.53801370e-01,
          1.71361297e-01, 1.75929815e-01, 2.23321527e-01, 1.86507896e-01,
          5.84024191e-02, -4.16501947e-02, 1.17230065e-01,
          1.37200743e-01, 2.93646920e-02, 3.09512969e-02, 4.98725027e-02,
          3.47851962e-02 ]
      - [ 1.79479160e+01, 1.02189350e+01, 1.62343750e+01, 1.84082832e+01,
          2.89583325e+00, 1.78106511e+00, 2.71354175e+00, 3.02366853e+00,
          5.01295149e-01, 6.65747404e-01, 5.08644998e-01, 4.71438915e-01,
          4.22838420e-01, 4.63109910e-01, 4.11474824e-01, 3.74491245e-01,
          9.33343545e-02, 4.95244503e-01, 1.91242456e-01, 5.90485036e-02,
          1.78792313e-01, 2.14470789e-01, 1.69311523e-01, 1.40243694e-01 ]
      - [ 1.19479170e+01, 1.21301775e+01, 5.23437500e+00, 1.22426033e+01,
          2.31250000e+00, 2.26035500e+00, 1.27604163e+00, 2.28994083e+00,
          5.12503564e-01, 5.39997816e-01, 6.62403286e-01, 5.33096611e-01,
          3.84941280e-01, 4.08669740e-01, 5.04818916e-01, 4.23666149e-01,
          2.29511872e-01, 2.44242102e-01, 6.73619330e-01, 2.39960745e-01,
          1.48179799e-01, 1.67010963e-01, 2.54842132e-01, 1.79493010e-01 ]
      - [ 6.66145849e+00, 1.58520708e+01, 1.55260420e+01, 1.52366867e+01,
          1.84895837e+00, 3.31952667e+00, 3.33854175e+00, 3.17751479e+00,
          4.63012576e-01, 2.32047305e-01, 2.16980547e-01, 2.61962593e-01,
          2.03591883e-01, 1.58608586e-01, 1.60784885e-01, 1.58000350e-01,
          4.23591912e-01, -2.72986472e-01, -2.66558319e-01,
          -2.13449091e-01, 4.14496511e-02, 2.51566824e-02,
          2.58517787e-02, 2.49641128e-02 ]
      - [ 1.00104170e+01, 1.52189350e+01, 1.69166660e+01, 1.49585800e+01,
          2.36458325e+00, 3.11242604e+00, 3.48958325e+00, 3.13609457e+00,
          4.03365880e-01, 2.95372307e-01, 2.17851996e-01, 2.74772406e-01,
          2.08365887e-01, 1.65416107e-01, 1.58790112e-01, 1.67936876e-01,
          2.49850586e-01, -1.48742288e-01, -3.10387433e-01,
          -1.22563623e-01, 4.34163399e-02, 2.73624882e-02,
          2.52143014e-02, 2.82027945e-02 ]
      - [ 1.25000000e+01, 1.27751484e+01, 8.51041698e+00, 1.24437866e+01,
          2.79166675e+00, 2.72781062e+00, 2., 2.75147939e+00,
          3.13245833e-01, 3.40730667e-01, 4.79351699e-01, 3.17022383e-01,
          1.48916438e-01, 1.64460853e-01, 1.96299583e-01, 1.53276145e-01,
          -1.15241639e-01, -1.48315713e-01, 3.06009769e-01,
          -9.45282355e-02, 2.21761074e-02, 2.70473715e-02,
          3.85335274e-02, 2.34935749e-02 ]
      - [ 5.79166651e+00, 7.07100582e+00, 4.46875000e+00, 2.60355020e+00,
          9.58333313e-01, 1.14201188e+00, 7.60416687e-01, 4.49704140e-01,
          8.35479021e-01, 8.13392937e-01, 8.62371385e-01, 9.12042201e-01,
          8.11096549e-01, 7.86002874e-01, 8.09439361e-01, 8.70818198e-01,
          1.99081674e-01, 1.33115709e-01, 4.97805089e-01, 6.10737681e-01,
          6.57877624e-01, 6.17800474e-01, 6.55192077e-01, 7.58324265e-01 ]
      - [ 1.79843750e+01, 1.91952667e+01, 1.22135420e+01, 2.19171600e+01,
          3.28645825e+00, 3.47929001e+00, 2.38020825e+00, 3.88165689e+00,
          3.31998467e-01, 3.10733289e-01, 4.79879081e-01, 2.52085418e-01,
          2.32165515e-01, 2.21676424e-01, 2.95776486e-01, 2.32846066e-01,
          -4.52360809e-02, -1.12523489e-01, 2.85858750e-01,
          -2.74604261e-01, 5.39008230e-02, 4.91404347e-02,
          8.74837264e-02, 5.42172901e-02 ]
      - [ 1.32864580e+01, 9.14201164e+00, 5.09895849e+00, 1.35502958e+01,
          2.41145825e+00, 1.74556208e+00, 1.16145837e+00, 2.47337270e+00,
          5.20854712e-01, 6.28055096e-01, 6.93429291e-01, 5.01298428e-01,
          3.81472647e-01, 4.34216321e-01, 4.83127326e-01, 3.84182721e-01,
          2.26133659e-01, 4.86509591e-01, 7.00569391e-01, 2.18483701e-01,
          1.45521373e-01, 1.88543811e-01, 2.33411998e-01, 1.47596374e-01 ]
      - [ 8.61458302e+00, 1.41893492e+01, 1.42135420e+01, 1.19526625e+01,
          2.10416675e+00, 3.05325437e+00, 3.09895825e+00, 2.71005917e+00,
          4.32648867e-01, 2.86239326e-01, 2.66550362e-01, 3.25661123e-01,
          1.64495960e-01, 1.49107724e-01, 1.57029301e-01, 1.58718914e-01,
          2.13407114e-01, -2.12836385e-01, -1.40500128e-01,
          -5.12307137e-03, 2.70589199e-02, 2.22331155e-02,
          2.46582031e-02, 2.51916945e-02 ]
      - [ 11., 1.57159767e+01, 1.48437500e+01, 1.45562134e+01,
          2.50000000e+00, 3.27810645e+00, 3.15625000e+00, 2.98224854e+00,
          3.81062597e-01, 2.59185791e-01, 2.64381111e-01, 3.21233958e-01,
          1.77695021e-01, 1.66471064e-01, 1.58533663e-01, 1.77169293e-01,
          1.25612929e-01, -1.64888099e-01, -1.59656167e-01,
          -8.70213211e-02, 3.15755196e-02, 2.77126152e-02,
          2.51329206e-02, 3.13889571e-02 ]
      - [ 1.11458330e+01, 1.16568050e+01, 1.10729170e+01, 9.18343163e+00,
          2.70833325e+00, 2.79289937e+00, 2.77083325e+00, 2.47337270e+00,
          2.89950520e-01, 2.74992704e-01, 2.68311590e-01, 2.97321618e-01,
          1.36910826e-01, 1.37311265e-01, 1.40093520e-01, 1.42073452e-01,
          -1.63992390e-01, -1.29165739e-01, -1.90468715e-03,
          1.23339683e-01, 1.87445749e-02, 1.88543815e-02, 1.96261927e-02,
          2.01848671e-02 ]
      - [ 9.30729198e+00, 1.14319525e+01, 8.51041698e+00, 9.72781086e+00,
          2.33854175e+00, 2.71005917e+00, 2.14583325e+00, 2.36686397e+00,
          3.56481045e-01, 3.09005171e-01, 4.00846750e-01, 3.77182662e-01,
          1.42683625e-01, 1.42073452e-01, 1.77351207e-01, 1.51264176e-01,
          1.21893167e-01, -5.49463332e-02, 2.53185034e-01,
          1.01772942e-01, 2.03586146e-02, 2.01848671e-02, 3.14534493e-02,
          2.28808522e-02 ]
      - [ 5.01041651e+00, 4.98816586e+00, 5.99479151e+00, 5.02958584e+00,
          7.60416687e-01, 7.63313591e-01, 9.32291687e-01, 7.69230783e-01,
          8.83136272e-01, 8.78627837e-01, 8.50078344e-01, 8.78384233e-01,
          8.71878743e-01, 8.54420245e-01, 8.15532506e-01, 8.60260189e-01,
          3.15436237e-02, 2.40591139e-01, 2.96579063e-01, 2.04437211e-01,
          7.60172546e-01, 7.30033934e-01, 6.65093303e-01, 7.40047634e-01 ]
      - [ 8.81250000e+00, 9.18343163e+00, 9.21875000e+00, 5.78698206e+00,
          2.44791675e+00, 2.50887585e+00, 2.53125000e+00, 1.88165677e+00,
          3.00193846e-01, 2.96595842e-01, 2.82697588e-01, 3.89340878e-01,
          1.49869740e-01, 1.55656174e-01, 1.46297619e-01, 1.52531937e-01,
          -1.97037473e-01, -2.39429161e-01, -1.96788281e-01,
          2.44722068e-01, 2.24609375e-02, 2.42288429e-02, 2.14029942e-02,
          2.32659914e-02 ]
      - [ 1.46302080e+01, 1.34023666e+01, 8.33333302e+00, 1.29940825e+01,
          2.79687500e+00, 2.52662730e+00, 1.78125000e+00, 2.63905334e+00,
          3.90405953e-01, 4.61658835e-01, 5.66554427e-01, 3.95168364e-01,
          2.59634227e-01, 3.08005065e-01, 3.33841562e-01, 2.78515369e-01,
          -1.67115152e-01, -9.20660943e-02, 3.98361951e-01,
          -1.14787780e-01, 6.74099401e-02, 9.48671252e-02,
          1.11450195e-01, 7.75708109e-02 ]
      - [ 6.69791651e+00, 4.37278128e+00, 3.20833325e+00, 7.31952667e+00,
          1.14583337e+00, 7.98816562e-01, 6.25000000e-01, 1.26035500e+00,
          8.00764084e-01, 8.49510372e-01, 8.62086058e-01, 7.79447913e-01,
          7.95307577e-01, 8.41891468e-01, 8.03578496e-01, 7.73870826e-01,
          -5.56215867e-02, 1.47143677e-01, 6.23354375e-01,
          -9.94543582e-02, 6.32514119e-01, 7.08781183e-01,
          6.45738363e-01, 5.98876119e-01 ]
      - [ 8.20312500e+00, 7.55621290e+00, 7.87500000e+00, 8.94674587e+00,
          2.16145825e+00, 2.08875751e+00, 2.13541675e+00, 2.24852061e+00,
          3.92387897e-01, 3.97935629e-01, 3.83338928e-01, 3.87867153e-01,
          1.75351515e-01, 1.90409377e-01, 1.70567945e-01, 1.83001980e-01,
          1.99007228e-01, 2.30603591e-01, 1.53336450e-01, 6.03999197e-02,
          3.07481550e-02, 3.62557322e-02, 2.90934239e-02, 3.34897228e-02 ]
      - [ 1.84114590e+01, 1.80946751e+01, 1.09739580e+01, 1.21834316e+01,
          3.19270825e+00, 3.13609457e+00, 2.06770825e+00, 2.25443792e+00,
          3.90812963e-01, 4.05223429e-01, 5.54628372e-01, 5.23447573e-01,
          2.96806455e-01, 2.87911028e-01, 3.56951356e-01, 3.29453498e-01,
          2.19263900e-02, 3.54752615e-02, 4.16491240e-01, 3.56641620e-01,
          8.80940780e-02, 8.28927532e-02, 1.27414286e-01, 1.08539619e-01 ]
      - [ 8.52083302e+00, 1.04260359e+01, 1.07552080e+01, 8.71005917e+00,
          2.32291675e+00, 2.66272187e+00, 2.58854175e+00, 2.24852061e+00,
          3.40150476e-01, 2.79213071e-01, 3.17105383e-01, 3.68946195e-01,
          1.40287012e-01, 1.40462458e-01, 1.36563659e-01, 1.47692114e-01,
          5.59666269e-02, -1.16745673e-01, -1.08391635e-01,
          5.64317293e-02, 1.96804479e-02, 1.97297018e-02, 1.86496302e-02,
          2.18129624e-02 ]
      - [ 1.54791670e+01, 1.72307701e+01, 9.90625000e+00, 6.72781086e+00,
          2.68750000e+00, 2.94674563e+00, 1.78125000e+00, 1.28402364e+00,
          4.94778901e-01, 4.60626423e-01, 6.35106146e-01, 7.12957799e-01,
          3.85099828e-01, 3.74210656e-01, 4.61812079e-01, 4.88658518e-01,
          2.03303933e-01, 1.00853600e-01, 4.66024071e-01, 6.54716849e-01,
          1.48301870e-01, 1.40033618e-01, 2.13270396e-01, 2.38787159e-01 ]
      - [ 1.09531250e+01, 6.80473375e+00, 8.40104198e+00, 1.35325441e+01,
          2.24479175e+00, 1.59763312e+00, 1.85937500e+00, 2.78698230e+00,
          4.99504656e-01, 5.93527615e-01, 5.49808264e-01, 3.89970541e-01,
          3.52862179e-01, 4.19805706e-01, 3.68247956e-01, 2.93242872e-01,
          2.19049513e-01, 5.10795951e-01, 4.38206941e-01, 6.07015416e-02,
          1.24511719e-01, 1.76236823e-01, 1.35606557e-01, 8.59913900e-02 ]
      - [ 1.29062500e+01, 1.07988167e+01, 1.10833330e+01, 1.19526625e+01,
          2.87500000e+00, 2.51479292e+00, 2.57291675e+00, 2.71005917e+00,
          3.11592966e-01, 3.72309536e-01, 3.52261722e-01, 3.39100391e-01,
          1.60193294e-01, 1.78400159e-01, 1.84950843e-01, 1.68820620e-01,
          -1.53631285e-01, 3.35700661e-02, -1.25470513e-03,
          -2.76463293e-02, 2.56618932e-02, 3.18266153e-02,
          3.42068151e-02, 2.85004023e-02 ]
      - [ 1.49010420e+01, 14., 1.30677080e+01, 1.10650892e+01,
          3.06770825e+00, 2.93491125e+00, 2.65104175e+00, 2.42603540e+00,
          2.86814988e-01, 3.14531118e-01, 3.95409763e-01, 4.00866330e-01,
          1.73328757e-01, 1.66628733e-01, 1.92673132e-01, 1.79866090e-01,
          -5.63621223e-02, 2.90261279e-03, 1.08616792e-01,
          2.06863493e-01, 3.00428607e-02, 2.77651343e-02, 3.71229388e-02,
          3.23518068e-02 ]
      - [ 5.15104151e+00, 3.37278104e+00, 2.98437500e+00, 5.23076916e+00,
          1.09895837e+00, 7.33727813e-01, 7.65625000e-01, 1.12426031e+00,
          7.51631856e-01, 8.26455295e-01, 7.96818256e-01, 7.45954394e-01,
          7.06828594e-01, 7.82229722e-01, 7.41048992e-01, 7.02848017e-01,
          1.08136483e-01, 3.39916140e-01, 5.12365282e-01,
          -2.55642813e-02, 4.99606669e-01, 6.11883342e-01,
          5.49153626e-01, 4.93995309e-01 ]
      - [ 1.57656250e+01, 1.95562134e+01, 1.34218750e+01, 6.31952667e+00,
          2.88020825e+00, 3.48520708e+00, 2.52604175e+00, 1.44378698e+00,
          4.14205343e-01, 3.09577256e-01, 4.63783681e-01, 6.24847353e-01,
          2.75500655e-01, 2.57651359e-01, 2.75279015e-01, 3.46520305e-01,
          8.34729671e-02, -1.32688254e-01, 2.12437779e-01,
          6.37432277e-01, 7.59006068e-02, 6.63842335e-02, 7.57785365e-02,
          1.20076329e-01 ]
      - [ 9.48437500e+00, 1.19763317e+01, 1.35312500e+01, 1.50532541e+01,
          2.10937500e+00, 2.52070999e+00, 2.82291675e+00, 3.11242604e+00,
          4.71926332e-01, 4.04380560e-01, 3.45442921e-01, 2.83595532e-01,
          2.33940572e-01, 2.02398002e-01, 1.79744110e-01, 1.85047284e-01,
          3.65808487e-01, 1.08425818e-01, -7.23701203e-03,
          -9.58920866e-02, 5.47281913e-02, 4.09649536e-02,
          3.23079415e-02, 3.42424996e-02 ]
      - [ 1.23125000e+01, 1.41775150e+01, 1.60364590e+01, 11.,
          2.42708325e+00, 2.80473375e+00, 3.08854175e+00, 2.23076916e+00,
          4.73385423e-01, 3.94962311e-01, 3.53320450e-01, 4.90595281e-01,
          3.12369764e-01, 2.43611708e-01, 2.47245014e-01, 2.98860490e-01,
          2.35775858e-01, 1.23442464e-01, -1.19005740e-02,
          3.13135058e-01, 9.75748673e-02, 5.93466610e-02, 6.11300990e-02,
          8.93175974e-02 ]
      - [ 4.83333349e+00, 6.33136082e+00, 5.05208349e+00, 2.24852061e+00,
          8.22916687e-01, 1.04142010e+00, 8.33333313e-01, 3.78698230e-01,
          8.47164333e-01, 8.20105433e-01, 8.55058074e-01, 9.29499924e-01,
          8.19439828e-01, 7.96006441e-01, 8.19770813e-01, 8.99953127e-01,
          3.39658439e-01, 5.41671477e-02, 2.46089578e-01, 5.64934611e-01,
          6.71481669e-01, 6.33626282e-01, 6.72024190e-01, 8.09915602e-01 ]
      - [ 1.00052080e+01, 8.56804752e+00, 9.98437500e+00, 1.10295858e+01,
          2.30729175e+00, 2.02366853e+00, 2.40104175e+00, 2.62721896e+00,
          4.28791821e-01, 4.79023516e-01, 3.92228544e-01, 3.38360727e-01,
          2.36535177e-01, 2.55056351e-01, 2.23534003e-01, 2.10537836e-01,
          2.03316927e-01, 2.90772080e-01, 1.84796438e-01, 1.10234886e-01,
          5.59488945e-02, 6.50537461e-02, 4.99674492e-02, 4.43261787e-02 ]
      - [ 1.19270830e+01, 1.57396450e+01, 1.72604160e+01, 9.71597672e+00,
          2.18750000e+00, 2.76923084e+00, 2.93750000e+00, 1.84615386e+00,
          5.63346684e-01, 4.59894389e-01, 4.50361878e-01, 6.13756597e-01,
          4.28272605e-01, 3.50088894e-01, 3.71511549e-01, 4.43550229e-01,
          3.07520747e-01, 9.22821537e-02, 4.94765528e-02, 4.58381951e-01,
          1.83417425e-01, 1.22562237e-01, 1.38020828e-01, 1.96736813e-01 ]
      - [ 7.17708349e+00, 8.31360912e+00, 1.23906250e+01, 1.17218933e+01,
          1.36458337e+00, 1.49704146e+00, 2.07812500e+00, 1.99408281e+00,
          7.09937155e-01, 7.01503992e-01, 6.31502032e-01, 6.37985587e-01,
          6.30961180e-01, 6.39970303e-01, 5.91873884e-01, 5.81885815e-01,
          4.53063816e-01, 3.91894042e-01, 9.94383916e-02, 1.32811397e-01,
          3.98111969e-01, 4.09561992e-01, 3.50314677e-01, 3.38591099e-01 ]
      - [ 8.95833313e-01, 1.64497042e+00, 2.01041675e+00, 2.28402376e+00,
          1.45833328e-01, 2.60355026e-01, 3.22916657e-01, 3.66863906e-01,
          9.74448204e-01, 9.59616184e-01, 9.49251115e-01, 9.42344487e-01,
          9.48231399e-01, 9.58844662e-01, 9.48403060e-01, 9.41460848e-01,
          7.14265943e-01, -2.10370757e-02, -2.66241860e-02,
          -3.03575937e-02, 8.99142802e-01, 9.19383049e-01,
          8.99468303e-01, 8.86348546e-01 ]
      - [ 1.54166663e+00, 1.75147927e+00, 1.39583337e+00, 8.16568077e-01,
          2.91666657e-01, 3.31360936e-01, 2.70833343e-01, 1.30177513e-01,
          9.40835536e-01, 9.32783544e-01, 9.41891313e-01, 9.77911413e-01,
          9.32502568e-01, 9.23351884e-01, 9.32458937e-01, 9.76385176e-01,
          -2.83729006e-02, -3.23592536e-02, 2.97029972e-01,
          3.26732099e-01, 8.69561076e-01, 8.52578700e-01, 8.69479716e-01,
          9.53327954e-01 ]
      - [ 1.04635420e+01, 5.95858002e+00, 5.57291651e+00, 1.18047333e+01,
          1.56770837e+00, 8.93491149e-01, 8.75000000e-01, 1.76923072e+00,
          7.64440477e-01, 8.60111356e-01, 8.55431139e-01, 7.34224916e-01,
          7.66943634e-01, 8.15881729e-01, 7.67765582e-01, 7.37689734e-01,
          -8.67674500e-02, 4.30438429e-01, 5.79097450e-01,
          -5.84900081e-02, 5.88202596e-01, 6.65662944e-01,
          5.89463949e-01, 5.44186115e-01 ]
      - [ 3.30729175e+00, 4.36094666e+00, 3.83854175e+00, 2.62130189e+00,
          5.78125000e-01, 7.39644945e-01, 6.51041687e-01, 4.08284038e-01,
          8.92916501e-01, 8.69209290e-01, 8.84876907e-01, 9.36676741e-01,
          8.75689507e-01, 8.59313428e-01, 8.76006961e-01, 9.23560381e-01,
          3.89384866e-01, -6.69219345e-02, -5.84367737e-02,
          2.44412601e-01, 7.66832113e-01, 7.38419533e-01, 7.67388225e-01,
          8.52963805e-01 ]
      - [ 1.53645837e+00, 5.84023666e+00, 6.95833349e+00, 6.36094666e+00,
          4.42708343e-01, 1.13017750e+00, 1.32291663e+00, 1.21301770e+00,
          8.68208408e-01, 7.79583573e-01, 7.45535254e-01, 7.64383495e-01,
          7.93523371e-01, 7.68160403e-01, 7.36716866e-01, 7.51793742e-01,
          8.12883735e-01, 3.47188264e-02, -1.43845811e-01,
          -7.68957213e-02, 6.29679382e-01, 5.90070367e-01,
          5.42751729e-01, 5.65193772e-01 ]
      - [ 2.05208325e+00, 7.78106499e+00, 7.82291651e+00, 7.74556208e+00,
          4.27083343e-01, 1.23668635e+00, 1.29166663e+00, 1.27218938e+00,
          8.96266341e-01, 8.01952481e-01, 7.83375680e-01, 7.86474347e-01,
          8.08953285e-01, 7.97291994e-01, 7.75202274e-01, 7.79629290e-01,
          8.07592750e-01, -1.08987525e-01, -1.19364053e-01,
          -8.19319338e-02, 6.54405355e-01, 6.35674536e-01,
          6.00938559e-01, 6.07821882e-01 ]
      - [ 6.88541651e+00, 6.99408293e+00, 9.88020802e+00, 9.50887585e+00,
          1.11458337e+00, 1.11242604e+00, 1.50520837e+00, 1.48520708e+00,
          8.08476865e-01, 8.10724378e-01, 7.63620019e-01, 7.56599367e-01,
          7.54570484e-01, 7.62671173e-01, 7.54876018e-01, 7.36656666e-01,
          3.99292856e-01, 2.46821508e-01, -1.29504576e-01,
          3.04848775e-02, 5.69376647e-01, 5.81667304e-01, 5.69837809e-01,
          5.42663097e-01 ]
      - [ 8.62500000e+00, 7.85798836e+00, 9.07812500e+00, 9.19526672e+00,
          2.11458325e+00, 2.09467459e+00, 2.22395825e+00, 2.23668647e+00,
          4.38056737e-01, 4.11139548e-01, 4.08060998e-01, 4.04514104e-01,
          2.30317891e-01, 2.27753013e-01, 2.19276398e-01, 2.23289490e-01,
          8.04895535e-02, 6.65158257e-02, -4.76743542e-02,
          -3.99711728e-02, 5.30463308e-02, 5.18714339e-02,
          4.80821393e-02, 4.98581976e-02 ]
      - [ 1.63020840e+01, 1.42958584e+01, 1.64947910e+01, 1.42662725e+01,
          3.05208325e+00, 2.79289937e+00, 3.10937500e+00, 2.78698230e+00,
          3.61855328e-01, 3.90714049e-01, 3.50043625e-01, 3.95147413e-01,
          2.52268344e-01, 2.68204689e-01, 2.44957834e-01, 2.71513194e-01,
          -7.81988427e-02, 2.98707717e-04, -1.83189198e-01,
          1.66795179e-02, 6.36393204e-02, 7.19337538e-02, 6.00043386e-02,
          7.37194046e-02 ]
      - [ 1.67291660e+01, 7.39644957e+00, 1.37760420e+01, 1.99940834e+01,
          2.77083325e+00, 1.34911239e+00, 2.28645825e+00, 3.21301770e+00,
          5.12509882e-01, 7.16897368e-01, 5.92027485e-01, 4.56217468e-01,
          4.07333612e-01, 5.10661542e-01, 4.46308881e-01, 3.81071508e-01,
          1.90796107e-01, 6.51391149e-01, 3.35948110e-01, 4.09153327e-02,
          1.65920675e-01, 2.60775179e-01, 1.99191630e-01, 1.45215496e-01 ]
      - [ 3.88020825e+00, 3.04733729e+00, 2.07812500e+00, 3.71597624e+00,
          8.38541687e-01, 7.04142034e-01, 5.46875000e-01, 7.92899430e-01,
          8.03428292e-01, 8.24656188e-01, 8.53121340e-01, 8.17548633e-01,
          7.68621922e-01, 7.89691448e-01, 8.13275874e-01, 7.89336681e-01,
          -9.96352211e-02, -8.85566175e-02, 5.85767210e-01,
          -9.24099907e-02, 5.90779603e-01, 6.23612642e-01,
          6.61417663e-01, 6.23052418e-01 ]
      - [ 1.42552080e+01, 1.38994083e+01, 1.47395830e+01, 1.43668642e+01,
          3.00520825e+00, 2.95266271e+00, 3.15625000e+00, 3.11242604e+00,
          3.09709638e-01, 3.09645385e-01, 2.61550814e-01, 2.70433843e-01,
          1.52204573e-01, 1.55487373e-01, 1.49189427e-01, 1.51148394e-01,
          -1.10073924e-01, -3.94643191e-03, -9.94738936e-02,
          -6.01962619e-02, 2.31662318e-02, 2.41763238e-02,
          2.22574864e-02, 2.28458382e-02 ]
      - [ 1.10989580e+01, 7.40828419e+00, 1.02291670e+01, 1.21360950e+01,
          2.72395825e+00, 2.03550291e+00, 2.46875000e+00, 2.79881668e+00,
          2.86965907e-01, 4.05718654e-01, 3.52703869e-01, 2.99240887e-01,
          1.41202524e-01, 1.51206300e-01, 1.47957012e-01, 1.46919638e-01,
          -1.07338056e-01, 2.38815427e-01, 3.43951657e-02,
          -1.77332327e-01, 1.99381504e-02, 2.28633452e-02,
          2.18912754e-02, 2.15853788e-02 ]
      - [ 1.00416670e+01, 6.75147915e+00, 7.72916651e+00, 6.11242580e+00,
          2.59375000e+00, 2.06508875e+00, 2.33333325e+00, 1.91124260e+00,
          3.02434832e-01, 3.69857103e-01, 2.97854751e-01, 3.97450864e-01,
          1.47313908e-01, 1.53732315e-01, 1.50546968e-01, 1.53447360e-01,
          -2.24718288e-01, 1.00722156e-01, 5.25081018e-03,
          2.31867194e-01, 2.17013881e-02, 2.36336254e-02, 2.26643886e-02,
          2.35460941e-02 ]
      - [ 1.48489580e+01, 1.35384617e+01, 1.74531250e+01, 1.39644966e+01,
          2.99479175e+00, 2.87573957e+00, 3.50520825e+00, 2.91124249e+00,
          3.29558849e-01, 3.38416010e-01, 2.36464277e-01, 3.26758415e-01,
          1.77351207e-01, 1.75631031e-01, 1.68849632e-01, 1.80691496e-01,
          -1.03892200e-02, 7.06742480e-02, -2.09639251e-01,
          4.91539091e-02, 3.14534493e-02, 3.08462586e-02, 2.85101999e-02,
          3.26494165e-02 ]
      - [ 1.38072920e+01, 1.45147924e+01, 1.22760420e+01, 1.28343191e+01,
          2.58854175e+00, 2.63313603e+00, 2.34895825e+00, 2.43195271e+00,
          4.56748426e-01, 4.75003570e-01, 4.90405709e-01, 4.80165005e-01,
          3.54358107e-01, 3.61504078e-01, 3.50915700e-01, 3.53992581e-01,
          -1.15435021e-02, -5.60011193e-02, 9.13199857e-02,
          7.67806768e-02, 1.25569656e-01, 1.30685195e-01, 1.23141818e-01,
          1.25310734e-01 ]
      - [ 6.00520849e+00, 2.27218938e+00, 5.66666651e+00, 8.02366829e+00,
          9.53125000e-01, 3.78698230e-01, 8.95833313e-01, 1.23076928e+00,
          8.41543615e-01, 9.27683175e-01, 8.54213417e-01, 8.08549941e-01,
          8.20589423e-01, 9.00098979e-01, 8.25516701e-01, 8.04276764e-01,
          2.00483948e-01, 5.94997406e-01, 3.12842101e-01,
          -1.04234524e-01, 6.73366964e-01, 8.10178220e-01,
          6.81477845e-01, 6.46861076e-01 ]
      - [ 1.48125000e+01, 1.46331358e+01, 8.32291698e+00, 6.47337294e+00,
          2.52083325e+00, 2.51479292e+00, 1.57291663e+00, 1.27810645e+00,
          5.36484957e-01, 5.31799078e-01, 6.72814786e-01, 7.16635287e-01,
          4.19747710e-01, 4.00513470e-01, 4.79958594e-01, 4.91676450e-01,
          2.77247757e-01, 2.92316496e-01, 6.06709659e-01, 6.96279824e-01,
          1.76188156e-01, 1.60411045e-01, 2.30360240e-01, 2.41745740e-01 ]
      - [ 8.08333302e+00, 9.93491077e+00, 6.45833349e+00, 8.,
          2.31250000e+00, 2.53846145e+00, 1.84375000e+00, 2.17751479e+00,
          3.19884628e-01, 3.10092092e-01, 4.49788481e-01, 3.70778620e-01,
          1.46668002e-01, 1.43239275e-01, 1.76546365e-01, 1.49049014e-01,
          5.57636358e-02, -1.29723668e-01, 2.89258271e-01,
          1.98611859e-02, 2.15115026e-02, 2.05174889e-02, 3.11686192e-02,
          2.22156085e-02 ]
      - [ 9.00520802e+00, 1.14556217e+01, 1.25781250e+01, 9.41420078e+00,
          2.36979175e+00, 2.68639064e+00, 2.86979175e+00, 2.34911251e+00,
          3.29467505e-01, 3.08127314e-01, 2.85863221e-01, 3.66725892e-01,
          1.41442448e-01, 1.48224562e-01, 1.44572303e-01, 1.52990341e-01,
          1.08953066e-01, -5.11800647e-02, -1.79380670e-01,
          1.34926885e-01, 2.00059675e-02, 2.19705198e-02, 2.09011510e-02,
          2.34060436e-02 ]
      - [ 2.01979160e+01, 1.71005917e+01, 1.04947920e+01, 1.98106518e+01,
          3.60416675e+00, 3.07692313e+00, 2.11979175e+00, 3.46745563e+00,
          2.92725205e-01, 3.91736567e-01, 5.25649011e-01, 3.33198249e-01,
          2.65803665e-01, 2.85621732e-01, 3.33068728e-01, 2.82075405e-01,
          -1.66725174e-01, -1.45406201e-02, 3.64649266e-01,
          -1.70740798e-01, 7.06515834e-02, 8.15797746e-02,
          1.10934786e-01, 7.95665383e-02 ]
      - [ 1.04010420e+01, 9.45562172e+00, 5.81770849e+00, 1.04319525e+01,
          2.64062500e+00, 2.42603540e+00, 1.78645837e+00, 2.56213021e+00,
          2.94262558e-01, 3.30672234e-01, 4.40627605e-01, 3.28933805e-01,
          1.43489346e-01, 1.47514209e-01, 1.85243949e-01, 1.40587032e-01,
          -4.76194397e-02, 4.69498821e-02, 4.43943620e-01,
          -4.98836301e-02, 2.05891933e-02, 2.17604432e-02,
          3.43153216e-02, 1.97647139e-02 ]
      - [ 1.19062500e+01, 9.43195248e+00, 7.58854151e+00, 9.82840252e+00,
          2.59375000e+00, 2.18934917e+00, 1.83854163e+00, 2.21893501e+00,
          3.72574061e-01, 4.43540931e-01, 5.07457018e-01, 4.29841131e-01,
          2.24049151e-01, 2.52850413e-01, 2.82836944e-01, 2.41010785e-01,
          -8.72770548e-02, 1.39435336e-01, 2.68068105e-01,
          7.95294493e-02, 5.01980260e-02, 6.39333352e-02, 7.99967423e-02,
          5.80862015e-02 ]
      - [ 2.04427090e+01, 2.03846149e+01, 1.64062500e+01, 2.39349117e+01,
          3.48437500e+00, 3.41420126e+00, 2.83333325e+00, 4.00591707e+00,
          3.58496010e-01, 3.83326948e-01, 4.65291739e-01, 2.79614031e-01,
          2.68267095e-01, 2.87576407e-01, 3.04698616e-01, 2.77602464e-01,
          -2.93963980e-02, -3.72023210e-02, 1.96682602e-01,
          -2.11609095e-01, 7.19672292e-02, 8.27001855e-02,
          9.28412527e-02, 7.70631284e-02 ]
      - [ 1.59843750e+01, 1.59822483e+01, 6.35937500e+00, 9.97633171e+00,
          2.86979175e+00, 2.82248521e+00, 1.50520837e+00, 2.,
          4.35815752e-01, 4.52446610e-01, 6.08301044e-01, 5.45464933e-01,
          2.65573919e-01, 2.86019862e-01, 3.80938947e-01, 3.21138829e-01,
          1.24996379e-01, 1.48954302e-01, 6.58842981e-01, 4.69343275e-01,
          7.05295131e-02, 8.18073601e-02, 1.45114481e-01, 1.03130139e-01 ]
      - [ 5.76562500e+00, 1.00473375e+01, 1.20156250e+01, 1.11479292e+01,
          1.93229163e+00, 2.53254437e+00, 2.88020825e+00, 2.78106499e+00,
          3.62386674e-01, 3.16222578e-01, 2.60143965e-01, 2.61524379e-01,
          1.62337989e-01, 1.40835866e-01, 1.43394798e-01, 1.42504081e-01,
          3.42611164e-01, -3.72445397e-02, -2.36999050e-01,
          -1.74910337e-01, 2.63536237e-02, 1.98347401e-02,
          2.05620658e-02, 2.03074124e-02 ]
      - [ 8.73437500e+00, 1.70414200e+01, 1.78333340e+01, 1.61656799e+01,
          2.04687500e+00, 3.44378710e+00, 3.59375000e+00, 3.26627231e+00,
          4.69927430e-01, 2.43284464e-01, 2.13497669e-01, 2.72177398e-01,
          2.26218015e-01, 1.66681260e-01, 1.72819376e-01, 1.71240196e-01,
          4.02005225e-01, -1.89989537e-01, -2.70343810e-01,
          -1.02075696e-01, 5.11745885e-02, 2.77826414e-02,
          2.98665371e-02, 2.93232035e-02 ]
      - [ 1.27343750e+01, 1.43254442e+01, 1.13072920e+01, 1.24437866e+01,
          2.63020825e+00, 2.97633147e+00, 2.61979175e+00, 2.81065083e+00,
          3.90345991e-01, 3.19173217e-01, 3.40720236e-01, 3.15016121e-01,
          2.09113121e-01, 1.71240196e-01, 1.52605057e-01, 1.80691496e-01,
          2.55557075e-02, -1.19066015e-01, 8.38444382e-02,
          2.25020871e-02, 4.37282994e-02, 2.93232035e-02, 2.32883021e-02,
          3.26494165e-02 ]
      - [ 6.55729151e+00, 7.32544374e+00, 8.21354198e+00, 7.92899418e+00,
          1.97395837e+00, 2.13017750e+00, 2.30729175e+00, 2.27218938e+00,
          4.00795728e-01, 3.67734939e-01, 3.26353163e-01, 3.32203746e-01,
          1.57976568e-01, 1.58994421e-01, 1.47589862e-01, 1.51264176e-01,
          1.75899640e-01, 1.52127044e-02, -4.84083481e-02,
          -2.18299627e-02, 2.49565970e-02, 2.52792276e-02,
          2.17827689e-02, 2.28808522e-02 ]
      - [ 2.10937500e+01, 1.67278099e+01, 1.16197920e+01, 2.14615383e+01,
          3.69791675e+00, 3.16568041e+00, 2.31770825e+00, 3.85207105e+00,
          2.94704735e-01, 3.41838628e-01, 4.83864099e-01, 2.53855169e-01,
          2.35068426e-01, 2.05828726e-01, 2.78414518e-01, 2.13551268e-01,
          -1.88471094e-01, 3.32255810e-02, 3.21987003e-01,
          -2.42419109e-01, 5.52571602e-02, 4.23654616e-02,
          7.75146484e-02, 4.56041470e-02 ]
      - [ 1.58593750e+01, 8.74556255e+00, 7.17708349e+00, 1.56331358e+01,
          2.84895825e+00, 1.75147927e+00, 1.53125000e+00, 2.79289937e+00,
          4.38419998e-01, 5.98021448e-01, 6.23514533e-01, 4.60073203e-01,
          3.07864934e-01, 3.80450815e-01, 4.21489030e-01, 3.15862179e-01,
          1.18875146e-01, 5.26400626e-01, 5.98231196e-01, 1.34717271e-01,
          9.47808176e-02, 1.44742832e-01, 1.77653000e-01, 9.97689143e-02 ]
      - [ 1.04166670e+01, 1.65384617e+01, 1.61302090e+01, 1.48639050e+01,
          2.30208325e+00, 3.35502958e+00, 3.27604175e+00, 2.93491125e+00,
          4.34781820e-01, 2.51303166e-01, 2.65834898e-01, 3.52844656e-01,
          2.09954634e-01, 1.83479667e-01, 1.83441311e-01, 1.93555355e-01,
          2.05508471e-01, -1.73038408e-01, -1.51578709e-01,
          -4.53213565e-02, 4.40809466e-02, 3.36647891e-02,
          3.36507149e-02, 3.74636725e-02 ]
      - [ 1.09687500e+01, 1.14615383e+01, 1.19270830e+01, 9.69230747e+00,
          2.68750000e+00, 2.72781062e+00, 2.79166675e+00, 2.43786979e+00,
          2.93684185e-01, 2.98850387e-01, 2.90180504e-01, 3.41580123e-01,
          1.38731465e-01, 1.38010696e-01, 1.37553260e-01, 1.43422484e-01,
          -1.03249572e-01, -1.20954834e-01, -8.12937766e-02,
          7.87953436e-02, 1.92464199e-02, 1.90469529e-02, 1.89208984e-02,
          2.05700081e-02 ]
      - [ 1.20260420e+01, 1.00355034e+01, 1.09166670e+01, 9.98224831e+00,
          2.73437500e+00, 2.54437876e+00, 2.51041675e+00, 2.43195271e+00,
          3.17858607e-01, 3.13508391e-01, 3.67132902e-01, 3.63297582e-01,
          1.45274222e-01, 1.47395492e-01, 1.68246090e-01, 1.61885962e-01,
          -5.42288348e-02, 1.25719860e-01, 8.85924548e-02,
          1.28627688e-01, 2.11046003e-02, 2.17254292e-02, 2.83067487e-02,
          2.62070652e-02 ]
      - [ 6.86979151e+00, 9.76331329e+00, 7.48958349e+00, 6.03550291e+00,
          1.04687500e+00, 1.49112427e+00, 1.17708337e+00, 9.34911251e-01,
          8.36208642e-01, 7.68944383e-01, 8.07783723e-01, 8.53780925e-01,
          8.06753874e-01, 7.54420459e-01, 7.51282930e-01, 8.08380187e-01,
          2.32459709e-01, 8.46392736e-02, 3.74227136e-01, 3.74251306e-01,
          6.50851786e-01, 5.69150269e-01, 5.64426005e-01, 6.53478503e-01 ]
      - [ 1.18541670e+01, 1.03076925e+01, 9.43229198e+00, 1.06745558e+01,
          2.42708325e+00, 2.24852061e+00, 2.07812500e+00, 2.34319520e+00,
          4.33962882e-01, 4.45561826e-01, 4.84230220e-01, 4.26798999e-01,
          2.46805772e-01, 2.61863559e-01, 2.66796857e-01, 2.44830310e-01,
          -8.83009210e-02, 5.74438125e-02, 1.72160611e-01,
          -8.89361948e-02, 6.09130859e-02, 6.85725287e-02,
          7.11805522e-02, 5.99418804e-02 ]
      - [ 8.54687500e+00, 7.01183414e+00, 1.01302080e+01, 8.47929001e+00,
          2.20312500e+00, 1.99408281e+00, 2.59895825e+00, 2.19526625e+00,
          3.90133649e-01, 4.00329232e-01, 2.96357870e-01, 3.86748880e-01,
          1.71044394e-01, 1.84336379e-01, 1.62880167e-01, 1.77169293e-01,
          1.08150914e-01, 2.61931211e-01, -5.02883494e-02,
          9.56137553e-02, 2.92561855e-02, 3.39799039e-02, 2.65299473e-02,
          3.13889571e-02 ]
      - [ 1.54531250e+01, 1.74792900e+01, 1.20572920e+01, 1.12011833e+01,
          2.78645825e+00, 3.08875751e+00, 2.30729175e+00, 2.14792895e+00,
          4.47311461e-01, 3.99895906e-01, 4.99026597e-01, 5.34158826e-01,
          2.67127097e-01, 2.55262196e-01, 3.15759897e-01, 3.16139191e-01,
          1.28809601e-01, 3.66709754e-02, 3.34159732e-01, 3.78696382e-01,
          7.13568777e-02, 6.51587844e-02, 9.97043177e-02, 9.99439806e-02 ]
      - [ 1.04166670e-02, 0., 1.04166670e-02, 1.18343197e-02,
          1.04166670e-02, 0., 1.04166670e-02, 1.18343197e-02,
          9.94791687e-01, 1., 9.94791687e-01, 9.94082868e-01,
          9.89610732e-01, 1., 9.89610732e-01, 9.88201141e-01,
          -5.23560215e-03, 1., -5.23560215e-03, -5.95238106e-03,
          9.79329407e-01, 1., 9.79329407e-01, 9.76541460e-01 ]
      - [ 1.44895830e+01, 1.62248516e+01, 9.96354198e+00, 8.41420078e+00,
          2.58333325e+00, 2.87573957e+00, 1.91145837e+00, 1.64497042e+00,
          4.94511247e-01, 4.39442903e-01, 5.85652709e-01, 6.34648979e-01,
          3.47185314e-01, 3.41968834e-01, 4.24407274e-01, 4.45480019e-01,
          2.04802051e-01, 1.01252124e-01, 4.16274726e-01, 5.38178623e-01,
          1.20537654e-01, 1.16942681e-01, 1.80121526e-01, 1.98452428e-01 ]
      - [ 5.15104151e+00, 6.05917168e+00, 5.04166651e+00, 1.50295854e+00,
          7.65625000e-01, 8.99408281e-01, 7.50000000e-01, 2.24852070e-01,
          8.85604739e-01, 8.67237508e-01, 8.86446059e-01, 9.65680480e-01,
          8.77855301e-01, 8.67615819e-01, 8.67597997e-01, 9.35622513e-01,
          9.52005461e-02, -7.15276375e-02, 2.57288992e-01,
          6.65872693e-01, 7.70629883e-01, 7.52757251e-01, 7.52726257e-01,
          8.75389516e-01 ]
      - [ 7.31770849e+00, 3.73964500e+00, 4.69791651e+00, 6.63313627e+00,
          1.47395837e+00, 8.40236664e-01, 1.07291663e+00, 1.34319532e+00,
          6.80707693e-01, 7.91389287e-01, 7.40354061e-01, 7.07290113e-01,
          6.25964940e-01, 6.94567204e-01, 6.68687940e-01, 6.21738374e-01,
          5.56853674e-02, 5.45288920e-01, 4.87196505e-01, 1.59985006e-01,
          3.91832143e-01, 4.82423574e-01, 4.47143555e-01, 3.86558592e-01 ]
      - [ 1.08854170e+01, 1.26449699e+01, 1.15677080e+01, 1.19408283e+01,
          2.68750000e+00, 2.91715980e+00, 2.81770825e+00, 2.81656814e+00,
          2.98459888e-01, 2.75640070e-01, 2.64198154e-01, 2.90532202e-01,
          1.35816723e-01, 1.36608243e-01, 1.36115983e-01, 1.34607255e-01,
          -7.65392333e-02, -1.40102118e-01, -1.05606824e-01,
          -7.55436942e-02, 1.84461810e-02, 1.86618119e-02,
          1.85275599e-02, 1.81191135e-02 ]
      - [ 1.32083330e+01, 1.80059166e+01, 1.24947920e+01, 4.41420126e+00,
          2.56250000e+00, 3.34319520e+00, 2.40104175e+00, 1.25443792e+00,
          4.31832165e-01, 3.07991832e-01, 4.68527943e-01, 6.19134426e-01,
          2.30964780e-01, 2.09996656e-01, 2.29285002e-01, 2.96862215e-01,
          1.58869401e-01, -1.56731024e-01, 1.89919725e-01,
          7.12408006e-01, 5.33447266e-02, 4.40985970e-02, 5.25716133e-02,
          8.81271660e-02 ]
      - [ 8.19270802e+00, 2.18343186e+00, 9.44791698e+00, 1.21183434e+01,
          1.34895837e+00, 4.31952655e-01, 1.50000000e+00, 1.90532541e+00,
          7.60985196e-01, 8.99405599e-01, 7.54144907e-01, 6.92916214e-01,
          6.94741666e-01, 8.02304447e-01, 6.95990026e-01, 6.64542079e-01,
          3.83650243e-01, 8.25341105e-01, 3.02028060e-01, 1.10036872e-01,
          4.82666016e-01, 6.43692434e-01, 4.84402120e-01, 4.41616178e-01 ]
      - [ 9.45312500e+00, 1.13491125e+01, 1.27239580e+01, 1.28698225e+01,
          2.11979175e+00, 2.44970417e+00, 2.71354175e+00, 2.77514791e+00,
          4.70698267e-01, 4.12336528e-01, 3.47968847e-01, 3.27733964e-01,
          2.24623531e-01, 1.95848152e-01, 1.84950843e-01, 1.89949125e-01,
          3.25387865e-01, 6.80111349e-02, -4.41576988e-02,
          -2.88192537e-02, 5.04557304e-02, 3.83565016e-02,
          3.42068151e-02, 3.60806696e-02 ]
      - [ 1.16145830e+01, 1.48047333e+01, 1.49843750e+01, 1.30414200e+01,
          2.23958325e+00, 2.78106499e+00, 2.85937500e+00, 2.47337270e+00,
          5.16394734e-01, 4.05537546e-01, 3.88960838e-01, 4.73858863e-01,
          3.12500000e-01, 2.38161087e-01, 2.35989809e-01, 2.82973886e-01,
          3.66070181e-01, 1.68483064e-01, 1.40936926e-01, 2.63266981e-01,
          9.76562500e-02, 5.67207038e-02, 5.56911901e-02, 8.00742283e-02 ]
      - [ 1.00885420e+01, 8.84023666e+00, 7.82291651e+00, 1.01952667e+01,
          2.41145825e+00, 2.22485209e+00, 2.05208325e+00, 2.56213021e+00,
          3.77416521e-01, 4.12167668e-01, 4.40890789e-01, 3.23724627e-01,
          1.86375394e-01, 2.19054818e-01, 2.12395296e-01, 1.77514791e-01,
          1.03602782e-01, 1.75841182e-01, 2.59456336e-01, 5.42145669e-02,
          3.47357839e-02, 4.79850136e-02, 4.51117605e-02, 3.15115005e-02 ]
      - [ 9.03125000e+00, 8.60354996e+00, 1.05312500e+01, 8.34319496e+00,
          1.97916663e+00, 1.90532541e+00, 2.26041675e+00, 1.92899406e+00,
          4.97476995e-01, 5.24052858e-01, 4.43773776e-01, 4.97591853e-01,
          3.20640504e-01, 3.42863530e-01, 2.99377233e-01, 3.32363248e-01,
          7.34653175e-02, 1.21415600e-01, -4.30072844e-02,
          9.29542109e-02, 1.02810331e-01, 1.17555410e-01, 8.96267369e-02,
          1.10465318e-01 ]
      - [ 1.53125000e+00, 8.69822502e-01, 7.65625000e-01, 8.69822502e-01,
          2.18750000e-01, 1.24260359e-01, 1.09375000e-01, 1.24260359e-01,
          9.69375014e-01, 9.82603550e-01, 9.84687507e-01, 9.82603550e-01,
          9.69002008e-01, 9.82328713e-01, 9.84436989e-01, 9.82328713e-01,
          -1.58730168e-02, -8.95522349e-03, -7.87401572e-03,
          -8.95522349e-03, 9.38964844e-01, 9.64969695e-01,
          9.69116211e-01, 9.64969695e-01 ]
      - [ 6.79166651e+00, 1.07159767e+01, 1.39843750e+01, 1.35680475e+01,
          1.31250000e+00, 1.86390531e+00, 2.34895825e+00, 2.30177522e+00,
          7.17460632e-01, 6.43773198e-01, 5.77264607e-01, 5.86368620e-01,
          5.75950801e-01, 5.58458865e-01, 5.24996400e-01, 5.26876450e-01,
          5.56556880e-01, 3.45720917e-01, 1.55493706e-01, 1.64708942e-01,
          3.31719279e-01, 3.11876327e-01, 2.75621206e-01, 2.77598828e-01 ]
      - [ 5.91145849e+00, 1.47692308e+01, 1.57604170e+01, 1.32071009e+01,
          1.31770837e+00, 2.67455626e+00, 2.87500000e+00, 2.47337270e+00,
          6.56087995e-01, 4.57230151e-01, 4.19609308e-01, 4.81415749e-01,
          4.40496922e-01, 3.58049273e-01, 3.39821309e-01, 3.71251673e-01,
          6.24909341e-01, 1.28804803e-01, 9.10837352e-02, 2.03254506e-01,
          1.94037542e-01, 1.28199294e-01, 1.15478516e-01, 1.37827814e-01 ]
      - [ 6.97916687e-01, 1.97041416e+00, 1.73437500e+00, 1.52071011e+00,
          1.45833328e-01, 3.49112421e-01, 3.07291657e-01, 2.66272187e-01,
          9.68282104e-01, 9.37949717e-01, 9.45382833e-01, 9.54197884e-01,
          9.43003237e-01, 9.35538352e-01, 9.43190217e-01, 9.53011811e-01,
          7.46686876e-01, -3.19144055e-02, -2.79843397e-02,
          -2.38681771e-02, 8.89255106e-01, 8.75231981e-01,
          8.89607728e-01, 9.08231497e-01 ]
      - [ 1.08854163e+00, 3.07100582e+00, 3.40104175e+00, 3.30769229e+00,
          2.65625000e-01, 5.97633123e-01, 6.30208313e-01, 5.85798800e-01,
          9.30316567e-01, 8.76186728e-01, 8.75742614e-01, 8.90640676e-01,
          8.85715306e-01, 8.64847124e-01, 8.65539730e-01, 8.82490396e-01,
          7.69283175e-01, -6.17415458e-02, -6.20089695e-02,
          -5.47110923e-02, 7.84491658e-01, 7.47960508e-01,
          7.49159098e-01, 7.78789282e-01 ]
      - [ 4.69791651e+00, 6.19526625e+00, 4.88020849e+00, 4.37869817e-01,
          7.81250000e-01, 1.01183426e+00, 8.07291687e-01, 1.18343197e-01,
          8.64059150e-01, 8.33970129e-01, 8.61595750e-01, 9.66188490e-01,
          8.50522578e-01, 8.31008136e-01, 8.50658119e-01, 9.35210824e-01,
          2.55135387e-01, -9.00706947e-02, 1.69170871e-01,
          9.02313650e-01, 7.23388672e-01, 6.90574586e-01, 7.23619223e-01,
          8.74619246e-01 ]
      - [ 9.45312500e+00, 8.47929001e+00, 9.66145802e+00, 9.91716003e+00,
          2.48437500e+00, 2.28994083e+00, 2.49479175e+00, 2.52070999e+00,
          3.16364139e-01, 3.52621049e-01, 3.20954353e-01, 3.26550007e-01,
          1.45087376e-01, 1.39587298e-01, 1.36712551e-01, 1.40025556e-01,
          -1.06217235e-01, 7.91696534e-02, 1.34449499e-03,
          -8.68000388e-02, 2.10503470e-02, 1.94846112e-02,
          1.86903216e-02, 1.96071565e-02 ]
      - [ 7.30208349e+00, 6.42603540e+00, 7.39583349e+00, 9.05917168e+00,
          2.17708325e+00, 2.02366853e+00, 2.18750000e+00, 2.52662730e+00,
          3.36097866e-01, 3.68334323e-01, 3.45545471e-01, 2.82849282e-01,
          1.51668951e-01, 1.55431077e-01, 1.47451952e-01, 1.54979885e-01,
          1.91731714e-02, 1.18861981e-01, 6.59366995e-02,
          -2.08064377e-01, 2.30034720e-02, 2.41588186e-02,
          2.17420794e-02, 2.40187664e-02 ]
      - [ 1.26770830e+01, 8.09467411e+00, 4.86458349e+00, 1.37810650e+01,
          1.91666663e+00, 1.24260354e+00, 8.12500000e-01, 2.08875751e+00,
          7.05509961e-01, 8.00303757e-01, 8.50016356e-01, 6.76340222e-01,
          7.10885048e-01, 7.43010104e-01, 7.20229805e-01, 6.80293262e-01,
          -4.94394936e-02, 4.09353584e-01, 6.84241652e-01,
          9.78015736e-03, 5.05357504e-01, 5.52064002e-01, 5.18730998e-01,
          4.62798923e-01 ]
      - [ 1.78125000e+00, 6.15384626e+00, 8.71354198e+00, 6.73964500e+00,
          5.20833313e-01, 1.27810645e+00, 1.69270837e+00, 1.36686385e+00,
          8.40207696e-01, 7.17168212e-01, 6.59748197e-01, 7.02735782e-01,
          6.82718933e-01, 6.27707183e-01, 5.92526615e-01, 6.18095398e-01,
          8.42685521e-01, 4.12429392e-01, 1.71080083e-01, 3.50317001e-01,
          4.66105133e-01, 3.94016325e-01, 3.51087779e-01, 3.82041931e-01 ]
      - [ 4.90104151e+00, 8.47929001e+00, 1.08802080e+01, 7.72189331e+00,
          1.00520837e+00, 1.44970417e+00, 1.88020837e+00, 1.42603552e+00,
          7.74758458e-01, 7.29742825e-01, 6.57433748e-01, 7.07035184e-01,
          6.90010786e-01, 6.58003092e-01, 6.29551589e-01, 6.50618553e-01,
          6.14442587e-01, 2.89737910e-01, -7.94240180e-03,
          3.34056020e-01, 4.76114899e-01, 4.32968020e-01, 3.96335185e-01,
          4.23304498e-01 ]
      - [ 7.41666651e+00, 7.21301794e+00, 8.38020802e+00, 7.95858002e+00,
          1.34375000e+00, 1.30769229e+00, 1.46354163e+00, 1.41420114e+00,
          7.33011127e-01, 7.35000610e-01, 7.13953376e-01, 7.18019843e-01,
          6.60668433e-01, 6.51492476e-01, 6.38812244e-01, 6.52137041e-01,
          3.27230841e-01, 3.03307265e-01, 2.85483479e-01, 2.80171275e-01,
          4.36482757e-01, 4.24442410e-01, 4.08081055e-01, 4.25282717e-01 ]
      - [ 1.79166663e+00, 2.03550291e+00, 1.79166663e+00, 2.89940834e-01,
          2.81250000e-01, 3.19526613e-01, 2.81250000e-01, 4.14201170e-02,
          9.55146372e-01, 9.49042082e-01, 9.55146372e-01, 9.94201183e-01,
          9.53359783e-01, 9.47050631e-01, 9.53359783e-01, 9.94091630e-01,
          -2.25731544e-02, -2.57242676e-02, -2.25731544e-02,
          -2.96735903e-03, 9.08894837e-01, 8.96904886e-01,
          9.08894837e-01, 9.88218188e-01 ]
      - [ 1.52812500e+01, 1.50236683e+01, 1.38385420e+01, 9.37278080e+00,
          3.10416675e+00, 3.15384626e+00, 2.92187500e+00, 2.21301770e+00,
          3.07366937e-01, 2.74964571e-01, 3.13070029e-01, 4.25831586e-01,
          1.61206126e-01, 1.56329527e-01, 1.73836663e-01, 1.82762668e-01,
          -1.76914975e-01, -1.65379539e-01, -5.74083179e-02,
          2.74123490e-01, 2.59874128e-02, 2.44389195e-02, 3.02191842e-02,
          3.34021933e-02 ]
      - [ 1.55416670e+01, 1.11420116e+01, 9.98958302e+00, 1.56213017e+01,
          2.59375000e+00, 1.85207105e+00, 1.73958337e+00, 2.57988167e+00,
          5.39035201e-01, 6.61386847e-01, 6.63371921e-01, 5.47514379e-01,
          5.10669053e-01, 5.46897292e-01, 5.36382496e-01, 5.06582856e-01,
          3.36265974e-02, 3.27620059e-01, 3.51442754e-01, 2.89554782e-02,
          2.60782868e-01, 2.99096674e-01, 2.87706167e-01, 2.56626159e-01 ]
      - [ 1.39166670e+01, 1.15739641e+01, 1.24166670e+01, 1.32840233e+01,
          3.02083325e+00, 2.60355020e+00, 2.83333325e+00, 2.95266271e+00,
          2.89576501e-01, 3.56004030e-01, 2.89813757e-01, 2.86898196e-01,
          1.77236453e-01, 1.76476255e-01, 1.75312847e-01, 1.67623848e-01,
          -1.21824928e-01, 1.95168834e-02, -8.57956186e-02,
          -1.19398475e-01, 3.14127617e-02, 3.11438683e-02,
          3.07345912e-02, 2.80977562e-02 ]
      - [ 1.63593750e+01, 1.12662725e+01, 1.57968750e+01, 1.61124268e+01,
          3.13020825e+00, 2.34319520e+00, 3.10937500e+00, 3.13017750e+00,
          3.26597810e-01, 4.57744151e-01, 3.19388717e-01, 3.23379248e-01,
          2.34981850e-01, 2.49890566e-01, 2.06535205e-01, 2.26442516e-01,
          -9.91494879e-02, 2.08711222e-01, -5.75400218e-02,
          -7.50965178e-02, 5.52164726e-02, 6.24452941e-02,
          4.26567942e-02, 5.12762144e-02 ]
      - [ 1.52760420e+01, 1.14852076e+01, 1.82656250e+01, 1.84674549e+01,
          2.65104175e+00, 2.07692313e+00, 3.04687500e+00, 3.11834311e+00,
          4.96793270e-01, 5.83661854e-01, 4.58711594e-01, 4.33273554e-01,
          3.43986660e-01, 3.79021674e-01, 3.72586995e-01, 3.22118580e-01,
          2.35961124e-01, 4.34033155e-01, 8.53286535e-02, 7.30221644e-02,
          1.18326820e-01, 1.43657431e-01, 1.38821065e-01, 1.03760369e-01 ]
      - [ 1.01666670e+01, 1.20473375e+01, 6.51041651e+00, 6.13017750e+00,
          1.94791663e+00, 2.22485209e+00, 1.33333337e+00, 1.34911239e+00,
          5.92066288e-01, 5.52993178e-01, 6.92752540e-01, 6.81062698e-01,
          4.95845914e-01, 4.82057899e-01, 5.52414894e-01, 5.89893639e-01,
          2.84170479e-01, 6.73511624e-02, 4.76074040e-01, 5.19675612e-01,
          2.45863169e-01, 2.32379824e-01, 3.05162221e-01, 3.47974509e-01 ]
      - [ 1.35000000e+01, 9.86982250e+00, 1.48802080e+01, 1.45798817e+01,
          2.93750000e+00, 2.36686397e+00, 3.16145825e+00, 3.13609457e+00,
          2.94499964e-01, 3.80993217e-01, 2.53996044e-01, 2.67174870e-01,
          1.53712019e-01, 1.58994421e-01, 1.47267863e-01, 1.44940227e-01,
          -1.95853502e-01, 2.15353787e-01, -1.84894621e-01,
          -1.83712915e-01, 2.36273874e-02, 2.52792276e-02,
          2.16878261e-02, 2.10076682e-02 ]
      - [ 1.22447920e+01, 9.25443745e+00, 1.09427080e+01, 1.19704142e+01,
          2.78645825e+00, 2.34319520e+00, 2.48437500e+00, 2.70414209e+00,
          2.92105347e-01, 3.46274614e-01, 3.75628233e-01, 3.26926798e-01,
          1.48870900e-01, 1.51841745e-01, 1.51176304e-01, 1.50335461e-01,
          -1.02495559e-01, 1.46927446e-01, 6.90914467e-02,
          -5.00908382e-02, 2.21625436e-02, 2.30559148e-02,
          2.28542760e-02, 2.26007495e-02 ]
      - [ 3.54687500e+00, 3.13609481e-01, 3.72916675e+00, 3.86390543e+00,
          5.67708313e-01, 5.32544367e-02, 5.93750000e-01, 6.21301770e-01,
          9.04538214e-01, 9.89467442e-01, 9.02074814e-01, 8.94101381e-01,
          8.96847188e-01, 9.64805543e-01, 8.96847188e-01, 8.83045673e-01,
          4.63819578e-02, 8.93650770e-01, 5.62260561e-02,
          -5.25778644e-02, 8.04334879e-01, 9.30849731e-01,
          8.04334879e-01, 7.79769599e-01 ]
      - [ 9.20833302e+00, 7.73372793e+00, 5.79166651e+00, 6.08284044e+00,
          2.31250000e+00, 2.11242604e+00, 1.67708337e+00, 1.82248521e+00,
          3.92260522e-01, 4.11876231e-01, 5.12493372e-01, 4.52443689e-01,
          2.05250636e-01, 2.22189158e-01, 3.21105480e-01, 2.46114016e-01,
          3.16253118e-02, 1.61392212e-01, 3.57314438e-01, 3.45622480e-01,
          4.21278216e-02, 4.93680201e-02, 1.03108726e-01, 6.05721101e-02 ]
      - [ 1.26718750e+01, 1.43846149e+01, 1.54114580e+01, 1.21301775e+01,
          2.63020825e+00, 2.96449709e+00, 3.03645825e+00, 2.54437876e+00,
          3.90838057e-01, 3.27403694e-01, 3.41094077e-01, 4.07905102e-01,
          2.31492698e-01, 2.24501446e-01, 2.23928049e-01, 2.49329478e-01,
          1.10677049e-01, -4.25097011e-02, -1.57131821e-01,
          1.16365790e-01, 5.35888672e-02, 5.04008979e-02, 5.01437709e-02,
          6.21651895e-02 ]
      - [ 8.70312500e+00, 9.50295830e+00, 7.40625000e+00, 9.30177498e+00,
          1.94270837e+00, 2.05917168e+00, 1.72916663e+00, 2.05917168e+00,
          5.05019546e-01, 4.91933823e-01, 5.44345319e-01, 4.83749032e-01,
          3.18582296e-01, 3.15917611e-01, 3.55294615e-01, 3.05121243e-01,
          -2.03817468e-02, -1.20822944e-01, 1.30075708e-01,
          -5.36193028e-02, 1.01494685e-01, 9.98039320e-02,
          1.26234263e-01, 9.30989832e-02 ]
      - [ 9.63541698e+00, 3.93491125e+00, 7.71354151e+00, 1.05798817e+01,
          1.46875000e+00, 6.09467447e-01, 1.18229163e+00, 1.59763312e+00,
          7.68378258e-01, 9.00032461e-01, 8.11719596e-01, 7.56159067e-01,
          7.50397742e-01, 8.26657057e-01, 7.48633385e-01, 7.28664041e-01,
          1.68025181e-01, 6.18801951e-01, 4.12907690e-01, 1.03948094e-01,
          5.63096762e-01, 6.83361948e-01, 5.60451925e-01, 5.30951321e-01 ]
      - [ 1.71510410e+01, 1.41005917e+01, 9.23437500e+00, 9.57396412e+00,
          2.91145825e+00, 2.44378710e+00, 1.78645837e+00, 1.78698230e+00,
          4.58362937e-01, 5.36550999e-01, 6.06340230e-01, 6.23755276e-01,
          3.41612667e-01, 3.67293119e-01, 4.30042475e-01, 4.11040336e-01,
          1.55924529e-01, 2.96738982e-01, 5.46394765e-01, 5.37750244e-01,
          1.16699219e-01, 1.34904236e-01, 1.84936523e-01, 1.68954164e-01 ]
      - [ 8.19270802e+00, 7.20710039e+00, 6.11458349e+00, 6.86982250e+00,
          2.25520825e+00, 2.04733729e+00, 1.83333337e+00, 2.04142022e+00,
          3.46769840e-01, 3.95572931e-01, 4.35720146e-01, 3.66334975e-01,
          1.48688570e-01, 1.56497404e-01, 1.72662333e-01, 1.56720981e-01,
          7.69442394e-02, 2.25727096e-01, 3.42477262e-01, 2.23766223e-01,
          2.21082903e-02, 2.44914386e-02, 2.98122838e-02, 2.45614648e-02 ]
      - [ 7.41666651e+00, 7.49704123e+00, 6.91666651e+00, 6.88757420e+00,
          2.14583325e+00, 2.27810645e+00, 2.12500000e+00, 2.07100582e+00,
          3.65293443e-01, 3.09181482e-01, 3.47301364e-01, 3.78265530e-01,
          1.50951847e-01, 1.55993208e-01, 1.58362463e-01, 1.61885962e-01,
          2.04011444e-02, -3.43081951e-02, 1.90816205e-02,
          5.02409190e-02, 2.27864590e-02, 2.43338812e-02, 2.50786673e-02,
          2.62070652e-02 ]
      - [ 1.04218750e+01, 1.21775150e+01, 1.31875000e+01, 1.55621300e+01,
          2.52604175e+00, 2.84023666e+00, 2.95833325e+00, 3.19526625e+00,
          3.32470238e-01, 2.85308391e-01, 2.80599087e-01, 2.74592042e-01,
          1.48368955e-01, 1.55712396e-01, 1.53579608e-01, 1.60583034e-01,
          7.19630122e-02, -4.18649241e-03, -6.03061318e-02,
          -2.56544650e-01, 2.20133457e-02, 2.42463499e-02,
          2.35866979e-02, 2.57869121e-02 ]
      - [ 1.93229160e+01, 1.44437866e+01, 1.02343750e+01, 1.93668633e+01,
          3.39583325e+00, 2.64497042e+00, 2.00520825e+00, 3.41420126e+00,
          3.48829359e-01, 4.66036707e-01, 5.50461709e-01, 3.50034624e-01,
          3.01634014e-01, 3.23447347e-01, 3.51244062e-01, 2.97274709e-01,
          -1.45061731e-01, 1.21187687e-01, 3.37514251e-01,
          -1.83918953e-01, 9.09830704e-02, 1.04618184e-01,
          1.23372398e-01, 8.83722529e-02 ]
      - [ 1.03645830e+01, 9.95858002e+00, 6.33854151e+00, 8.21301746e+00,
          2.62500000e+00, 2.44378710e+00, 1.78645837e+00, 2.22485209e+00,
          2.87733704e-01, 3.48590612e-01, 4.78834987e-01, 3.76413763e-01,
          1.46436617e-01, 1.59159496e-01, 2.62362510e-01, 1.59818098e-01,
          -4.75751795e-02, -6.51320368e-02, 3.46773565e-01,
          1.22629583e-01, 2.14436855e-02, 2.53317468e-02, 6.88340962e-02,
          2.55418234e-02 ]
      - [ 4.82812500e+00, 6.10650873e+00, 5.35416651e+00, 5.86982250e+00,
          1.73437500e+00, 2., 1.84375000e+00, 1.98816574e+00,
          4.08330351e-01, 3.58685523e-01, 3.91825050e-01, 3.49545449e-01,
          1.67032480e-01, 1.59159496e-01, 1.59046158e-01, 1.60528526e-01,
          1.67145133e-01, -3.09995040e-02, 1.47588000e-01,
          4.73742327e-03, 2.78998483e-02, 2.53317468e-02, 2.52956823e-02,
          2.57694051e-02 ]
      - [ 7.88020849e+00, 6.65680456e+00, 5.70833349e+00, 7.19526625e+00,
          2.31770825e+00, 2.05325437e+00, 1.92708337e+00, 2.09467459e+00,
          3.09597284e-01, 3.62202793e-01, 3.66976470e-01, 3.78108740e-01,
          1.63959131e-01, 1.66418478e-01, 1.66991875e-01, 1.66681260e-01,
          -3.11402589e-01, -4.87658903e-02, 5.78796566e-02,
          -1.79864049e-01, 2.68825963e-02, 2.76951082e-02,
          2.78862845e-02, 2.77826414e-02 ]
      - [ 1.11197920e+01, 1.14852076e+01, 9.86979198e+00, 9.92899418e+00,
          2.36979175e+00, 2.51479292e+00, 2.13020825e+00, 2.11834311e+00,
          4.23315465e-01, 3.82118672e-01, 4.76515889e-01, 4.79860306e-01,
          2.55128592e-01, 2.38931656e-01, 2.80041784e-01, 2.88821667e-01,
          2.52242722e-02, 3.31400260e-02, 1.55501351e-01, 1.28630430e-01,
          6.50906041e-02, 5.70883378e-02, 7.84233958e-02, 8.34179446e-02 ]
      - [ 2.10260410e+01, 2.03254433e+01, 1.08437500e+01, 2.25562134e+01,
          3.72395825e+00, 3.50887585e+00, 2.12500000e+00, 3.82248521e+00,
          2.87195772e-01, 3.36750150e-01, 5.34810364e-01, 2.98609108e-01,
          2.46778280e-01, 2.69409537e-01, 3.23776573e-01, 2.67780095e-01,
          -1.34607092e-01, -1.06471017e-01, 4.25390989e-01,
          -2.09409028e-01, 6.08995222e-02, 7.25814924e-02,
          1.04831271e-01, 7.17061758e-02 ]
      - [ 1.51562500e+01, 1.44142008e+01, 1.00468750e+01, 1.29940825e+01,
          2.80208325e+00, 2.69822478e+00, 2.04687500e+00, 2.47337270e+00,
          4.08586204e-01, 4.33215261e-01, 5.28963149e-01, 4.60583746e-01,
          2.78292716e-01, 3.07663858e-01, 3.03472012e-01, 3.05608571e-01,
          -3.31972316e-02, -2.51307688e-03, 3.83914679e-01,
          1.07162446e-01, 7.74468333e-02, 9.46570486e-02, 9.20952708e-02,
          9.33965892e-02 ]
      - [ 1.03541670e+01, 8.75147915e+00, 9.59895802e+00, 1.06331358e+01,
          2.60416675e+00, 2.34911251e+00, 2.41145825e+00, 2.58579874e+00,
          3.05856466e-01, 3.32667977e-01, 3.49711239e-01, 3.21367741e-01,
          1.34965196e-01, 1.36094674e-01, 1.40093520e-01, 1.38074100e-01,
          -1.06038213e-01, 7.78366253e-02, 8.09591487e-02,
          -5.65494895e-02, 1.82156041e-02, 1.85217597e-02,
          1.96261927e-02, 1.90644581e-02 ]
      - [ 1.98541660e+01, 1.77396450e+01, 1.14375000e+01, 1.96449699e+01,
          3.60416675e+00, 3.34911251e+00, 2.27083325e+00, 3.62130189e+00,
          2.77570426e-01, 2.94434398e-01, 5.05084395e-01, 2.68798769e-01,
          2.33505324e-01, 2.30541542e-01, 3.24884802e-01, 2.27945089e-01,
          -2.40885422e-01, -1.39811113e-01, 2.70732224e-01,
          -2.67049670e-01, 5.45247383e-02, 5.31493984e-02,
          1.05550133e-01, 5.19589633e-02 ]
      - [ 1.47083330e+01, 1.07514791e+01, 7.25000000e+00, 1.40473375e+01,
          2.69791675e+00, 2.10059166e+00, 1.57291663e+00, 2.62721896e+00,
          4.56755131e-01, 5.36177218e-01, 6.13673568e-01, 4.49240655e-01,
          3.01499069e-01, 3.55866849e-01, 4.09740627e-01, 3.08345914e-01,
          1.79067284e-01, 4.12692219e-01, 5.90422571e-01, 2.10246176e-01,
          9.09016952e-02, 1.26641229e-01, 1.67887375e-01, 9.50772017e-02 ]
      - [ 1.14843750e+01, 1.15798817e+01, 1.10520830e+01, 9.73372746e+00,
          2.72395825e+00, 2.75147939e+00, 2.47916675e+00, 2.45562124e+00,
          3.01669210e-01, 2.86666512e-01, 3.78362447e-01, 3.37171793e-01,
          1.44149512e-01, 1.43483505e-01, 1.54635757e-01, 1.46681130e-01,
          -3.97992916e-02, -5.63900098e-02, 4.33496274e-02,
          1.09844208e-01, 2.07790807e-02, 2.05875151e-02, 2.39122175e-02,
          2.15153527e-02 ]
      - [ 7.91145849e+00, 9.40236664e+00, 9.21875000e+00, 6.20710039e+00,
          1.22395837e+00, 1.44970417e+00, 1.46875000e+00, 9.88165677e-01,
          8.03826451e-01, 7.72859752e-01, 7.56345451e-01, 8.33673835e-01,
          7.91992128e-01, 7.53607869e-01, 7.21330643e-01, 7.79640555e-01,
          1.01436816e-01, 8.35044011e-02, 2.26564094e-01, 3.86011124e-01,
          6.27251506e-01, 5.67924798e-01, 5.20317912e-01, 6.07839346e-01 ]
      - [ 8.29687500e+00, 6.78698206e+00, 2.11979175e+00, 8.00591755e+00,
          1.49479163e+00, 1.23668635e+00, 4.84375000e-01, 1.44970417e+00,
          7.27644801e-01, 7.67660379e-01, 8.76180351e-01, 7.36111045e-01,
          7.16633379e-01, 7.33703971e-01, 7.58460999e-01, 7.11696804e-01,
          -1.55606106e-01, 1.98434442e-01, 7.96967149e-01,
          6.18218519e-02, 5.13563395e-01, 5.38321495e-01, 5.75263143e-01,
          5.06512403e-01 ]
      - [ 6.56250000e+00, 8.05917168e+00, 7.88541651e+00, 4.62130165e+00,
          2.01041675e+00, 2.33136106e+00, 2.30208325e+00, 1.66272187e+00,
          3.81048203e-01, 3.10456812e-01, 3.17706704e-01, 4.30729061e-01,
          1.55728295e-01, 1.55543655e-01, 1.53270200e-01, 1.61344364e-01,
          1.55849591e-01, -5.55524975e-02, -5.78242913e-02,
          3.87227744e-01, 2.42513027e-02, 2.41938308e-02, 2.34917533e-02,
          2.60320008e-02 ]
      - [ 1.04270830e+01, 9.55029583e+00, 9.77083302e+00, 1.23491125e+01,
          2.45833325e+00, 2.36686397e+00, 2.28125000e+00, 2.79881668e+00,
          3.65137249e-01, 3.60799551e-01, 4.13981199e-01, 3.20032924e-01,
          1.99078277e-01, 1.86179087e-01, 2.09760740e-01, 1.86554819e-01,
          5.11660986e-02, 1.53557792e-01, 9.51768458e-02,
          -1.57251298e-01, 3.96321602e-02, 3.46626528e-02,
          4.39995676e-02, 3.48027013e-02 ]
      - [ 1.02083337e+00, 1.15976334e+00, 2.04166675e+00, 1.15976334e+00,
          1.45833328e-01, 1.65680468e-01, 2.91666657e-01, 1.65680468e-01,
          9.79583323e-01, 9.76804733e-01, 9.59166646e-01, 9.76804733e-01,
          9.79277492e-01, 9.76474822e-01, 9.58786130e-01, 9.76474822e-01,
          -1.05263162e-02, -1.19760484e-02, -2.12765951e-02,
          -1.19760484e-02, 9.58984375e-01, 9.53503013e-01,
          9.19270813e-01, 9.53503013e-01 ]
      - [ 8.48958302e+00, 1.12248516e+01, 1.13489580e+01, 1.03964500e+01,
          2.21875000e+00, 2.70414209e+00, 2.71354175e+00, 2.45562124e+00,
          3.80663872e-01, 3.12592834e-01, 3.01390797e-01, 3.73718590e-01,
          1.73133016e-01, 1.58277109e-01, 1.64948836e-01, 1.79573864e-01,
          1.51110753e-01, -8.50915089e-02, -9.06602442e-02,
          1.16679454e-02, 2.99750436e-02, 2.50516441e-02, 2.72081159e-02,
          3.22467685e-02 ]
      - [ 1.64895840e+01, 1.63254433e+01, 1.44322920e+01, 9.90532589e+00,
          3., 3.05917168e+00, 2.68229175e+00, 2.04733729e+00,
          4.02583122e-01, 3.65383804e-01, 4.37324405e-01, 5.27826965e-01,
          2.44209185e-01, 2.31979832e-01, 2.69729316e-01, 2.94583052e-01,
          3.17919441e-02, 5.56814037e-02, 1.75726295e-01, 4.30999309e-01,
          5.96381277e-02, 5.38146421e-02, 7.27539063e-02, 8.67791772e-02 ]
      - [ 1.41927080e+01, 1.73786983e+01, 1.05520830e+01, 8.43195248e+00,
          2.60937500e+00, 3.16568041e+00, 2.06250000e+00, 1.69822490e+00,
          4.56487328e-01, 3.64679515e-01, 5.44547498e-01, 6.10228717e-01,
          3.11151594e-01, 2.94969082e-01, 3.77684981e-01, 3.93791318e-01,
          1.95274398e-01, 2.01622099e-02, 3.66971850e-01, 5.27386844e-01,
          9.68153179e-02, 8.70067552e-02, 1.42645940e-01, 1.55071601e-01 ]
      - [ 1.20520830e+01, 1.41479292e+01, 1.39166670e+01, 1.07218933e+01,
          2.66666675e+00, 2.95266271e+00, 2.91666675e+00, 2.56804729e+00,
          3.45427245e-01, 3.14569414e-01, 3.20699930e-01, 3.33808005e-01,
          1.58875510e-01, 1.66733757e-01, 1.64207116e-01, 1.67100847e-01,
          2.11505927e-02, -8.01753104e-02, -5.44766933e-02,
          1.30533040e-01, 2.52414271e-02, 2.78001465e-02, 2.69639753e-02,
          2.79226918e-02 ]
      - [ 5.31250000e+00, 6.73964500e+00, 4.75520849e+00, 2.56213021e+00,
          7.91666687e-01, 1., 7.23958313e-01, 3.84615391e-01,
          8.81143451e-01, 8.52414250e-01, 8.87221694e-01, 9.40159917e-01,
          8.67277443e-01, 8.50425780e-01, 8.56473982e-01, 9.17970657e-01,
          1.44287825e-01, -8.01327676e-02, 3.86105627e-01,
          4.79421079e-01, 7.52170146e-01, 7.23223984e-01, 7.33547628e-01,
          8.42670083e-01 ]
      - [ 1.29270830e+01, 1.46745558e+01, 1.27500000e+01, 7.44378710e+00,
          2.58333325e+00, 2.97041416e+00, 2.64583325e+00, 1.76331365e+00,
          4.26436782e-01, 3.30516517e-01, 3.89399379e-01, 5.38455427e-01,
          2.04024449e-01, 1.69286624e-01, 1.97779551e-01, 2.28596970e-01,
          9.03392062e-02, -4.24159206e-02, 9.24615115e-02,
          4.59896564e-01, 4.16259766e-02, 2.86579598e-02, 3.91167551e-02,
          5.22565730e-02 ]
      - [ 9.59375000e+00, 8.08283997e+00, 1.51302080e+01, 1.56449699e+01,
          1.63541663e+00, 1.36094677e+00, 2.38020825e+00, 2.47337270e+00,
          6.92805648e-01, 7.43473291e-01, 6.01772606e-01, 5.92227399e-01,
          5.42917252e-01, 5.83748102e-01, 5.21886945e-01, 4.90143031e-01,
          5.10345161e-01, 5.94749808e-01, 2.37644836e-01, 2.19835669e-01,
          2.94759125e-01, 3.40761870e-01, 2.72365987e-01, 2.40240186e-01 ]
      - [ 7.06250000e+00, 9.49704170e+00, 1.08541670e+01, 1.14082842e+01,
          1.75000000e+00, 2.23076916e+00, 2.39583325e+00, 2.49704146e+00,
          5.10680258e-01, 4.12918210e-01, 4.09199536e-01, 3.79712313e-01,
          2.39837959e-01, 2.12853327e-01, 2.07419872e-01, 2.02138349e-01,
          4.48098093e-01, 1.28884166e-01, -1.39474533e-02,
          -1.41367614e-02, 5.75222448e-02, 4.53065373e-02,
          4.30230051e-02, 4.08599153e-02 ]
      - [ 7.71875000e+00, 1.50414200e+01, 1.39218750e+01, 8.55029583e+00,
          1.56250000e+00, 2.66272187e+00, 2.51562500e+00, 1.75739646e+00,
          6.27481401e-01, 4.65363890e-01, 4.86849576e-01, 5.74549437e-01,
          3.54836226e-01, 3.01426888e-01, 3.04297745e-01, 3.28522295e-01,
          5.82530320e-01, 1.49832770e-01, 1.88724056e-01, 5.04040003e-01,
          1.25908747e-01, 9.08581614e-02, 9.25971121e-02, 1.07926890e-01 ]
      - [ 1.40520830e+01, 1.58047333e+01, 1.66145840e+01, 6.79881668e+00,
          2.77083325e+00, 3.08284020e+00, 3.13541675e+00, 1.68639052e+00,
          3.89550537e-01, 3.19208622e-01, 3.41089010e-01, 5.47576427e-01,
          2.27085724e-01, 2.00311378e-01, 2.31756195e-01, 2.84454793e-01,
          1.02458633e-01, -2.98471544e-02, -3.60541716e-02,
          5.67342997e-01, 5.15679270e-02, 4.01246473e-02, 5.37109375e-02,
          8.09145346e-02 ]
      - [ 1.97916663e+00, 1.37278104e+00, 1.46354163e+00, 1.66272187e+00,
          2.91666657e-01, 2.01183438e-01, 2.13541672e-01, 2.42603555e-01,
          9.56599116e-01, 9.71047521e-01, 9.69411612e-01, 9.65248704e-01,
          9.53487813e-01, 9.70567524e-01, 9.68931973e-01, 9.64732945e-01,
          1.59214526e-01, -1.49624646e-02, -1.58251971e-02,
