%YAML:1.0
---
opencv_ml_svm:
   format: 3
   svmType: C_SVC
   kernel:
      type: RBF
      gamma: 2.
   C: 3.
   term_criteria: { epsilon:1.1920928955078125e-07, iterations:1000 }
   var_count: 24
   class_count: 2
   class_labels: !!opencv-matrix
      rows: 2
      cols: 1
      dt: i
      data: [ 0, 1 ]
   sv_total: 1811
   support_vectors:
      - [ 9.43181813e-01, 8.40277791e-01, 6.87500000e-01, 5.27777791e-01,
          2.38636360e-01, 2.29166672e-01, 1.87500000e-01, 1.25000000e-01,
          9.36938822e-01, 9.33360755e-01, 9.45477009e-01, 9.67815876e-01,
          9.20717537e-01, 9.10291910e-01, 9.26510990e-01, 9.58433986e-01,
          1.04901962e-01, -3.22580636e-02, -2.62390673e-02,
          -1.50250420e-02, 8.47720802e-01, 8.28631341e-01,
          8.58422637e-01, 9.18595672e-01 ]
      - [ 6.23295450e+00, 1.33472223e+01, 1.17954550e+01, 5.61111116e+00,
          1.58522725e+00, 2.77777767e+00, 2.55681825e+00, 1.45833337e+00,
          5.61529934e-01, 3.81316125e-01, 4.14631605e-01, 5.98308921e-01,
          4.06379104e-01, 2.91625321e-01, 3.18029583e-01, 4.31897551e-01,
          4.96725380e-01, -2.39138156e-02, 9.46717411e-02,
          5.63976467e-01, 1.65143982e-01, 8.50453302e-02, 1.01142824e-01,
          1.86535493e-01 ]
      - [ 5.65340900e+00, 5.48611116e+00, 6.00568199e+00, 4.87500000e+00,
          1.86931813e+00, 1.86111116e+00, 2.00568175e+00, 1.81944442e+00,
          3.96776497e-01, 3.86711061e-01, 3.56145769e-01, 3.73472840e-01,
          1.73225582e-01, 1.82151064e-01, 1.71540111e-01, 1.83995023e-01,
          1.58452727e-02, -9.72222239e-02, -1.03029549e-01,
          -3.83309158e-03, 3.00071016e-02, 3.31790112e-02,
          2.94260066e-02, 3.38541679e-02 ]
      - [ 4.21590900e+00, 4.45138884e+00, 4.43750000e+00, 3.52083325e+00,
          1.59090912e+00, 1.61805558e+00, 1.58522725e+00, 1.47916663e+00,
          4.33856755e-01, 4.32127297e-01, 4.63761657e-01, 4.50699866e-01,
          2.03159764e-01, 2.05302015e-01, 2.11871639e-01, 2.14436084e-01,
          -2.45098054e-04, 2.85374485e-02, 1.02225557e-01,
          2.17856631e-01, 4.12738882e-02, 4.21489179e-02, 4.48895916e-02,
          4.59828302e-02 ]
      - [ 3.06250000e+00, 2.61805558e+00, 3.48295450e+00, 4.08333349e+00,
          5.39772749e-01, 4.23611104e-01, 6.07954562e-01, 7.08333313e-01,
          9.06524539e-01, 9.32444870e-01, 8.95493031e-01, 8.78946662e-01,
          9.04489398e-01, 9.31047738e-01, 8.93356383e-01, 8.76734376e-01,
          -4.99438308e-02, -3.54871005e-02, -5.60327321e-02,
          -6.54586628e-02, 8.18101108e-01, 8.66849899e-01,
          7.98085630e-01, 7.68663168e-01 ]
      - [ 1.55909090e+01, 7.04166651e+00, 2.23409100e+01, 2.61180553e+01,
          2.69318175e+00, 1.45833337e+00, 3.77272725e+00, 4.18750000e+00,
          5.16897142e-01, 6.52964532e-01, 3.60723138e-01, 3.31510127e-01,
          4.65024799e-01, 4.97049540e-01, 3.97118032e-01, 4.13996071e-01,
          6.30706102e-02, 6.07414246e-01, -3.45617026e-01,
          -4.80872631e-01, 2.16248065e-01, 2.47058257e-01,
          1.57702744e-01, 1.71392754e-01 ]
      - [ 3.32386374e+00, 3.47222209e-01, 3.32386374e+00, 4.06250000e+00,
          5.28409064e-01, 5.55555560e-02, 5.28409064e-01, 6.45833313e-01,
          9.17057216e-01, 9.89722252e-01, 9.17057216e-01, 8.98625493e-01,
          9.15716290e-01, 9.86135542e-01, 9.15716290e-01, 8.97272229e-01,
          -4.38432395e-02, 6.22957706e-01, -4.38432395e-02,
          -5.41134067e-02, 8.38536263e-01, 9.72463369e-01,
          8.38536263e-01, 8.05097401e-01 ]
      - [ 7.80681801e+00, 9.77083302e+00, 7.97727251e+00, 6.20138884e+00,
          2.13636374e+00, 2.63194442e+00, 2.28409100e+00, 1.92361116e+00,
          3.81453007e-01, 2.75166065e-01, 3.37613434e-01, 3.98243845e-01,
          1.65164113e-01, 1.67963699e-01, 1.74756318e-01, 1.80421963e-01,
          6.78354204e-02, -2.40501449e-01, -6.16713203e-02,
          1.38914986e-02, 2.72791833e-02, 2.82118060e-02, 3.05397734e-02,
          3.25520821e-02 ]
      - [ 4.64204550e+00, 4.10416651e+00, 5.44886351e+00, 6.33333349e+00,
          1.67613637e+00, 1.54861116e+00, 1.85795450e+00, 2.16666675e+00,
          4.28936124e-01, 4.55420434e-01, 3.94696116e-01, 3.01885366e-01,
          1.89767629e-01, 1.88717753e-01, 1.87972888e-01, 1.89291850e-01,
          7.52420574e-02, 2.54882216e-01, 2.55612358e-02,
          -2.46492907e-01, 3.60117517e-02, 3.56143899e-02,
          3.53338085e-02, 3.58314030e-02 ]
      - [ 8.85227299e+00, 6.45833349e+00, 3., 6.37500000e+00,
          2.37500000e+00, 1.90277779e+00, 1.30681813e+00, 2.05555558e+00,
          3.32363129e-01, 4.01867747e-01, 5.00539184e-01, 3.47735018e-01,
          1.50487751e-01, 1.73819318e-01, 1.99592814e-01, 1.62861660e-01,
          1.85644918e-03, 1.50932625e-01, 6.26483142e-01, 2.64128268e-01,
          2.26465650e-02, 3.02131567e-02, 3.98372933e-02, 2.65239198e-02 ]
      - [ 9.38636398e+00, 8.00694466e+00, 2.26704550e+00, 8.03472233e+00,
          2.15909100e+00, 1.84027779e+00, 7.55681813e-01, 1.75694442e+00,
          4.86661822e-01, 5.62449038e-01, 7.46127963e-01, 5.99224627e-01,
          4.33757603e-01, 4.56620336e-01, 5.75492740e-01, 4.78814274e-01,
          3.75000015e-02, 1.83554247e-01, 7.58287966e-01, 2.22575039e-01,
          1.88145667e-01, 2.08502129e-01, 3.31191897e-01, 2.29263112e-01 ]
      - [ 7.42613649e+00, 5.93750000e+00, 7.60795450e+00, 7.54166651e+00,
          2.08522725e+00, 1.84027779e+00, 2.17613626e+00, 2.20833325e+00,
          3.89946312e-01, 4.10904735e-01, 3.55867028e-01, 3.51988822e-01,
          1.79450139e-01, 2.03710273e-01, 1.86074123e-01, 1.87242627e-01,
          -8.43226388e-02, -1.34751767e-01, -2.84724057e-01,
          -1.61152363e-01, 3.22023518e-02, 4.14978787e-02,
          3.46235782e-02, 3.50597985e-02 ]
      - [ 8.78409100e+00, 1.63888884e+00, 9.75000000e+00, 1.38402777e+01,
          1.53409088e+00, 3.61111104e-01, 1.68181813e+00, 2.38194442e+00,
          7.14275241e-01, 9.00555551e-01, 6.96383059e-01, 5.83895981e-01,
          6.49332643e-01, 8.01745057e-01, 6.45030260e-01, 5.75153470e-01,
          2.96309501e-01, 8.53778183e-01, 2.14183494e-01,
          -7.99424276e-02, 4.21632886e-01, 6.42795146e-01,
          4.16064054e-01, 3.30801517e-01 ]
      - [ 7.22159100e+00, 8.50000000e+00, 7.43181801e+00, 5.44444466e+00,
          2.06250000e+00, 2.29166675e+00, 2.03409100e+00, 1.69444442e+00,
          3.86745602e-01, 3.44121724e-01, 4.04063404e-01, 4.59679455e-01,
          2.09766075e-01, 1.97581351e-01, 1.93140030e-01, 2.39003927e-01,
          -5.91892339e-02, -1.67583033e-01, -1.16098188e-02,
          8.15938041e-02, 4.40018065e-02, 3.90383862e-02, 3.73030752e-02,
          5.71228787e-02 ]
      - [ 5.06250000e+00, 4.60416651e+00, 7.69318199e+00, 7.33333349e+00,
          1.74431813e+00, 1.70138884e+00, 2.31818175e+00, 2.31944442e+00,
          4.24174041e-01, 4.17486817e-01, 3.15953314e-01, 2.84782529e-01,
          1.72665581e-01, 1.75956383e-01, 1.81195661e-01, 1.76913038e-01,
          1.64732739e-01, 2.56584674e-01, -2.27573842e-01,
          -2.50279546e-01, 2.98134033e-02, 3.09606474e-02,
          3.28318700e-02, 3.12982239e-02 ]
      - [ 5.52840900e+00, 9.85416698e+00, 8.50568199e+00, 6.38194466e+00,
          1.61931813e+00, 2.68750000e+00, 2.30113626e+00, 1.95138884e+00,
          4.95920926e-01, 2.36096933e-01, 3.36155266e-01, 3.85886639e-01,
          1.85987353e-01, 1.64555490e-01, 1.58887863e-01, 1.81753501e-01,
          4.09105569e-01, -1.87285557e-01, 3.41351293e-02,
          1.46304727e-01, 3.45912948e-02, 2.70785112e-02, 2.52453517e-02,
          3.30343358e-02 ]
      - [ 1.29886360e+01, 2.04791660e+01, 1.99659100e+01, 2.16319447e+01,
          2.53409100e+00, 3.70138884e+00, 3.70454550e+00, 3.81250000e+00,
          4.51481402e-01, 2.89846569e-01, 2.46699691e-01, 2.70069122e-01,
          2.92434305e-01, 2.35702261e-01, 2.20385715e-01, 2.28217736e-01,
          2.72437930e-01, -1.93459049e-01, -2.18312189e-01,
          -2.78752029e-01, 8.55178237e-02, 5.55555560e-02,
          4.85698618e-02, 5.20833321e-02 ]
      - [ 6.63068199e+00, 9.00694466e+00, 8.73295498e+00, 1.10972223e+01,
          1.88068187e+00, 2.28472233e+00, 2.22159100e+00, 2.47222233e+00,
          4.26459372e-01, 3.69554758e-01, 3.90733987e-01, 3.88498664e-01,
          1.94306552e-01, 1.96418554e-01, 1.91292569e-01, 1.92199335e-01,
          3.45292151e-01, -7.10187629e-02, -1.10460237e-01,
          -1.84300721e-01, 3.77550349e-02, 3.85802463e-02,
          3.65928449e-02, 3.69405858e-02 ]
      - [ 3.61931825e+00, 2.95833325e+00, 5.06818199e+00, 4.61805534e+00,
          1.48295450e+00, 1.33333337e+00, 1.82954550e+00, 1.67361116e+00,
          4.57072705e-01, 4.87990201e-01, 3.80522430e-01, 4.35278416e-01,
          1.96084470e-01, 2.16283500e-01, 1.88101649e-01, 1.94258347e-01,
          2.37289235e-01, 2.65517235e-01, -4.65575159e-02,
          4.40776423e-02, 3.84491235e-02, 4.67785485e-02, 3.53822298e-02,
          3.77363041e-02 ]
      - [ 1.03465910e+01, 4.01388884e+00, 8.35227299e+00, 1.34166670e+01,
          1.82386363e+00, 7.08333313e-01, 1.48863637e+00, 2.34722233e+00,
          6.65857434e-01, 8.52965474e-01, 7.09964275e-01, 5.81563950e-01,
          6.51962340e-01, 7.80562997e-01, 6.54901922e-01, 5.82485318e-01,
          8.24712589e-02, 6.35481358e-01, 3.13721836e-01,
          -1.21553198e-01, 4.25054878e-01, 6.09278560e-01,
          4.28896576e-01, 3.39289159e-01 ]
      - [ 2.04545453e-01, 2.50000000e-01, 2.04545453e-01, 0.,
          3.40909101e-02, 4.16666679e-02, 3.40909101e-02, 0.,
          9.94471729e-01, 9.93243217e-01, 9.94471729e-01, 1.,
          9.94326293e-01, 9.93067682e-01, 9.94326293e-01, 1.,
          -2.84900283e-03, -3.48432059e-03, -2.84900283e-03, 1.,
          9.88684773e-01, 9.86183465e-01, 9.88684773e-01, 1. ]
      - [ 1.31079550e+01, 1.53472223e+01, 9.22727299e+00, 4.02083349e+00,
          2.65340900e+00, 3.02777767e+00, 2.03409100e+00, 1.24305558e+00,
          3.92997324e-01, 3.60441327e-01, 4.96591091e-01, 5.86170316e-01,
          2.50387102e-01, 2.44292483e-01, 2.68341869e-01, 2.94709653e-01,
          4.28540446e-03, -1.28830880e-01, 3.17356974e-01,
          6.51984453e-01, 6.26937002e-02, 5.96788190e-02, 7.20073581e-02,
          8.68537799e-02 ]
      - [ 6.76136351e+00, 1.52430553e+01, 1.40852270e+01, 1.04305553e+01,
          1.43181813e+00, 2.82638884e+00, 2.65340900e+00, 1.93055558e+00,
          6.53509498e-01, 4.48675245e-01, 4.64269876e-01, 5.95668972e-01,
          4.79819357e-01, 3.54812860e-01, 3.60358983e-01, 4.61740285e-01,
          5.77707887e-01, 1.01513252e-01, 1.31248385e-01, 3.60851049e-01,
          2.30226621e-01, 1.25892162e-01, 1.29858598e-01, 2.13204086e-01 ]
      - [ 9.68181801e+00, 6.13888884e+00, 7.21590900e+00, 1.18819447e+01,
          2.25000000e+00, 1.70833337e+00, 1.64772725e+00, 2.43750000e+00,
          4.01151001e-01, 4.55503583e-01, 5.54054856e-01, 4.26619798e-01,
          2.20349088e-01, 2.56615788e-01, 2.61116475e-01, 2.46796608e-01,
          -1.61563188e-01, 5.30262440e-02, 2.46636286e-01,
          -3.07885259e-01, 4.85537201e-02, 6.58516586e-02,
          6.81818202e-02, 6.09085634e-02 ]
      - [ 7.44886351e+00, 8.48611069e+00, 6.44318199e+00, 7.52083349e+00,
          1.30113637e+00, 1.45833337e+00, 1.19318187e+00, 1.35416663e+00,
          7.74798512e-01, 7.51383722e-01, 7.68299997e-01, 7.52324581e-01,
          7.72863030e-01, 7.49726653e-01, 7.20695555e-01, 7.36094713e-01,
          -1.28207892e-01, -1.43258095e-01, 3.33506972e-01,
          8.72927830e-02, 5.97317278e-01, 5.62090099e-01, 5.19402146e-01,
          5.41835427e-01 ]
      - [ 8.66477299e+00, 1.26875000e+01, 8.92045498e+00, 4.23611104e-01,
          1.46022725e+00, 2.11805558e+00, 1.51136363e+00, 1.18055552e-01,
          7.41342783e-01, 6.44040167e-01, 7.30700910e-01, 9.59861100e-01,
          6.99498534e-01, 6.39680982e-01, 6.99844539e-01, 8.56224954e-01,
          2.40450799e-01, -9.66592282e-02, 2.34311879e-01,
          9.56153572e-01, 4.89298165e-01, 4.09191757e-01, 4.89782423e-01,
          7.33121157e-01 ]
      - [ 5.52272749e+00, 4.90277767e+00, 5.20454550e+00, 8.93055534e+00,
          1.72727275e+00, 1.68055558e+00, 1.70454550e+00, 2.36111116e+00,
          4.49795991e-01, 4.37691450e-01, 4.41485316e-01, 3.47779363e-01,
          1.90997005e-01, 2.02998832e-01, 1.86550632e-01, 1.87500000e-01,
          2.76779592e-01, 2.47858196e-01, 3.70859474e-01,
          -1.35596544e-01, 3.64798568e-02, 4.12085280e-02,
          3.48011367e-02, 3.51562500e-02 ]
      - [ 1.02500000e+01, 6.04861116e+00, 5.09090900e+00, 1.13541670e+01,
          1.60227275e+00, 9.51388896e-01, 8.52272749e-01, 1.78472221e+00,
          7.45832562e-01, 8.47423494e-01, 8.41861665e-01, 7.22681046e-01,
          7.30550170e-01, 8.15639734e-01, 7.75947928e-01, 7.25669503e-01,
          4.54796888e-02, 3.06802690e-01, 5.59439480e-01,
          -1.63152024e-01, 5.33703506e-01, 6.65268123e-01,
          6.02095187e-01, 5.26596248e-01 ]
      - [ 3.46590900e+00, 4.29861116e+00, 3.74431825e+00, 3.17361116e+00,
          1.39772725e+00, 1.60416663e+00, 1.52840912e+00, 1.40972221e+00,
          4.91263896e-01, 4.40574586e-01, 4.39677596e-01, 4.58254784e-01,
          2.14182690e-01, 2.26893187e-01, 2.24773183e-01, 2.25507408e-01,
          2.17036173e-01, -1.93324894e-01, 2.88984422e-02,
          2.13871449e-01, 4.58742268e-02, 5.14805168e-02, 5.05229868e-02,
          5.08535877e-02 ]
      - [ 1.20681820e+01, 7.02083349e+00, 6.94886351e+00, 1.23541670e+01,
          2.81818175e+00, 1.86805558e+00, 1.78977275e+00, 2.93750000e+00,
          2.97158092e-01, 4.56054747e-01, 4.65772808e-01, 2.53079921e-01,
          1.66526720e-01, 1.93325147e-01, 2.01364145e-01, 1.69606596e-01,
          -1.66574091e-01, 2.64710575e-01, 3.66723001e-01,
          -1.79341629e-01, 2.77311467e-02, 3.73746157e-02,
          4.05475199e-02, 2.87663974e-02 ]
      - [ 1.09545450e+01, 1.28263893e+01, 1.24431820e+01, 15.,
          2.40909100e+00, 2.71527767e+00, 2.77272725e+00, 3.16666675e+00,
          4.10757124e-01, 3.45196158e-01, 3.08285922e-01, 2.67071247e-01,
          2.03199491e-01, 1.68965623e-01, 1.54457688e-01, 1.55825034e-01,
          7.50527456e-02, -2.00212859e-02, 1.30082965e-02,
          -1.96933776e-01, 4.12900299e-02, 2.85493825e-02,
          2.38571800e-02, 2.42814422e-02 ]
      - [ 1.80681813e+00, 2.71527767e+00, 2.61931825e+00, 2.41666675e+00,
          1., 1.17361116e+00, 1.18750000e+00, 1.04166663e+00,
          5.74351430e-01, 5.52843750e-01, 5.32025754e-01, 6.02413297e-01,
          2.81551152e-01, 2.80111730e-01, 2.91355968e-01, 3.08735043e-01,
          3.83231938e-01, -2.49856636e-02, -8.17051604e-02,
          -2.07966729e-03, 7.92710483e-02, 7.84625784e-02,
          8.48883018e-02, 9.53173190e-02 ]
      - [ 3.80113626e+00, 3.60416675e+00, 3.85795450e+00, 3.35416675e+00,
          1.52840912e+00, 1.47916663e+00, 1.50568187e+00, 1.50694442e+00,
          4.43255693e-01, 4.55828071e-01, 4.64893550e-01, 4.22878951e-01,
          2.17064783e-01, 2.41512969e-01, 2.32538432e-01, 2.29482099e-01,
          1.53332010e-01, 1.27801225e-02, 6.54659700e-03, 1.41328037e-01,
          4.71171215e-02, 5.83285093e-02, 5.40741235e-02, 5.26620373e-02 ]
      - [ 1.18181820e+01, 9.34722233e+00, 2.80681825e+00, 1.17222223e+01,
          1.71590912e+00, 1.34722221e+00, 4.20454532e-01, 1.70833337e+00,
          7.55264580e-01, 8.09542060e-01, 9.32954550e-01, 7.55323410e-01,
          7.66371787e-01, 8.15669298e-01, 8.15118134e-01, 7.65560031e-01,
          -1.42293692e-01, -1.07527740e-01, 7.84278393e-01,
          -1.42180502e-01, 5.87325692e-01, 6.65316343e-01,
          6.64417624e-01, 5.86082160e-01 ]
      - [ 3.77272725e+00, 6.27777767e+00, 4.83522749e+00, 3.89583325e+00,
          1.14772725e+00, 1.84722221e+00, 1.43750000e+00, 1.14583337e+00,
          6.52003944e-01, 4.64867592e-01, 5.73314607e-01, 6.56699955e-01,
          4.77898002e-01, 3.65392625e-01, 4.45506722e-01, 5.03938973e-01,
          4.61734027e-01, 9.95891392e-02, 2.28942454e-01, 4.23265964e-01,
          2.28386492e-01, 1.33511767e-01, 1.98476240e-01, 2.53954470e-01 ]
      - [ 7.34659100e+00, 1.00763893e+01, 7.49431801e+00, 1.63194442e+00,
          1.41477275e+00, 1.84027779e+00, 1.43750000e+00, 3.81944448e-01,
          7.11705089e-01, 6.48418427e-01, 7.11804211e-01, 8.96547019e-01,
          6.80823147e-01, 6.14396930e-01, 6.80419981e-01, 8.34099770e-01,
          1.86279222e-01, -1.18738540e-01, 1.76126748e-01,
          7.90872931e-01, 4.63520139e-01, 3.77483606e-01, 4.62971330e-01,
          6.95722401e-01 ]
      - [ 6.67045450e+00, 9.34027767e+00, 9.23295498e+00, 6.60416651e+00,
          1.88636363e+00, 2.49305558e+00, 2.40340900e+00, 1.86805558e+00,
          4.35967654e-01, 3.11923593e-01, 3.25100869e-01, 4.23506945e-01,
          1.82261527e-01, 1.67244375e-01, 1.56172499e-01, 1.69606596e-01,
          1.19790070e-01, -3.03298950e-01, -2.43307978e-01,
          1.67684406e-02, 3.32192667e-02, 2.79706791e-02, 2.43898500e-02,
          2.87663974e-02 ]
      - [ 6.98295450e+00, 7.17361116e+00, 6.43750000e+00, 6.47222233e+00,
          2.16477275e+00, 2.13194442e+00, 1.99431813e+00, 2.08333325e+00,
          3.32948506e-01, 3.64674211e-01, 3.78169626e-01, 3.45956475e-01,
          1.66962326e-01, 1.68322220e-01, 1.65749460e-01, 1.82811752e-01,
          2.66551170e-02, -4.58442755e-02, -2.23980267e-02,
          -1.82761967e-01, 2.78764199e-02, 2.83323694e-02,
          2.74728816e-02, 3.34201381e-02 ]
      - [ 2.81818175e+00, 3.21527767e+00, 2.65909100e+00, 3.50000000e+00,
          1.22727275e+00, 1.22916663e+00, 1.18181813e+00, 1.37500000e+00,
          5.32558620e-01, 5.61056852e-01, 5.45156300e-01, 5.00520766e-01,
          3.01645160e-01, 3.12847018e-01, 3.00465584e-01, 2.84891546e-01,
          6.82264566e-02, -2.18165040e-01, 1.24191903e-01,
          -4.59143966e-02, 9.09897983e-02, 9.78732631e-02,
          9.02795717e-02, 8.11631978e-02 ]
      - [ 1.75056820e+01, 1.63819447e+01, 7.31818199e+00, 1.76736107e+01,
          2.67613626e+00, 2.52083325e+00, 1.18181813e+00, 2.71527767e+00,
          5.95471680e-01, 6.12028658e-01, 8.01512361e-01, 5.87047935e-01,
          6.17085755e-01, 6.24807060e-01, 7.49407887e-01, 6.08719289e-01,
          -2.57155985e-01, -1.71205997e-01, 3.65787059e-01,
          -2.63552040e-01, 3.80794823e-01, 3.90383869e-01,
          5.61612189e-01, 3.70539159e-01 ]
      - [ 8.02272701e+00, 5.40972233e+00, 5.13068199e+00, 7.43055534e+00,
          2.35227275e+00, 1.75694442e+00, 1.68750000e+00, 2.23611116e+00,
          3.06501061e-01, 4.28865612e-01, 4.52879280e-01, 3.26970816e-01,
          1.71351805e-01, 1.80488765e-01, 2.09265307e-01, 1.79080516e-01,
          -2.14683026e-01, 2.04490408e-01, 3.03837419e-01,
          -1.89843699e-01, 2.93614417e-02, 3.25761959e-02,
          4.37919684e-02, 3.20698321e-02 ]
      - [ 5.14772749e+00, 4.21527767e+00, 4.59090900e+00, 3.50000000e+00,
          1.81818187e+00, 1.65972221e+00, 1.75000000e+00, 1.40277779e+00,
          3.92105758e-01, 4.12685394e-01, 3.87606591e-01, 4.88039613e-01,
          2.00077459e-01, 2.12232038e-01, 2.01484352e-01, 2.14098468e-01,
          -8.75312015e-02, -1.70182041e-03, -1.03979379e-01,
          1.54362410e-01, 4.00309935e-02, 4.50424366e-02, 4.05959450e-02,
          4.58381549e-02 ]
      - [ 1.01136363e+00, 1.18750000e+00, 1.19318187e+00, 1.40277779e+00,
          7.27272749e-01, 8.26388896e-01, 8.06818187e-01, 8.47222209e-01,
          6.64772749e-01, 6.22916639e-01, 6.34425163e-01, 6.31944418e-01,
          3.80406111e-01, 3.92038345e-01, 3.85861963e-01, 3.95650536e-01,
          2.38391593e-01, 5.31195104e-03, 2.67537385e-02,
          -1.14055917e-01, 1.44708812e-01, 1.53694063e-01,
          1.48889467e-01, 1.56539351e-01 ]
      - [ 1.02272730e+01, 5.18750000e+00, 7.55681801e+00, 8.52083302e+00,
          2.59090900e+00, 1.67361116e+00, 2.28409100e+00, 2.39583325e+00,
          3.00643981e-01, 4.64184046e-01, 3.13837886e-01, 3.20399433e-01,
          1.61657467e-01, 1.72845528e-01, 1.62603274e-01, 1.59344360e-01,
          -2.01638594e-01, 4.01667029e-01, 1.07321277e-01,
          1.52240973e-02, 2.61331350e-02, 2.98755784e-02, 2.64398251e-02,
          2.53906250e-02 ]
      - [ 8.44318199e+00, 7.77083349e+00, 9.16477299e+00, 1.12152777e+01,
          2.30681825e+00, 2.14583325e+00, 2.36931825e+00, 2.86805558e+00,
          3.43609929e-01, 3.78491849e-01, 3.50653440e-01, 2.43699208e-01,
          1.46850541e-01, 1.54035226e-01, 1.56069115e-01, 1.61970884e-01,
          7.96624571e-02, 1.65753305e-01, -1.01316474e-01,
          -2.87397563e-01, 2.15650834e-02, 2.37268526e-02,
          2.43575666e-02, 2.62345672e-02 ]
      - [ 9.44886398e+00, 1.01875000e+01, 3.64204550e+00, 6.80555534e+00,
          1.36931813e+00, 1.47916663e+00, 5.39772749e-01, 9.72222209e-01,
          8.05273354e-01, 7.89222956e-01, 9.16249990e-01, 8.63888860e-01,
          8.10919046e-01, 7.96086013e-01, 8.34618270e-01, 8.66693377e-01,
          -1.10148966e-01, -1.20301649e-01, 6.71438575e-01,
          -7.46268630e-02, 6.57589734e-01, 6.33752882e-01,
          6.96587682e-01, 7.51157403e-01 ]
      - [ 1.84147720e+01, 9.94444466e+00, 6.91477251e+00, 1.88055553e+01,
          2.96022725e+00, 1.69444442e+00, 1.28977275e+00, 3.02777767e+00,
          5.13638377e-01, 6.76211596e-01, 7.13618338e-01, 5.03564000e-01,
          4.81096029e-01, 5.53511858e-01, 5.65604925e-01, 4.70943928e-01,
          -2.01092158e-02, 4.67435271e-01, 6.30249202e-01,
          -3.28048617e-02, 2.31453389e-01, 3.06375384e-01,
          3.19908977e-01, 2.21788198e-01 ]
      - [ 9.97159100e+00, 3.95833325e+00, 7.78977251e+00, 1.31111107e+01,
          1.63068187e+00, 6.52777791e-01, 1.32386363e+00, 2.12500000e+00,
          7.25213945e-01, 8.75833333e-01, 7.51769304e-01, 6.55574262e-01,
          7.01733291e-01, 8.22059155e-01, 7.10886061e-01, 6.47548497e-01,
          1.29943684e-01, 6.00525618e-01, 3.78653169e-01,
          -8.31208602e-02, 4.92429614e-01, 6.75781250e-01,
          5.05358994e-01, 4.19319063e-01 ]
      - [ 9.55113602e+00, 1.16319447e+01, 8.32954502e+00, 3.94444442e+00,
          2.31250000e+00, 2.88194442e+00, 2.04545450e+00, 1.31944442e+00,
          4.00052458e-01, 2.54455000e-01, 4.54280317e-01, 5.46211600e-01,
          2.04269066e-01, 2.03651085e-01, 2.18029365e-01, 2.46894285e-01,
          -2.17450988e-02, -2.48760685e-01, 1.32077500e-01,
          5.46200037e-01, 4.17258516e-02, 4.14737649e-02, 4.75368015e-02,
          6.09567910e-02 ]
      - [ 5.43181801e+00, 5.26388884e+00, 5.22727251e+00, 5.22916651e+00,
          1.89772725e+00, 1.84722221e+00, 1.75000000e+00, 1.81250000e+00,
          3.67166102e-01, 3.85099292e-01, 4.22396809e-01, 3.91427636e-01,
          1.71351805e-01, 1.83798343e-01, 1.87586069e-01, 1.80488765e-01,
          2.14829892e-02, -6.23686053e-02, -1.49680232e-03,
          -2.39141826e-02, 2.93614417e-02, 3.37818302e-02,
          3.51885334e-02, 3.25761959e-02 ]
      - [ 1.87500000e+00, 4.98611116e+00, 7.17045450e+00, 6.21527767e+00,
          1.01136363e+00, 1.77777779e+00, 2.23863626e+00, 2.02083325e+00,
          5.78275383e-01, 3.98988187e-01, 3.07663828e-01, 3.47882688e-01,
          2.23296180e-01, 1.95372283e-01, 1.83100939e-01, 1.87757030e-01,
          7.18375444e-01, 2.47894093e-01, -1.17904633e-01,
          2.98942812e-02, 4.98611815e-02, 3.81703302e-02, 3.35259549e-02,
          3.52527015e-02 ]
      - [ 2.85227275e+00, 4.81944466e+00, 5.13636351e+00, 5.43750000e+00,
          1.28409088e+00, 1.79166663e+00, 1.81818187e+00, 1.84027779e+00,
          5.09959877e-01, 3.83339614e-01, 3.94590706e-01, 4.00480777e-01,
          2.14333370e-01, 1.98190600e-01, 2.01043248e-01, 2.10520923e-01,
          3.34498346e-01, -9.48530883e-02, -1.86935827e-01,
          -2.77505547e-01, 4.59387898e-02, 3.92795131e-02,
          4.04183902e-02, 4.43190597e-02 ]
      - [ 5.97159100e+00, 6.33333349e+00, 7.38068199e+00, 6.79166651e+00,
          1.92613637e+00, 1.95833337e+00, 2.19886374e+00, 2.15277767e+00,
          3.85402590e-01, 3.83214295e-01, 3.43275547e-01, 3.31942737e-01,
          1.79450139e-01, 1.62119687e-01, 1.65261820e-01, 1.72705978e-01,
          2.17439011e-02, 5.73643409e-02, -1.36711791e-01,
          -2.18459621e-01, 3.22023518e-02, 2.62827929e-02,
          2.73114666e-02, 2.98273526e-02 ]
      - [ 1.13352270e+01, 6.52083349e+00, 1.13863640e+01, 1.24444447e+01,
          2.42613626e+00, 1.71527779e+00, 2.29545450e+00, 2.66666675e+00,
          4.17212754e-01, 4.85294282e-01, 4.65453386e-01, 3.63005042e-01,
          2.33404502e-01, 2.51825899e-01, 2.45767370e-01, 2.32094094e-01,
          -4.09651455e-03, 2.59737372e-01, 6.32330477e-02,
          -4.63300124e-02, 5.44776618e-02, 6.34162799e-02,
          6.04015999e-02, 5.38676679e-02 ]
      - [ 4.65340900e+00, 3.20138884e+00, 6.89204550e+00, 8.66666698e+00,
          7.89772749e-01, 5.48611104e-01, 1.15340912e+00, 1.44444442e+00,
          8.61393154e-01, 9.05327737e-01, 8.09453547e-01, 7.63825357e-01,
          8.04494083e-01, 8.90366077e-01, 8.06748152e-01, 7.66488612e-01,
          4.45214838e-01, 2.71334261e-01, -4.05952446e-02,
          -1.36842102e-01, 6.47210717e-01, 7.92751729e-01,
          6.50842607e-01, 5.87504804e-01 ]
      - [ 2.43750000e+00, 2.97916675e+00, 2.43750000e+00, 2.36111104e-01,
          4.82954532e-01, 5.90277791e-01, 4.82954532e-01, 5.55555560e-02,
          9.03752685e-01, 8.82364392e-01, 9.03752685e-01, 9.87072647e-01,
          8.98607910e-01, 8.76349270e-01, 8.98607910e-01, 9.86135542e-01,
          -5.02493344e-02, -6.21093996e-02, -5.02493344e-02,
          3.64485979e-01, 8.07496130e-01, 7.67988026e-01, 8.07496130e-01,
          9.72463369e-01 ]
      - [ 5.66477251e+00, 1.09305553e+01, 8.56250000e+00, 3.56944442e+00,
          1.77840912e+00, 2.66666675e+00, 2.25568175e+00, 1.25000000e+00,
          4.51137543e-01, 3.21507305e-01, 3.86484057e-01, 5.77909768e-01,
          2.25740567e-01, 1.94692299e-01, 2.06000194e-01, 2.65301406e-01,
          5.01062751e-01, 1.25470515e-02, 1.80410087e-01, 6.45513833e-01,
          5.09588085e-02, 3.79050933e-02, 4.24360782e-02, 7.03848377e-02 ]
      - [ 6.37500000e+00, 6.14583349e+00, 5.30113649e+00, 3.17361116e+00,
          2.12500000e+00, 1.97916663e+00, 1.90340912e+00, 1.38194442e+00,
          3.20165902e-01, 3.63276511e-01, 3.61622602e-01, 4.80087370e-01,
          1.87456951e-01, 1.90498143e-01, 1.88786909e-01, 1.90054610e-01,
          -2.64824569e-01, -2.71253645e-01, -1.49855569e-01,
          3.33788902e-01, 3.51401083e-02, 3.62895429e-02, 3.56404968e-02,
          3.61207575e-02 ]
      - [ 3.38636374e+00, 3.41666675e+00, 4.87500000e+00, 3.15972233e+00,
          1.39772725e+00, 1.37500000e+00, 1.57954550e+00, 1.29861116e+00,
          4.88554090e-01, 4.94668186e-01, 4.80408937e-01, 5.23796499e-01,
          2.51512736e-01, 2.51394629e-01, 2.51608968e-01, 2.84933865e-01,
          -4.97157946e-02, 4.51752022e-02, -2.89080113e-01,
          -5.93799278e-02, 6.32586554e-02, 6.31992668e-02,
          6.33070767e-02, 8.11873078e-02 ]
      - [ 1.55909090e+01, 1.11805553e+01, 1.04829550e+01, 1.71944447e+01,
          3.19318175e+00, 2.72222233e+00, 2.57386374e+00, 3.44444442e+00,
          2.54606664e-01, 2.90156156e-01, 3.24332982e-01, 2.29405716e-01,
          1.91756099e-01, 1.64628744e-01, 1.64870664e-01, 1.85040459e-01,
          -4.80769217e-01, -1.39337163e-02, 6.65304065e-02,
          -4.74114180e-01, 3.67704034e-02, 2.71026231e-02,
          2.71823350e-02, 3.42399701e-02 ]
      - [ 4.86931801e+00, 5.30555534e+00, 2.98295450e+00, 4.36805534e+00,
          1.74431813e+00, 1.79166663e+00, 1.23295450e+00, 1.57638884e+00,
          4.04423922e-01, 4.20110613e-01, 5.44238508e-01, 4.60874587e-01,
          2.19468266e-01, 2.32405558e-01, 2.48899952e-01, 2.28956133e-01,
          -1.67977259e-01, -2.97389090e-01, 3.51248890e-01,
          5.33791110e-02, 4.81663235e-02, 5.40123470e-02, 6.19511865e-02,
          5.24209104e-02 ]
      - [ 1.90227280e+01, 1.83750000e+01, 7.67045450e+00, 1.37083330e+01,
          3.48863626e+00, 3.45833325e+00, 1.51136363e+00, 2.51388884e+00,
          3.18982452e-01, 3.00467074e-01, 6.47704601e-01, 4.85693306e-01,
          2.91715860e-01, 2.87922382e-01, 4.24428403e-01, 3.79791915e-01,
          -2.33608708e-01, -2.16769278e-01, 4.14336920e-01,
          1.07572526e-01, 8.50981399e-02, 8.28993022e-02, 1.80139467e-01,
          1.44241899e-01 ]
      - [ 1.51477270e+01, 6.65277767e+00, 7.25000000e+00, 1.84930553e+01,
          2.73863626e+00, 1.40277779e+00, 1.47727275e+00, 3.21527767e+00,
          4.47715640e-01, 6.37038231e-01, 6.47713125e-01, 3.93954068e-01,
          2.91826487e-01, 3.53212208e-01, 3.59349728e-01, 2.89342582e-01,
          1.69467464e-01, 6.22816086e-01, 6.05353415e-01, 9.10475664e-03,
          8.51627067e-02, 1.24758877e-01, 1.29132226e-01, 8.37191343e-02 ]
      - [ 3.01136374e+00, 1.21388893e+01, 1.44886360e+01, 1.43611107e+01,
          1.01136363e+00, 2.47222233e+00, 2.81818175e+00, 2.84722233e+00,
          6.39032960e-01, 4.17277664e-01, 3.78907174e-01, 3.53429824e-01,
          3.31936866e-01, 2.44686991e-01, 2.53939778e-01, 2.46356547e-01,
          7.90885806e-01, -4.05536108e-02, -2.13714316e-01,
          -2.28393227e-01, 1.10182077e-01, 5.98717220e-02,
          6.44854084e-02, 6.06915504e-02 ]
      - [ 2.63636374e+00, 1.56250000e+01, 1.99829540e+01, 1.62777786e+01,
          8.75000000e-01, 2.90277767e+00, 3.41477275e+00, 2.81944442e+00,
          6.97246015e-01, 3.73908013e-01, 3.57750207e-01, 4.59382683e-01,
          3.94814819e-01, 2.75861442e-01, 2.91577488e-01, 3.16029459e-01,
          8.56117964e-01, 5.25817163e-02, -2.38371611e-01,
          2.93493457e-02, 1.55878738e-01, 7.60995373e-02, 8.50174353e-02,
          9.98746157e-02 ]
      - [ 1.14772730e+01, 1.55416670e+01, 1.29488640e+01, 9.70138931e+00,
          2.39772725e+00, 3.09722233e+00, 2.65340900e+00, 2.18750000e+00,
          4.36932474e-01, 3.27044666e-01, 3.97299647e-01, 4.48967606e-01,
          2.27485701e-01, 2.43749008e-01, 2.46423274e-01, 2.43452057e-01,
          1.52539134e-01, -3.31658453e-01, -1.86980918e-01,
          1.91304851e-02, 5.17497435e-02, 5.94135821e-02, 6.07244335e-02,
          5.92689030e-02 ]
      - [ 6.82386351e+00, 4.75694466e+00, 3.32386374e+00, 5.45833349e+00,
          2.02840900e+00, 1.63194442e+00, 1.14204550e+00, 1.61111116e+00,
          3.73732448e-01, 4.56920743e-01, 5.91071725e-01, 4.95751590e-01,
          2.78119057e-01, 2.99860120e-01, 3.14738870e-01, 3.17627698e-01,
          -2.75627851e-01, -2.54970752e-02, 3.33089352e-01,
          -1.49146140e-01, 7.73502067e-02, 8.99160877e-02,
          9.90605652e-02, 1.00887343e-01 ]
      - [ 8.43181801e+00, 1.00902777e+01, 9.70454502e+00, 1.60625000e+01,
          2.25000000e+00, 2.52083325e+00, 2.19318175e+00, 3.10416675e+00,
          3.58887911e-01, 3.25897962e-01, 4.43339735e-01, 3.28311980e-01,
          2.14709580e-01, 2.14379847e-01, 2.34405130e-01, 2.19712391e-01,
          2.46126488e-01, 6.02037869e-02, 1.02855504e-01,
          -3.16326231e-01, 4.61002067e-02, 4.59587201e-02,
          5.49457632e-02, 4.82735336e-02 ]
      - [ 3.36363626e+00, 4.27777767e+00, 3.07954550e+00, 2.94444442e+00,
          1.45454550e+00, 1.58333337e+00, 1.30681813e+00, 1.34722221e+00,
          4.55183059e-01, 4.40915436e-01, 5.12201786e-01, 4.78720456e-01,
          2.17621788e-01, 2.25827947e-01, 2.26311892e-01, 2.31105015e-01,
          1.16043098e-01, -4.14201170e-02, 1.44604459e-01,
          2.99949162e-02, 4.73592468e-02, 5.09982631e-02, 5.12170717e-02,
          5.34095280e-02 ]
      - [ 1.70965900e+01, 2.04166660e+01, 1.34375000e+01, 7.02083349e+00,
          3.09659100e+00, 3.84722233e+00, 2.56250000e+00, 1.53472221e+00,
          3.83150965e-01, 2.11169943e-01, 4.38770086e-01, 6.00942016e-01,
          2.55618691e-01, 2.23790050e-01, 2.83948839e-01, 3.20499480e-01,
          -8.45297277e-02, -2.79033244e-01, 1.72530323e-01,
          5.80047190e-01, 6.53409064e-02, 5.00819832e-02, 8.06269348e-02,
          1.02719910e-01 ]
      - [ 4.55113649e+00, 4.65972233e+00, 4.03409100e+00, 3.43055558e+00,
          1.68750000e+00, 1.71527779e+00, 1.57954550e+00, 1.36111116e+00,
          4.18790430e-01, 4.14181113e-01, 4.32679951e-01, 5.11155128e-01,
          1.89597428e-01, 2.04478219e-01, 1.93056449e-01, 1.96970209e-01,
          1.64888259e-02, -1.39386937e-01, 1.02247253e-01,
          2.90894955e-01, 3.59471850e-02, 4.18113433e-02, 3.72707918e-02,
          3.87972593e-02 ]
      - [ 1.25852270e+01, 7.38194466e+00, 1.06079550e+01, 1.15555553e+01,
          2.80113626e+00, 2.07638884e+00, 2.53977275e+00, 2.81944442e+00,
          3.08640867e-01, 4.04224664e-01, 3.18896264e-01, 2.59262502e-01,
          1.55965656e-01, 1.98797986e-01, 1.66962326e-01, 1.62935674e-01,
          -1.60681993e-01, 3.47540051e-01, 5.57144880e-02,
          -3.69448843e-03, 2.43252832e-02, 3.95206399e-02,
          2.78764199e-02, 2.65480317e-02 ]
      - [ 1.16193180e+01, 1.14583330e+01, 1.12670450e+01, 3.65972233e+00,
          2.85795450e+00, 2.88888884e+00, 2.78977275e+00, 1.42361116e+00,
          2.61158735e-01, 2.42428660e-01, 2.65009969e-01, 4.93020147e-01,
          1.40617833e-01, 1.51986584e-01, 1.41190603e-01, 1.67604417e-01,
          -1.71265721e-01, -1.14206128e-01, -9.70006064e-02,
          5.86818576e-01, 1.97733734e-02, 2.30999235e-02, 1.99347883e-02,
          2.80912425e-02 ]
      - [ 7.35795450e+00, 2.37500000e+00, 5.73295450e+00, 9.90972233e+00,
          1.19886363e+00, 4.02777791e-01, 9.48863626e-01, 1.59027779e+00,
          8.06207955e-01, 9.28754330e-01, 8.39045286e-01, 7.49719620e-01,
          7.96731949e-01, 8.96748006e-01, 7.94601798e-01, 7.55302131e-01,
          6.48879632e-02, 5.44800818e-01, 3.68746221e-01,
          -1.46264657e-01, 6.34781778e-01, 8.04157019e-01,
          6.31392062e-01, 5.70481300e-01 ]
      - [ 3.11363626e+00, 3.65277767e+00, 3.78977275e+00, 2.40277767e+00,
          1.34090912e+00, 1.45833337e+00, 1.46022725e+00, 1.13888884e+00,
          4.92749900e-01, 4.73799646e-01, 4.80103344e-01, 5.53022861e-01,
          2.83408284e-01, 2.55202442e-01, 2.42660865e-01, 2.83534110e-01,
          1.57349894e-03, -9.96835008e-02, -5.45122996e-02,
          2.45982021e-01, 8.03202465e-02, 6.51282817e-02, 5.88842966e-02,
          8.03915858e-02 ]
      - [ 4.89772749e+00, 5.45833349e+00, 6., 3.19444442e+00,
          1.48863637e+00, 1.54166663e+00, 1.63636363e+00, 1.08333337e+00,
          5.14946818e-01, 5.19108772e-01, 5.00694811e-01, 6.20186388e-01,
          3.16477776e-01, 3.04884046e-01, 3.04759502e-01, 3.44957888e-01,
          -4.42875028e-02, -1.01033092e-01, -1.47840261e-01,
          7.60733113e-02, 1.00158185e-01, 9.29542854e-02, 9.28783566e-02,
          1.18995950e-01 ]
      - [ 7.19318199e+00, 7.86805534e+00, 9.69318199e+00, 5.50694466e+00,
          1.80681813e+00, 1.88194442e+00, 2.12500000e+00, 1.54861116e+00,
          4.88691479e-01, 4.86468524e-01, 4.61041629e-01, 5.30466080e-01,
          3.01270336e-01, 2.97113478e-01, 2.77654350e-01, 3.02023470e-01,
          1.23648003e-01, 1.80528015e-02, -1.50027201e-01,
          3.68503124e-01, 9.07638147e-02, 8.82764310e-02, 7.70919397e-02,
          9.12181735e-02 ]
      - [ 1.24090910e+01, 1.22847223e+01, 1.05681820e+01, 6.03472233e+00,
          2.67045450e+00, 2.85416675e+00, 2.36363626e+00, 1.64583337e+00,
          3.50383788e-01, 2.71156877e-01, 4.08462495e-01, 5.12897313e-01,
          1.74201250e-01, 1.63526550e-01, 1.88786909e-01, 2.09257215e-01,
          -3.32236625e-02, 1.08857090e-02, 1.55104056e-01,
          4.62906808e-01, 3.03460751e-02, 2.67409328e-02, 3.56404968e-02,
          4.37885821e-02 ]
      - [ 4.30681801e+00, 5.26388884e+00, 4.30681801e+00, 3.40277791e-01,
          6.59090936e-01, 8.05555582e-01, 6.59090936e-01, 4.86111119e-02,
          9.00247097e-01, 8.78079832e-01, 9.00247097e-01, 9.93194461e-01,
          8.99038911e-01, 8.77009392e-01, 8.99038911e-01, 9.86147761e-01,
          -5.31101972e-02, -6.56877309e-02, -5.31101972e-02,
          6.63157880e-01, 8.08270931e-01, 7.69145429e-01, 8.08270931e-01,
          9.72487450e-01 ]
      - [ 5.40909100e+00, 4.30555534e+00, 4.82386351e+00, 3.70138884e+00,
          1.81818187e+00, 1.70833337e+00, 1.72159088e+00, 1.54861116e+00,
          3.94895047e-01, 3.86400193e-01, 4.12232399e-01, 4.28943574e-01,
          2.00601175e-01, 1.94009930e-01, 1.87198445e-01, 2.28639960e-01,
          -1.81557909e-01, 9.94189829e-02, 6.52090237e-02,
          8.69324729e-02, 4.02408317e-02, 3.76398526e-02, 3.50432582e-02,
          5.22762351e-02 ]
      - [ 1.08125000e+01, 9.47916698e+00, 1.03636360e+01, 6.69444466e+00,
          2.53977275e+00, 2.52083325e+00, 2.51136374e+00, 2.,
          3.33394468e-01, 3.08247983e-01, 3.34698558e-01, 3.73992771e-01,
          1.64233044e-01, 1.62639424e-01, 1.51609823e-01, 1.71304122e-01,
          -1.88431770e-01, -8.78932029e-02, -2.20892817e-01,
          6.64442927e-02, 2.69724950e-02, 2.64515821e-02, 2.29855366e-02,
          2.93451007e-02 ]
      - [ 7.65909100e+00, 1.09444447e+01, 8.31818199e+00, 2.05555558e+00,
          1.26136363e+00, 1.77777779e+00, 1.35227275e+00, 3.05555552e-01,
          7.79251575e-01, 7.11177528e-01, 7.75615513e-01, 9.52222228e-01,
          7.60653079e-01, 7.10864902e-01, 7.60897100e-01, 8.83419573e-01,
          2.58358955e-01, -1.25457481e-01, 8.59802365e-02,
          7.26175964e-01, 5.78593075e-01, 5.05328894e-01, 5.78964353e-01,
          7.80430198e-01 ]
      - [ 6.40340900e+00, 2.18055558e+00, 8., 1.05416670e+01,
          1.06250000e+00, 3.88888896e-01, 1.29545450e+00, 1.70833337e+00,
          8.16878915e-01, 9.23041701e-01, 7.92539239e-01, 7.26197183e-01,
          7.71085739e-01, 8.82573068e-01, 7.73499787e-01, 7.26765215e-01,
          3.34950536e-01, 6.54607654e-01, 4.52398397e-02,
          -1.07321963e-01, 5.94573200e-01, 7.78935194e-01,
          5.98301888e-01, 5.28187692e-01 ]
      - [ 5.57954550e+00, 5.02777767e+00, 1.18409090e+01, 1.39236107e+01,
          1.26136363e+00, 1.26388884e+00, 2.35227275e+00, 2.72916675e+00,
          6.67795002e-01, 6.34690642e-01, 4.69753534e-01, 3.92037749e-01,
          3.37387115e-01, 3.25649291e-01, 3.02286625e-01, 3.10991734e-01,
          6.22591436e-01, 5.72721303e-01, 1.00102067e-01, 5.45463618e-03,
          1.13830060e-01, 1.06047451e-01, 9.13771987e-02, 9.67158601e-02 ]
      - [ 1.85795450e+00, 2.02777767e+00, 2.11931825e+00, 2.02777767e+00,
          8.23863626e-01, 8.47222209e-01, 9.03409064e-01, 8.88888896e-01,
          6.66339457e-01, 6.63720489e-01, 6.42860770e-01, 6.43169940e-01,
          4.17468667e-01, 4.24378872e-01, 4.12880957e-01, 4.22984511e-01,
          -1.14409365e-01, -1.59305215e-01, 6.01238422e-02,
          -8.19823965e-02, 1.74280092e-01, 1.80097416e-01,
          1.70470685e-01, 1.78915888e-01 ]
      - [ 1.18181813e+00, 1.59722221e+00, 1.60795450e+00, 1.59722221e+00,
          7.50000000e-01, 8.75000000e-01, 8.46590936e-01, 8.75000000e-01,
          6.65559411e-01, 6.26985073e-01, 6.41691148e-01, 6.26985073e-01,
          3.64655882e-01, 3.54166657e-01, 3.74633938e-01, 3.62643659e-01,
          2.10489988e-01, 3.71533222e-02, -5.70570566e-02,
          -3.01069915e-02, 1.32973909e-01, 1.25434026e-01,
          1.40350595e-01, 1.31510422e-01 ]
      - [ 2.25568175e+00, 1.90277779e+00, 1.68181813e+00, 1.36805558e+00,
          9.94318187e-01, 8.47222209e-01, 8.86363626e-01, 8.26388896e-01,
          6.00224674e-01, 6.56764269e-01, 6.25072002e-01, 6.33235097e-01,
          3.38461846e-01, 3.65821302e-01, 3.57593626e-01, 3.68055552e-01,
          -5.72010018e-02, 1.36000002e-02, 1.99114501e-01,
          9.18025970e-02, 1.14556432e-01, 1.33825228e-01, 1.27873197e-01,
          1.35464892e-01 ]
      - [ 7.43181801e+00, 1.72847214e+01, 1.40340910e+01, 6.20138884e+00,
          1.68181813e+00, 3.22916675e+00, 2.57954550e+00, 1.56250000e+00,
          5.53354502e-01, 3.38516772e-01, 4.69348133e-01, 5.40740490e-01,
          3.10088843e-01, 2.47089535e-01, 2.58069664e-01, 3.00061077e-01,
          5.60495615e-01, -1.04505807e-01, 1.47474110e-01,
          5.95097423e-01, 9.61550847e-02, 6.10532425e-02, 6.65999502e-02,
          9.00366530e-02 ]
      - [ 1.44886363e+00, 0., 1.44886363e+00, 1.77083337e+00,
          2.21590906e-01, 0., 2.21590906e-01, 2.70833343e-01,
          9.66710687e-01, 1., 9.66710687e-01, 9.59313035e-01,
          9.66059506e-01, 1., 9.66059506e-01, 9.58559752e-01,
          -1.72372758e-02, 1., -1.72372758e-02, -2.11487915e-02,
          9.33270931e-01, 1., 9.33270931e-01, 9.18836832e-01 ]
      - [ 1.03920450e+01, 7.01388884e+00, 1.59943180e+01, 1.89513893e+01,
          2.01704550e+00, 1.55555558e+00, 3.06250000e+00, 3.59027767e+00,
          5.58204830e-01, 6.07883751e-01, 3.70701253e-01, 2.83910125e-01,
          3.90002072e-01, 4.31394786e-01, 3.16503286e-01, 2.82852948e-01,
          2.60384411e-01, 5.64613461e-01, -3.05017624e-02,
          -2.46421084e-01, 1.52101621e-01, 1.86101466e-01,
          1.00174330e-01, 8.00057873e-02 ]
      - [ 5.69318199e+00, 1.64861107e+01, 1.66193180e+01, 1.24722223e+01,
          1.44318187e+00, 3.27777767e+00, 3.21022725e+00, 2.44444442e+00,
          5.68052232e-01, 2.78585225e-01, 3.06305200e-01, 4.41693306e-01,
          2.91549802e-01, 2.13647500e-01, 2.17621788e-01, 2.19712391e-01,
          5.96896827e-01, -2.60837823e-01, -2.85574615e-01,
          2.10681707e-02, 8.50012898e-02, 4.56452556e-02, 4.73592468e-02,
          4.82735336e-02 ]
      - [ 8.22159100e+00, 1.49027777e+01, 1.52215910e+01, 1.01111107e+01,
          1.51704550e+00, 2.61111116e+00, 2.58522725e+00, 1.70833337e+00,
          6.90790951e-01, 5.18048763e-01, 5.36753833e-01, 6.93963408e-01,
          5.97185850e-01, 4.96952504e-01, 5.25591195e-01, 6.29076242e-01,
          4.06828403e-01, -1.30738333e-01, -6.72835633e-02,
          3.31492513e-01, 3.56630951e-01, 2.46961802e-01, 2.76246130e-01,
          3.95736873e-01 ]
      - [ 2.21590900e+00, 2.95138884e+00, 2.41477275e+00, 5.90277791e-01,
          3.40909094e-01, 4.51388896e-01, 3.69318187e-01, 9.02777761e-02,
          9.47205186e-01, 9.32188451e-01, 9.44517791e-01, 9.86437678e-01,
          9.43541169e-01, 9.31203127e-01, 9.43609595e-01, 9.86135542e-01,
          1.50831357e-01, -3.57520618e-02, -2.90627684e-02,
          -6.95158588e-03, 8.90269876e-01, 8.67139280e-01,
          8.90399039e-01, 9.72463369e-01 ]
      - [ 4.23295450e+00, 3.91666675e+00, 6.06250000e+00, 7.40972233e+00,
          6.87500000e-01, 6.11111104e-01, 9.71590936e-01, 1.18750000e+00,
          8.78154159e-01, 9.05364037e-01, 8.45365167e-01, 8.11001897e-01,
          8.48238587e-01, 9.03792143e-01, 8.43381643e-01, 8.09407711e-01,
          4.37358260e-01, -5.00620604e-02, -8.44278634e-02,
          -1.05162650e-01, 7.19508648e-01, 8.16840291e-01,
          7.11292624e-01, 6.55140817e-01 ]
      - [ 2.94886374e+00, 1.24027777e+01, 1.34431820e+01, 1.12361107e+01,
          5.17045438e-01, 2.02777767e+00, 2.14772725e+00, 1.79166663e+00,
          8.89204562e-01, 6.65455282e-01, 6.57812536e-01, 7.08930314e-01,
          7.32811391e-01, 6.66123927e-01, 6.63922310e-01, 7.05741465e-01,
          7.88832963e-01, -1.24685138e-01, -2.07093865e-01,
          -1.78323351e-02, 5.37012517e-01, 4.43721056e-01,
          4.40792859e-01, 4.98070985e-01 ]
      - [ 3.63636374e+00, 6.53472233e+00, 5.34659100e+00, 3.06250000e+00,
          5.34090936e-01, 9.51388896e-01, 7.78409064e-01, 4.37500000e-01,
          9.19090927e-01, 8.64035308e-01, 8.88756156e-01, 9.38750029e-01,
          8.88273716e-01, 8.65273297e-01, 8.89072955e-01, 9.38541114e-01,
          4.60241705e-01, -7.44095892e-02, -6.00679107e-02,
          -3.22580636e-02, 7.89030194e-01, 7.48697937e-01,
          7.90450692e-01, 8.80859375e-01 ]
      - [ 1.36363637e+00, 2.64583325e+00, 3.44318175e+00, 3.32638884e+00,
          5.68181813e-01, 9.79166687e-01, 1.18181813e+00, 1.14583337e+00,
          7.90209770e-01, 6.67279422e-01, 6.16130173e-01, 6.28208280e-01,
          6.30361795e-01, 5.54143190e-01, 5.14196694e-01, 5.25671959e-01,
          6.32516682e-01, 2.62298048e-01, -6.90401718e-02,
          1.52405296e-02, 3.97356004e-01, 3.07074666e-01, 2.64398247e-01,
          2.76331007e-01 ]
      - [ 1.73295450e+00, 4.09722233e+00, 4.07386351e+00, 3.02777767e+00,
          5.17045438e-01, 8.19444418e-01, 9.26136374e-01, 8.47222209e-01,
          8.45729649e-01, 8.21005106e-01, 7.70695329e-01, 7.60523260e-01,
          7.74271548e-01, 7.93871820e-01, 7.37728894e-01, 7.21938372e-01,
          6.13065541e-01, -6.38084710e-02, -1.17658257e-01,
          -1.34472907e-01, 5.99496365e-01, 6.30232453e-01,
          5.44243932e-01, 5.21194994e-01 ]
      - [ 5.48295450e+00, 1.11319447e+01, 9.23295498e+00, 4.90277767e+00,
          1.33522725e+00, 2.54861116e+00, 2.22159100e+00, 1.31944442e+00,
          6.47067785e-01, 3.92450184e-01, 4.43047851e-01, 6.24759853e-01,
          4.24903512e-01, 3.03178877e-01, 3.37147802e-01, 4.48683143e-01,
          4.52798903e-01, -2.02090964e-02, 1.43259838e-01,
          5.49345732e-01, 1.80543005e-01, 9.19174403e-02, 1.13668650e-01,
          2.01316550e-01 ]
      - [ 6.14204550e+00, 2.95138884e+00, 4.81818199e+00, 5.34722233e+00,
          1.89204550e+00, 1.31250000e+00, 1.71590912e+00, 1.73611116e+00,
          4.13579583e-01, 4.97307062e-01, 4.10630703e-01, 4.33524758e-01,
          1.91165954e-01, 2.19327942e-01, 1.90870196e-01, 1.94692299e-01,
          -1.19129904e-01, 3.27173084e-01, 3.19509134e-02,
          -7.49394074e-02, 3.65444198e-02, 4.81047444e-02,
          3.64314318e-02, 3.79050933e-02 ]
      - [ 3.38636374e+00, 4.01388884e+00, 3.18750000e+00, 3.48611116e+00,
          1.37500000e+00, 1.54166663e+00, 1.39204550e+00, 1.51388884e+00,
          4.92805749e-01, 4.48070645e-01, 4.76303488e-01, 4.27004784e-01,
          2.27095097e-01, 2.15557620e-01, 2.14483932e-01, 2.31730193e-01,
          6.92127496e-02, -3.47090997e-02, 2.82710314e-01,
          4.54005226e-02, 5.15721850e-02, 4.64650840e-02, 4.60033566e-02,
          5.36988825e-02 ]
      - [ 9.63636398e+00, 1.23680553e+01, 7.92613649e+00, 7.46527767e+00,
          2.48863626e+00, 2.93750000e+00, 2.16477275e+00, 2.21527767e+00,
          3.23882729e-01, 2.44995505e-01, 3.81224245e-01, 3.28622580e-01,
          1.62900805e-01, 1.56904489e-01, 1.58786237e-01, 1.68035462e-01,
          -1.60379410e-01, -3.91681850e-01, 1.28593817e-01,
          -5.22417855e-03, 2.65366733e-02, 2.46190205e-02,
          2.52130684e-02, 2.82359179e-02 ]
      - [ 5.80113649e+00, 2.45833325e+00, 7.44886351e+00, 9.76388931e+00,
          1.08522725e+00, 4.72222209e-01, 1.33522725e+00, 1.70833337e+00,
          7.91106582e-01, 8.97645712e-01, 7.60918677e-01, 7.04595029e-01,
          7.48664439e-01, 8.62118602e-01, 7.51365423e-01, 7.05809772e-01,
          3.07208151e-01, 6.05296195e-01, 3.20156887e-02,
          -1.75708160e-01, 5.60498476e-01, 7.43248463e-01,
          5.64549983e-01, 4.98167425e-01 ]
      - [ 2.14204550e+00, 1.44444442e+00, 2.81818175e+00, 3.44444442e+00,
          3.69318187e-01, 2.22222224e-01, 4.65909094e-01, 5.69444418e-01,
          9.32602286e-01, 9.66149211e-01, 9.20548081e-01, 9.02892113e-01,
          9.15152013e-01, 9.65415180e-01, 9.15293097e-01, 8.96627009e-01,
          3.84852141e-01, -1.73913036e-02, -4.00552824e-02,
          -4.93961386e-02, 8.37503254e-01, 9.32026446e-01,
          8.37761521e-01, 8.03939998e-01 ]
      - [ 6.88068199e+00, 8.73611069e+00, 7.37500000e+00, 4.,
          1.82386363e+00, 2.33333325e+00, 2.06818175e+00, 1.44444442e+00,
          4.80856031e-01, 3.52565289e-01, 3.89415473e-01, 4.90694642e-01,
          2.15647265e-01, 2.00909391e-01, 2.01484352e-01, 2.32042149e-01,
          6.05265200e-02, -2.34695137e-01, -9.46448445e-02,
          2.26138711e-01, 4.65037450e-02, 4.03645821e-02, 4.05959450e-02,
          5.38435578e-02 ]
      - [ 6.22159100e+00, 3.05555558e+00, 5.21590900e+00, 8.70833302e+00,
          2.01704550e+00, 1.31944442e+00, 1.85227275e+00, 2.41666675e+00,
          3.61163586e-01, 5.02840638e-01, 3.76433194e-01, 3.13423336e-01,
          1.82305813e-01, 2.13139012e-01, 1.82880417e-01, 1.85430974e-01,
          -5.72215812e-03, 5.19534111e-01, 1.92805752e-01,
          -4.09340650e-01, 3.32354084e-02, 4.54282425e-02,
          3.34452465e-02, 3.43846455e-02 ]
      - [ 9.20454502e+00, 8.86805534e+00, 4.31250000e+00, 6.97222233e+00,
          2.37500000e+00, 2.18750000e+00, 1.58522725e+00, 2.22222233e+00,
          3.49301636e-01, 3.87717158e-01, 4.47121710e-01, 3.01822513e-01,
          1.51503310e-01, 1.76844880e-01, 1.89384475e-01, 1.59192964e-01,
          -4.40342398e-03, -4.46074791e-02, 4.69516367e-01,
          2.16772303e-01, 2.29532532e-02, 3.12741138e-02, 3.58664766e-02,
          2.53423993e-02 ]
      - [ 8.21590900e+00, 7.38194466e+00, 2.09090900e+00, 7.02083349e+00,
          2.07954550e+00, 1.89583337e+00, 8.06818187e-01, 1.75694442e+00,
          4.66804743e-01, 5.02431035e-01, 7.15744555e-01, 5.47082007e-01,
          3.54169190e-01, 3.81660253e-01, 5.22001088e-01, 4.06235158e-01,
          4.04126495e-02, 1.33244812e-01, 7.38566756e-01, 2.08436295e-01,
          1.25435814e-01, 1.45664543e-01, 2.72485137e-01, 1.65027007e-01 ]
      - [ 1.02272730e+01, 1.82638884e+00, 9.73863602e+00, 1.40138893e+01,
          1.65909088e+00, 3.81944448e-01, 1.62500000e+00, 2.25000000e+00,
          7.23531008e-01, 9.04844761e-01, 7.20240533e-01, 6.28655016e-01,
          6.84653223e-01, 8.28297853e-01, 6.83921933e-01, 6.23628914e-01,
          1.79848298e-01, 8.24996829e-01, 1.77094474e-01,
          -1.08791210e-01, 4.68750000e-01, 6.86077356e-01,
          4.67749238e-01, 3.88913006e-01 ]
      - [ 5.49431801e+00, 7.47916651e+00, 4.01136351e+00, 1.25000000e+00,
          1.03977275e+00, 1.36805558e+00, 8.29545438e-01, 2.91666657e-01,
          8.03312540e-01, 7.52479553e-01, 8.24979722e-01, 9.28461969e-01,
          7.93880343e-01, 7.50176787e-01, 7.93229461e-01, 9.03218389e-01,
          4.87151183e-02, -1.43012971e-01, 4.03939337e-01,
          6.46355748e-01, 6.30245984e-01, 5.62765241e-01, 6.29212916e-01,
          8.15803409e-01 ]
      - [ 7.90340900e+00, 8.86805534e+00, 7.97159100e+00, 5.97916651e+00,
          2.18750000e+00, 2.21527767e+00, 2.09659100e+00, 1.86805558e+00,
          3.69154394e-01, 3.98052245e-01, 4.11852539e-01, 4.10599291e-01,
          2.06117690e-01, 1.93885610e-01, 1.94762915e-01, 2.20096171e-01,
          -6.00320846e-02, -1.10223599e-01, -4.47671628e-03,
          6.28252625e-02, 4.24845032e-02, 3.75916287e-02, 3.79325934e-02,
          4.84423228e-02 ]
      - [ 4.37500000e+00, 7.34027767e+00, 7.83522749e+00, 6.28472233e+00,
          1.56818187e+00, 2.20138884e+00, 2.25568175e+00, 1.96527779e+00,
          4.59581792e-01, 3.33527893e-01, 3.42207044e-01, 3.93220395e-01,
          1.76913604e-01, 1.57441452e-01, 1.56585380e-01, 1.65432349e-01,
          4.02210832e-01, 2.38540340e-02, 2.00459315e-03, 1.47162274e-01,
          3.12984250e-02, 2.47878078e-02, 2.45189816e-02, 2.73678619e-02 ]
      - [ 1.45340910e+01, 1.78194447e+01, 1.61704540e+01, 1.71111107e+01,
          2.81818175e+00, 3.41666675e+00, 3.15909100e+00, 3.23611116e+00,
          3.94152403e-01, 2.90211320e-01, 3.10767323e-01, 3.23600829e-01,
          2.24233940e-01, 2.11549252e-01, 2.05450967e-01, 1.99826315e-01,
          1.00203060e-01, -1.87420860e-01, -8.46459344e-02,
          -9.56048071e-02, 5.02808616e-02, 4.47530858e-02,
          4.22100984e-02, 3.99305560e-02 ]
      - [ 5.86363649e+00, 5.40972233e+00, 6.44886351e+00, 6.25000000e+00,
          1.87500000e+00, 1.84027779e+00, 1.94886363e+00, 2.08333325e+00,
          4.04486805e-01, 3.85705322e-01, 3.89610738e-01, 3.23620319e-01,
          1.61807165e-01, 1.71585411e-01, 1.64331302e-01, 1.59571186e-01,
          1.37123749e-01, 1.11712933e-01, 1.33600935e-01, 1.33214727e-01,
          2.61815600e-02, 2.94415504e-02, 2.70047784e-02, 2.54629627e-02 ]
      - [ 3.60227275e+00, 2.83333325e+00, 4.88636351e+00, 5.56944466e+00,
          1.45454550e+00, 1.25000000e+00, 1.77272725e+00, 1.84722221e+00,
          4.69291776e-01, 5.27450979e-01, 3.97017688e-01, 4.08898085e-01,
          2.13503346e-01, 2.36773983e-01, 2.07911074e-01, 2.08564684e-01,
          2.33247206e-01, 2.24805385e-01, -5.41564524e-02,
          -1.39227018e-01, 4.55836765e-02, 5.60619198e-02,
          4.32270132e-02, 4.34992276e-02 ]
      - [ 1.14545450e+01, 1.41597223e+01, 7.69318199e+00, 4.20138884e+00,
          2.37500000e+00, 2.86805558e+00, 1.73863637e+00, 1.17361116e+00,
          4.45125580e-01, 3.61952722e-01, 5.51449180e-01, 6.33131504e-01,
          2.56123364e-01, 2.57319540e-01, 2.86213666e-01, 2.98530340e-01,
          1.93468500e-02, -1.50535166e-01, 3.92577499e-01,
          6.11160815e-01, 6.55991733e-02, 6.62133470e-02, 8.19182619e-02,
          8.91203731e-02 ]
      - [ 6.96022749e+00, 1.69444447e+01, 1.60909100e+01, 1.05833330e+01,
          1.49431813e+00, 3.22222233e+00, 3.04545450e+00, 2.05555558e+00,
          6.23653948e-01, 3.37915361e-01, 3.69483531e-01, 5.37793636e-01,
          3.90022784e-01, 2.64618874e-01, 2.59970337e-01, 3.45621318e-01,
          5.52406907e-01, -3.60995270e-02, 7.86254276e-03,
          3.43229264e-01, 1.52117774e-01, 7.00231493e-02, 6.75845817e-02,
          1.19454086e-01 ]
      - [ 5.90909100e+00, 1.16666670e+01, 1.17329550e+01, 1.02013893e+01,
          1.13636363e+00, 2.13888884e+00, 2.09659100e+00, 1.75694442e+00,
          7.41389632e-01, 5.84212244e-01, 6.04756653e-01, 6.86073542e-01,
          6.58625424e-01, 5.69486797e-01, 5.92382371e-01, 6.74290895e-01,
          5.18062115e-01, -4.22195420e-02, -4.27392833e-02,
          1.61727384e-01, 4.33787435e-01, 3.24315190e-01, 3.50916833e-01,
          4.54668224e-01 ]
      - [ 3.10795450e+00, 1.73611104e-01, 2.96590900e+00, 4.12500000e+00,
          8.01136374e-01, 1.04166664e-01, 7.61363626e-01, 1.04166663e+00,
          7.88971066e-01, 9.54861104e-01, 7.99432278e-01, 7.33029127e-01,
          7.46991634e-01, 8.96452188e-01, 7.46970057e-01, 6.93801761e-01,
          1.87848777e-01, 9.42425311e-01, 1.76523313e-01,
          -1.34068727e-01, 5.57996511e-01, 8.03626537e-01,
          5.57964206e-01, 4.81360912e-01 ]
      - [ 6.58522749e+00, 6.44444466e+00, 3.90340900e+00, 4.52083349e+00,
          1.98295450e+00, 1.88888884e+00, 1.26704550e+00, 1.40972221e+00,
          3.99692655e-01, 4.28345412e-01, 5.86799800e-01, 5.56228578e-01,
          2.36154571e-01, 2.40863129e-01, 3.52639109e-01, 2.88466245e-01,
          -1.95437059e-01, -1.29125476e-01, 2.18750700e-01,
          1.46194518e-01, 5.57689816e-02, 5.80150448e-02, 1.24354340e-01,
          8.32127705e-02 ]
      - [ 1.33977270e+01, 7.02083349e+00, 8.49431801e+00, 1.65763893e+01,
          2.92045450e+00, 1.86805558e+00, 2.06250000e+00, 3.20138884e+00,
          2.94427425e-01, 4.29705232e-01, 4.37845290e-01, 3.22301060e-01,
          1.67445019e-01, 2.01986656e-01, 1.89639986e-01, 1.95865348e-01,
          -2.82416701e-01, 2.14907616e-01, 2.44757697e-01,
          -4.81231868e-01, 2.80378349e-02, 4.07986119e-02,
          3.59633267e-02, 3.83632332e-02 ]
      - [ 7.37500000e+00, 8.14583302e+00, 4.39204550e+00, 7.56944466e+00,
          1.28409088e+00, 1.39583337e+00, 8.57954562e-01, 1.34722221e+00,
          7.79929578e-01, 7.64411807e-01, 8.18306327e-01, 7.64875829e-01,
          7.79300272e-01, 7.64188707e-01, 7.59771883e-01, 7.65481293e-01,
          -1.25858754e-01, -1.35836840e-01, 5.37948728e-01,
          -1.36222154e-01, 6.07308865e-01, 5.83984375e-01,
          5.77253342e-01, 5.85961640e-01 ]
      - [ 9.32954502e+00, 1.48611107e+01, 1.04943180e+01, 1.84027779e+00,
          1.68181813e+00, 2.59722233e+00, 1.85795450e+00, 3.81944448e-01,
          6.70496941e-01, 5.39369226e-01, 6.53106809e-01, 8.96527767e-01,
          5.95805764e-01, 5.16719878e-01, 5.87003589e-01, 7.47697711e-01,
          3.28072459e-01, -3.99076715e-02, 2.54557937e-01,
          8.56994808e-01, 3.54984492e-01, 2.66999424e-01, 3.44573230e-01,
          5.59051871e-01 ]
      - [ 4.07386351e+00, 4.86111116e+00, 3.34659100e+00, 2.72222233e+00,
          9.48863626e-01, 1.12500000e+00, 7.78409064e-01, 6.25000000e-01,
          7.76465237e-01, 7.36799002e-01, 8.11841607e-01, 8.53717089e-01,
          7.54185140e-01, 7.14603245e-01, 7.69293845e-01, 8.41553807e-01,
          -7.01537877e-02, -1.49661258e-01, 3.26172382e-01,
          1.60374835e-01, 5.68795204e-01, 5.10657787e-01, 5.91813028e-01,
          7.08212793e-01 ]
      - [ 2.22727275e+00, 3.40277791e-01, 2.22727275e+00, 2.72222233e+00,
          3.18181813e-01, 4.86111119e-02, 3.18181813e-01, 3.88888896e-01,
          9.55454528e-01, 9.93194461e-01, 9.55454528e-01, 9.45555568e-01,
          9.55086410e-01, 9.93067682e-01, 9.55086410e-01, 9.45261061e-01,
          -2.32558139e-02, -3.48432059e-03, -2.32558139e-02,
          -2.85714287e-02, 9.12190080e-01, 9.86183465e-01,
          9.12190080e-01, 8.93518507e-01 ]
      - [ 1.04545450e+01, 1.31319447e+01, 1.17159090e+01, 4.21527767e+00,
          2.48863626e+00, 2.99305558e+00, 2.62500000e+00, 1.45138884e+00,
          3.68772000e-01, 2.74485558e-01, 3.69782507e-01, 5.05106628e-01,
          1.83100939e-01, 2.07811847e-01, 1.91334754e-01, 2.33130693e-01,
          6.15672618e-02, -1.70537949e-01, 2.63829040e-03,
          5.75176835e-01, 3.35259549e-02, 4.31857631e-02, 3.66089866e-02,
          5.43499216e-02 ]
      - [ 5.63068199e+00, 8.91666698e+00, 6.76704550e+00, 7.71527767e+00,
          1.52840912e+00, 2.29166675e+00, 1.75568187e+00, 1.95138884e+00,
          5.75164318e-01, 3.88887525e-01, 5.26522815e-01, 4.88043100e-01,
          4.18241262e-01, 2.69046813e-01, 3.44793200e-01, 3.69428784e-01,
          3.80130827e-01, -9.47805215e-03, 1.94415137e-01,
          1.71803296e-01, 1.74925745e-01, 7.23861903e-02, 1.18882358e-01,
          1.36477619e-01 ]
      - [ 3.62500000e+00, 4.81944466e+00, 3.56250000e+00, 1.77777779e+00,
          8.06818187e-01, 1.01388884e+00, 8.01136374e-01, 4.16666657e-01,
          8.09525549e-01, 7.72354960e-01, 8.08814049e-01, 8.99746895e-01,
          7.68842578e-01, 7.26499736e-01, 7.74834216e-01, 8.82313490e-01,
          2.68157870e-01, -7.82210901e-02, 1.24270402e-01,
          4.64419574e-01, 5.91118932e-01, 5.27801871e-01, 6.00368023e-01,
          7.78477073e-01 ]
      - [ 6.23295450e+00, 8.45138931e+00, 7.71590900e+00, 4.19444466e+00,
          1.78977275e+00, 2.38194442e+00, 2.27272725e+00, 1.50000000e+00,
          4.56998229e-01, 3.20626527e-01, 3.26188058e-01, 4.84022945e-01,
          1.89128608e-01, 1.80555552e-01, 1.63049370e-01, 1.84714392e-01,
          9.58995819e-02, -3.61302823e-01, -1.67225033e-01,
          3.52384925e-01, 3.57696265e-02, 3.26003097e-02, 2.65850984e-02,
          3.41194049e-02 ]
      - [ 2.77500000e+01, 2.36597214e+01, 5.12500000e+00, 2.49097214e+01,
          4.30681801e+00, 3.71527767e+00, 9.54545438e-01, 3.93750000e+00,
          3.26973170e-01, 4.01015520e-01, 7.82912016e-01, 3.62796545e-01,
          4.04966593e-01, 3.91730696e-01, 6.21243894e-01, 4.02538240e-01,
          -3.65580887e-01, -1.40801594e-01, 7.26862311e-01,
          -2.25383639e-01, 1.63997933e-01, 1.53452933e-01,
          3.85943949e-01, 1.62037030e-01 ]
      - [ 8.09090900e+00, 9.94444466e+00, 6.11931801e+00, 4.03472233e+00,
          1.69318187e+00, 2.02777767e+00, 1.33522725e+00, 9.23611104e-01,
          6.27061844e-01, 5.72781444e-01, 6.88946366e-01, 7.72158682e-01,
          5.84385455e-01, 5.32213628e-01, 6.12965226e-01, 7.10559547e-01,
          7.11574927e-02, -2.34292215e-03, 3.96507055e-01,
          5.40770710e-01, 3.41506332e-01, 2.83251345e-01, 3.75726372e-01,
          5.04894853e-01 ]
      - [ 5.82954550e+00, 5.52083349e+00, 4.57386351e+00, 4.84722233e+00,
          1.93181813e+00, 1.81250000e+00, 1.72159088e+00, 1.83333337e+00,
          3.72805417e-01, 4.11356807e-01, 4.02928323e-01, 3.63078177e-01,
          1.79495096e-01, 1.87178224e-01, 1.79089978e-01, 1.95557326e-01,
          -1.32805541e-01, -9.69352275e-02, 8.68044943e-02,
          -4.80480492e-02, 3.22184935e-02, 3.50356884e-02,
          3.20732184e-02, 3.82426679e-02 ]
      - [ 4.19886351e+00, 3.91666675e+00, 5.45454550e+00, 6.09027767e+00,
          1.60795450e+00, 1.58333337e+00, 1.92045450e+00, 2.00694442e+00,
          4.32592034e-01, 4.32579190e-01, 3.57992917e-01, 3.52063626e-01,
          1.91165954e-01, 1.86662227e-01, 1.83716998e-01, 1.82415634e-01,
          1.08414821e-01, 2.32638568e-01, -2.60894913e-02,
          -1.47285268e-01, 3.65444198e-02, 3.48427854e-02,
          3.37519385e-02, 3.32754627e-02 ]
      - [ 1.78636360e+01, 9.34027767e+00, 5.69886351e+00, 1.78472214e+01,
          2.89772725e+00, 1.56250000e+00, 1.07386363e+00, 2.93055558e+00,
          5.20221114e-01, 7.14601219e-01, 7.59757400e-01, 5.10481060e-01,
          5.01048088e-01, 5.79101741e-01, 5.94164431e-01, 4.94593650e-01,
          -4.39664945e-02, 4.64693636e-01, 6.78595603e-01,
          -5.43589741e-02, 2.51049191e-01, 3.35358799e-01,
          3.53031367e-01, 2.44622871e-01 ]
      - [ 1.11590910e+01, 3.48611116e+00, 8.43181801e+00, 1.50972223e+01,
          1.88636363e+00, 6.11111104e-01, 1.48863637e+00, 2.52777767e+00,
          6.68609142e-01, 8.70187700e-01, 7.11349487e-01, 5.75100303e-01,
          6.25941932e-01, 7.67541766e-01, 6.39008820e-01, 5.60890198e-01,
          1.67924821e-01, 7.15882540e-01, 4.09652293e-01,
          -7.95108899e-02, 3.91803324e-01, 5.89120388e-01,
          4.08332258e-01, 3.14597815e-01 ]
      - [ 3.27272725e+00, 4.50000000e+00, 3.54545450e+00, 5.41666687e-01,
          6.47727251e-01, 8.75000000e-01, 6.93181813e-01, 1.11111112e-01,
          8.68119001e-01, 8.29196751e-01, 8.62874269e-01, 9.76557732e-01,
          8.53748739e-01, 8.22352409e-01, 8.53975594e-01, 9.58484292e-01,
          1.73708916e-01, -9.29791257e-02, 1.65484641e-02,
          7.18015671e-01, 7.28886902e-01, 6.76263511e-01, 7.29274273e-01,
          9.18692112e-01 ]
      - [ 7.68181801e+00, 5.33333349e+00, 6.59659100e+00, 4.09027767e+00,
          2.13636374e+00, 1.86111116e+00, 2.07386374e+00, 1.68750000e+00,
          3.69833350e-01, 3.79284382e-01, 3.56724709e-01, 3.84499133e-01,
          1.74571499e-01, 1.60700500e-01, 1.72384903e-01, 1.67388484e-01,
          -2.27480471e-01, 2.13472918e-01, -9.07489508e-02,
          3.60629588e-01, 3.04752067e-02, 2.58246530e-02, 2.97165550e-02,
          2.80189048e-02 ]
      - [ 1.07329550e+01, 1.11041670e+01, 1.42954550e+01, 1.37083330e+01,
          2.51704550e+00, 2.59027767e+00, 2.97727275e+00, 2.84722233e+00,
          3.50715458e-01, 3.25191140e-01, 3.07561845e-01, 3.32106829e-01,
          1.97601512e-01, 1.98676661e-01, 1.87715098e-01, 2.06706613e-01,
          -5.96411489e-02, -4.08382202e-03, -3.33783120e-01,
          -2.28896290e-01, 3.90463583e-02, 3.94724160e-02,
          3.52369584e-02, 4.27276231e-02 ]
      - [ 1.02954550e+01, 9.50000000e+00, 1.10454550e+01, 1.06111107e+01,
          2.47727275e+00, 2.45833325e+00, 2.70454550e+00, 2.66666675e+00,
          3.50808859e-01, 3.38999838e-01, 2.79436320e-01, 2.83141822e-01,
          1.56636924e-01, 1.61374301e-01, 1.72384903e-01, 1.55282497e-01,
          -1.42496854e-01, -5.07921278e-02, -1.47949323e-01,
          -8.76412466e-02, 2.45351233e-02, 2.60416660e-02,
          2.97165550e-02, 2.41126548e-02 ]
      - [ 2., 5.05555534e+00, 5.15909100e+00, 4.85416651e+00,
          1.04545450e+00, 1.93055558e+00, 1.89772725e+00, 1.70138884e+00,
          5.69518745e-01, 3.30744088e-01, 3.53948981e-01, 4.35096145e-01,
          2.15460062e-01, 2.00248212e-01, 2.00077459e-01, 2.09890023e-01,
          5.52344084e-01, -9.36632827e-02, -1.73557356e-01,
          -1.94368467e-01, 4.64230366e-02, 4.00993451e-02,
          4.00309935e-02, 4.40538190e-02 ]
      - [ 2.39204550e+00, 5.75000000e+00, 5.19318199e+00, 4.51388884e+00,
          1.13068187e+00, 1.86111116e+00, 1.75000000e+00, 1.59722221e+00,
          5.53360224e-01, 4.06697661e-01, 4.28891033e-01, 4.54956830e-01,
          2.24053904e-01, 2.18446657e-01, 2.05215126e-01, 2.05243289e-01,
          4.45586324e-01, -3.62122148e-01, -2.04378366e-01,
          1.10726058e-02, 5.02001531e-02, 4.77189422e-02, 4.21132483e-02,
          4.21248078e-02 ]
      - [ 1.16761360e+01, 1.22569447e+01, 1.11761360e+01, 8.43055534e+00,
          2.59659100e+00, 2.92361116e+00, 2.46022725e+00, 2.23611116e+00,
          3.54488999e-01, 2.64637709e-01, 3.85238051e-01, 3.58668059e-01,
          1.62503973e-01, 1.63157508e-01, 1.77778274e-01, 1.74234986e-01,
          -6.78618401e-02, -3.03575128e-01, -2.98322104e-02,
          1.09499164e-01, 2.64075417e-02, 2.66203713e-02, 3.16051133e-02,
          3.03578321e-02 ]
      - [ 4.99431801e+00, 2.38194442e+00, 3.50568175e+00, 6.10416651e+00,
          8.69318187e-01, 4.23611104e-01, 6.30681813e-01, 1.06250000e+00,
          8.51396918e-01, 9.26103294e-01, 8.85240734e-01, 8.18374038e-01,
          8.49417567e-01, 9.24302697e-01, 8.48305166e-01, 8.16895187e-01,
          -8.18499401e-02, -3.91424634e-02, 3.78634542e-01,
          -1.01892114e-01, 7.21510172e-01, 8.54335427e-01,
          7.19621658e-01, 6.67317688e-01 ]
      - [ 7.85795450e+00, 2.38888884e+00, 1.01306820e+01, 1.49930553e+01,
          1.34659088e+00, 4.86111104e-01, 1.69886363e+00, 2.47916675e+00,
          7.56702662e-01, 8.86786044e-01, 7.06672430e-01, 5.91518581e-01,
          6.67571306e-01, 7.94327259e-01, 6.48424685e-01, 6.01005435e-01,
          3.96206945e-01, 7.83145845e-01, 2.29721487e-01,
          -1.51639417e-01, 4.45651472e-01, 6.30955815e-01,
          4.20454532e-01, 3.61207575e-01 ]
      - [ 3.49431825e+00, 4.91666651e+00, 4.02272749e+00, 1.34027779e+00,
          5.85227251e-01, 8.19444418e-01, 6.70454562e-01, 2.15277776e-01,
          8.99586320e-01, 8.65208089e-01, 8.89715731e-01, 9.66167390e-01,
          8.87501121e-01, 8.63264561e-01, 8.87764752e-01, 9.58572328e-01,
          2.37829670e-01, -7.32919276e-02, -5.91775328e-02,
          2.53615499e-01, 7.87658215e-01, 7.45225668e-01, 7.88126290e-01,
          9.18860912e-01 ]
      - [ 7.61931801e+00, 1.16250000e+01, 8.25568199e+00, 3.36111116e+00,
          2.00568175e+00, 2.76388884e+00, 2.09659100e+00, 1.11111116e+00,
          4.42610472e-01, 3.10611576e-01, 4.30834770e-01, 6.26655757e-01,
          2.16916010e-01, 2.26893187e-01, 2.21116915e-01, 2.84722209e-01,
          2.49655455e-01, -1.34242401e-01, 1.98645025e-01,
          6.23016238e-01, 4.70525585e-02, 5.14805168e-02, 4.88926917e-02,
          8.10667425e-02 ]
      - [ 5.50568199e+00, 4.92361116e+00, 4.23295450e+00, 4.34722233e+00,
          1.89204550e+00, 1.72916663e+00, 1.64204550e+00, 1.66666663e+00,
          3.71791929e-01, 4.10261631e-01, 4.13220376e-01, 4.16283309e-01,
          1.88915119e-01, 2.00067505e-01, 1.99996769e-01, 2.08391190e-01,
          -7.67516345e-02, -2.43249070e-02, 8.26374888e-02,
          -3.87407541e-02, 3.56889218e-02, 4.00270075e-02,
          3.99987102e-02, 4.34268899e-02 ]
      - [ 9.51704502e+00, 1.09513893e+01, 8.75568199e+00, 8.13194466e+00,
          1.59659088e+00, 1.85416663e+00, 1.48295450e+00, 1.27083337e+00,
          7.12170005e-01, 6.64504051e-01, 7.35573947e-01, 7.96314895e-01,
          6.90662324e-01, 6.43945098e-01, 7.15818882e-01, 7.90066004e-01,
          1.67286210e-02, -1.02029227e-01, 2.25476652e-01,
          1.29149958e-01, 4.77014452e-01, 4.14665312e-01, 5.12396693e-01,
          6.24204278e-01 ]
      - [ 9.22727299e+00, 5.61805534e+00, 6.50000000e+00, 8.39583302e+00,
          2.36363626e+00, 1.71527779e+00, 1.88636363e+00, 2.25694442e+00,
          3.60928208e-01, 4.56850290e-01, 4.25771236e-01, 3.69296253e-01,
          1.87456951e-01, 2.37333432e-01, 2.24161953e-01, 1.99343055e-01,
          6.71966672e-02, 3.43386710e-01, 2.34456748e-01, 5.41730598e-02,
          3.51401083e-02, 5.63271604e-02, 5.02485782e-02, 3.97376530e-02 ]
      - [ 3.69318175e+00, 5.93055534e+00, 5.81250000e+00, 4.42361116e+00,
          1.40909088e+00, 1.86111116e+00, 1.82386363e+00, 1.53472221e+00,
          4.98004228e-01, 4.24993724e-01, 4.34391707e-01, 4.80570406e-01,
          2.23549038e-01, 2.28112057e-01, 2.22535864e-01, 2.67563969e-01,
          4.42190677e-01, -4.74422090e-02, -6.64360598e-02,
          7.91424662e-02, 4.99741733e-02, 5.20351082e-02, 4.95222099e-02,
          7.15904683e-02 ]
      - [ 5.39772749e+00, 5.43750000e+00, 2.76704550e+00, 4.56250000e+00,
          1.80681813e+00, 1.82638884e+00, 1.22159088e+00, 1.63194442e+00,
          4.14668500e-01, 4.12283182e-01, 5.32890260e-01, 4.48312581e-01,
          2.35264331e-01, 2.34985054e-01, 2.63056517e-01, 2.53258079e-01,
          -2.03639716e-01, -2.68593997e-01, 3.90052199e-01,
          -3.42441425e-02, 5.53493015e-02, 5.52179776e-02,
          6.91987351e-02, 6.41396642e-02 ]
      - [ 3.67045450e+00, 6.32638884e+00, 6.05113649e+00, 7.16666651e+00,
          1.36363637e+00, 1.81250000e+00, 1.66477275e+00, 1.90277779e+00,
          5.10478854e-01, 4.44977045e-01, 4.94860917e-01, 4.51103508e-01,
          2.61733919e-01, 2.37891570e-01, 2.49838531e-01, 2.58628130e-01,
          5.44571102e-01, -2.86077205e-02, 9.68814343e-02,
          -1.02973267e-01, 6.85046464e-02, 5.65924011e-02,
          6.24192916e-02, 6.68885037e-02 ]
      - [ 1.89204550e+00, 6.63888884e+00, 6.05113649e+00, 4.27777767e+00,
          9.48863626e-01, 1.93055558e+00, 1.63068187e+00, 1.11111116e+00,
          6.13037348e-01, 3.83702785e-01, 4.96669143e-01, 6.66367948e-01,
          3.34190428e-01, 3.39284271e-01, 3.38127851e-01, 4.30331469e-01,
          7.12558627e-01, -2.24267647e-01, -1.11272506e-01,
          1.27204031e-01, 1.11683242e-01, 1.15113810e-01, 1.14330448e-01,
          1.85185179e-01 ]
      - [ 7.69886351e+00, 1.14166670e+01, 1.02329550e+01, 8.93750000e+00,
          1.94886363e+00, 2.70833325e+00, 2.42613626e+00, 2.32638884e+00,
          4.56464142e-01, 2.99168617e-01, 3.65817964e-01, 3.51155221e-01,
          1.90700978e-01, 1.75132230e-01, 1.69790372e-01, 1.71374485e-01,
          3.12086523e-01, -2.01864213e-01, -3.48396762e-03,
          4.50136177e-02, 3.63668650e-02, 3.06712966e-02, 2.88287699e-02,
          2.93692127e-02 ]
      - [ 1.33522730e+01, 7.86111116e+00, 9.52840900e+00, 1.04027777e+01,
          3.02272725e+00, 2.29166675e+00, 2.16477275e+00, 2.52777767e+00,
          2.46250764e-01, 3.24159920e-01, 4.38773543e-01, 3.34668547e-01,
          2.01444298e-01, 2.27317885e-01, 2.13314250e-01, 2.21515805e-01,
          -2.20382988e-01, 2.05544353e-01, 4.34891097e-02,
          -8.45030770e-02, 4.05798033e-02, 5.16734198e-02,
          4.55029719e-02, 4.90692519e-02 ]
      - [ 8.32954502e+00, 1.29166670e+01, 8.44886398e+00, 1.17777777e+01,
          2.22727275e+00, 2.95833325e+00, 2.01704550e+00, 2.50000000e+00,
          3.75266641e-01, 2.71129787e-01, 4.56809372e-01, 4.01506126e-01,
          2.11833552e-01, 1.97764322e-01, 2.30656624e-01, 2.27105632e-01,
          2.37379119e-01, -2.84727544e-01, 1.46125853e-01,
          -6.68996572e-02, 4.48734500e-02, 3.91107239e-02,
          5.32024801e-02, 5.15769683e-02 ]
      - [ 6.87500000e+00, 4.77777767e+00, 4.26704550e+00, 6.43750000e+00,
          2.17045450e+00, 1.70833337e+00, 1.59659088e+00, 2.06250000e+00,
          3.30515891e-01, 4.19234514e-01, 4.35690522e-01, 3.52653533e-01,
          1.74479008e-01, 1.79080516e-01, 1.77642018e-01, 1.65505216e-01,
          -2.90744901e-01, 9.57778841e-02, 1.95165247e-01,
          -8.69694427e-02, 3.04429233e-02, 3.20698321e-02,
          3.15566882e-02, 2.73919757e-02 ]
      - [ 7.19318199e+00, 2.59027767e+00, 7.45454550e+00, 7.40972233e+00,
          1.76136363e+00, 1.00694442e+00, 1.95454550e+00, 1.95138884e+00,
          5.14111757e-01, 6.30035400e-01, 4.24148768e-01, 4.25389796e-01,
          2.75172502e-01, 3.21325988e-01, 2.51544803e-01, 2.61502355e-01,
          -4.46426049e-02, 3.48941505e-01, -1.37015849e-01,
          -7.59098753e-02, 7.57199153e-02, 1.03250384e-01,
          6.32747933e-02, 6.83834851e-02 ]
      - [ 9.85227299e+00, 9.52777767e+00, 1.09204550e+01, 4.79861116e+00,
          2.60227275e+00, 2.61111116e+00, 2.73863626e+00, 1.60416663e+00,
          2.86983043e-01, 2.65727311e-01, 2.77041942e-01, 4.56441045e-01,
          1.43852144e-01, 1.45585105e-01, 1.44691274e-01, 1.64041832e-01,
          -7.81144053e-02, -1.84757505e-02, -1.51595622e-01,
          4.22802180e-01, 2.06934400e-02, 2.11950224e-02, 2.09355634e-02,
          2.69097220e-02 ]
      - [ 5.44318199e+00, 6.65277767e+00, 4.96590900e+00, 1.70138884e+00,
          8.18181813e-01, 1., 7.50000000e-01, 2.43055552e-01,
          8.78050148e-01, 8.50950181e-01, 8.82807136e-01, 9.65972245e-01,
          8.77486885e-01, 8.51055741e-01, 8.77450109e-01, 9.58672941e-01,
          -6.55207261e-02, -8.12641084e-02, 1.83142871e-01,
          2.67920703e-01, 7.69983232e-01, 7.24295914e-01, 7.69918621e-01,
          9.19053793e-01 ]
      - [ 3.40340900e+00, 7.01388896e-01, 3.93181825e+00, 4.81250000e+00,
          1.09659088e+00, 5.34722209e-01, 1.21590912e+00, 1.29861116e+00,
          6.20229065e-01, 7.49305546e-01, 5.85129440e-01, 5.92759013e-01,
          3.73425573e-01, 4.35566723e-01, 3.71040553e-01, 3.71154398e-01,
          1.70069471e-01, 5.35980344e-01, 3.59065272e-02,
          -1.28339799e-02, 1.39446676e-01, 1.89718366e-01,
          1.37671098e-01, 1.37755588e-01 ]
      - [ 2.85227275e+00, 4.53472233e+00, 4.57386351e+00, 2.90277767e+00,
          1.28409088e+00, 1.57638884e+00, 1.64204550e+00, 1.26388884e+00,
          5.08139670e-01, 4.65988517e-01, 4.36026156e-01, 5.21612644e-01,
          2.51384348e-01, 2.26680532e-01, 2.26311892e-01, 2.52638459e-01,
          2.79864371e-01, -8.02874416e-02, -9.89724975e-03,
          2.92258501e-01, 6.31940886e-02, 5.13840653e-02, 5.12170717e-02,
          6.38261959e-02 ]
      - [ 3.63636374e+00, 4.33333349e+00, 5.15340900e+00, 4.81250000e+00,
          1.17045450e+00, 1.38888884e+00, 1.53977275e+00, 1.38194442e+00,
          6.02044702e-01, 5.35468817e-01, 4.97777760e-01, 5.60863674e-01,
          3.22089434e-01, 3.23830098e-01, 2.90023297e-01, 3.16182017e-01,
          2.12880149e-01, -3.37068327e-02, -1.57294527e-01,
          3.83857451e-02, 1.03741609e-01, 1.04865931e-01, 8.41135085e-02,
          9.99710634e-02 ]
      - [ 6.42045450e+00, 7.79166651e+00, 5.71590900e+00, 3.70138884e+00,
          1.73863637e+00, 2., 1.51136363e+00, 1.25694442e+00,
          4.82629508e-01, 4.22057897e-01, 5.36412954e-01, 5.63249767e-01,
          2.73348004e-01, 2.58254915e-01, 2.99119532e-01, 3.11959416e-01,
          -4.33103926e-02, -2.21058354e-01, -1.93558782e-02,
          1.22949556e-01, 7.47191384e-02, 6.66956007e-02, 8.94724950e-02,
          9.73186716e-02 ]
      - [ 8.26136398e+00, 7.63194466e+00, 7.73863649e+00, 7.30555534e+00,
          1.88636363e+00, 1.79861116e+00, 1.81818187e+00, 1.65277779e+00,
          5.04703045e-01, 5.07975638e-01, 5.03612936e-01, 5.74361324e-01,
          3.26395601e-01, 3.41762632e-01, 3.36524844e-01, 3.54472905e-01,
          8.78033489e-02, 8.13570470e-02, -5.34475930e-02,
          7.66417608e-02, 1.06534094e-01, 1.16801694e-01, 1.13248967e-01,
          1.25651047e-01 ]
      - [ 1.88068187e+00, 1.09722221e+00, 1.86363637e+00, 1.88888884e+00,
          9.94318187e-01, 7.50000000e-01, 1.04545450e+00, 1.04166663e+00,
          5.85646331e-01, 6.59722209e-01, 5.56684494e-01, 5.60947716e-01,
          3.34455967e-01, 3.63705963e-01, 3.41429532e-01, 3.33694816e-01,
          -2.87581123e-02, 2.86681712e-01, 1.02822334e-01,
          3.20659648e-03, 1.11860797e-01, 1.32282019e-01, 1.16574124e-01,
          1.11352235e-01 ]
      - [ 1.17159090e+01, 1.25694447e+01, 1.17272730e+01, 6.42361116e+00,
          2.46590900e+00, 2.87500000e+00, 2.63636374e+00, 1.68750000e+00,
          4.11496580e-01, 2.84526497e-01, 3.41505051e-01, 5.21211028e-01,
          2.18915969e-01, 1.75544783e-01, 1.90362111e-01, 2.43105158e-01,
          6.43077046e-02, -6.82755262e-02, 6.03767149e-02,
          4.69507635e-01, 4.79241982e-02, 3.08159720e-02, 3.62377316e-02,
          5.91001175e-02 ]
      - [ 7.94886351e+00, 8.13194466e+00, 7.57386351e+00, 9.59027767e+00,
          2.00568175e+00, 2.21527767e+00, 2.21022725e+00, 2.38194442e+00,
          4.35533762e-01, 3.69187772e-01, 3.42843950e-01, 3.49170953e-01,
          1.91376925e-01, 1.68751433e-01, 1.62255451e-01, 1.67820081e-01,
          1.66200191e-01, 3.14281546e-02, 1.56606629e-01,
          -6.88193813e-02, 3.66251282e-02, 2.84770448e-02,
          2.63268333e-02, 2.81635802e-02 ]
      - [ 1.27556820e+01, 1.16944447e+01, 1.07840910e+01, 5.95138884e+00,
          2.77840900e+00, 2.83333325e+00, 2.53409100e+00, 1.82638884e+00,
          3.32257718e-01, 2.81875640e-01, 3.37605774e-01, 4.28778052e-01,
          1.59243032e-01, 1.57364845e-01, 1.54143870e-01, 1.67244375e-01,
          -2.04386294e-01, -6.99234083e-02, -5.58575876e-02,
          3.61953914e-01, 2.53583416e-02, 2.47636959e-02, 2.37603299e-02,
          2.79706791e-02 ]
      - [ 6.76704550e+00, 9.09027767e+00, 7.02272749e+00, 7.08333313e-01,
          1.08522725e+00, 1.45138884e+00, 1.12500000e+00, 1.25000000e-01,
          8.20348024e-01, 7.70363748e-01, 8.16807806e-01, 9.72500026e-01,
          8.10391426e-01, 7.70019591e-01, 8.10431242e-01, 9.31229055e-01,
          1.49808452e-01, -1.31051779e-01, 7.33053908e-02,
          8.68948400e-01, 6.56734228e-01, 5.92930198e-01, 6.56798840e-01,
          8.67187500e-01 ]
      - [ 5.41477251e+00, 2.21527767e+00, 7.24431801e+00, 9.10416698e+00,
          8.80681813e-01, 3.95833343e-01, 1.14204550e+00, 1.43750000e+00,
          8.52952898e-01, 9.26768601e-01, 8.22811604e-01, 7.76679635e-01,
          8.15266669e-01, 9.10649419e-01, 8.16898465e-01, 7.78258145e-01,
          3.30019265e-01, 4.39938068e-01, -4.67028171e-02,
          -1.28014848e-01, 6.64659739e-01, 8.29282403e-01,
          6.67323112e-01, 6.05685771e-01 ]
      - [ 6.65340900e+00, 5.44444466e+00, 1.17727270e+01, 1.58333330e+01,
          1.43750000e+00, 1.33333337e+00, 2.27272725e+00, 2.81944442e+00,
          6.31836355e-01, 6.10286415e-01, 4.96362686e-01, 4.41656262e-01,
          3.24834079e-01, 3.24388087e-01, 2.92765290e-01, 3.01344097e-01,
          5.64385414e-01, 5.35235286e-01, 1.15247443e-01,
          -1.28837049e-01, 1.05517171e-01, 1.05227627e-01,
          8.57115164e-02, 9.08082575e-02 ]
      - [ 3.36363626e+00, 2.20833325e+00, 3.25000000e+00, 3.97916675e+00,
          1.17045450e+00, 9.72222209e-01, 1.14772725e+00, 1.25694442e+00,
          5.80725670e-01, 6.18096173e-01, 5.93110859e-01, 5.68442047e-01,
          3.57480735e-01, 3.70991945e-01, 3.52593333e-01, 3.42889637e-01,
          -9.48447958e-02, -4.39540409e-02, -1.99060445e-03,
          -1.26359120e-01, 1.27792478e-01, 1.37635037e-01,
          1.24322057e-01, 1.17573306e-01 ]
      - [ 2.14204550e+00, 2.61805558e+00, 2.14204550e+00, 0.,
          3.46590906e-01, 4.23611104e-01, 3.46590906e-01, 0.,
          9.44727600e-01, 9.32444870e-01, 9.44727600e-01, 1.,
          9.43506956e-01, 9.31047738e-01, 9.43506956e-01, 1.,
          -2.88487636e-02, -3.54871005e-02, -2.88487636e-02, 1.,
          8.90205324e-01, 8.66849899e-01, 8.90205324e-01, 1. ]
      - [ 9.03977299e+00, 6.50000000e+00, 1.45000000e+01, 1.89097214e+01,
          1.82386363e+00, 1.48611116e+00, 2.88636374e+00, 3.61805558e+00,
          5.79494059e-01, 6.17718577e-01, 3.86771977e-01, 2.74515182e-01,
          3.97504002e-01, 4.43820089e-01, 3.26395601e-01, 2.76079893e-01,
          3.19754303e-01, 5.74405730e-01, 1.69448499e-02,
          -2.80911535e-01, 1.58009425e-01, 1.96976274e-01,
          1.06534094e-01, 7.62201026e-02 ]
      - [ 3.65909100e+00, 9.74305534e+00, 1.00795450e+01, 9.40972233e+00,
          1.27272725e+00, 2.53472233e+00, 2.56818175e+00, 2.38194442e+00,
          5.61974525e-01, 2.93515623e-01, 3.03859353e-01, 3.51124585e-01,
          2.28229523e-01, 1.66955769e-01, 1.72618836e-01, 1.84060529e-01,
          6.55143440e-01, -1.59267947e-01, -7.58924857e-02,
          -9.56904069e-02, 5.20887151e-02, 2.78742276e-02,
          2.97972616e-02, 3.38782780e-02 ]
      - [ 9.84659100e+00, 1.92500000e+01, 1.68352280e+01, 8.74305534e+00,
          2.02840900e+00, 3.68055558e+00, 3.19886374e+00, 1.86805558e+00,
          5.17745852e-01, 2.38609925e-01, 3.35448563e-01, 5.30898750e-01,
          3.01752150e-01, 2.11777091e-01, 2.32573137e-01, 2.77343422e-01,
          3.31468076e-01, -3.16551894e-01, -1.24799542e-01,
          4.18385267e-01, 9.10543650e-02, 4.48495373e-02, 5.40902652e-02,
          7.69193694e-02 ]
      - [ 5.78977251e+00, 1.15069447e+01, 1.24943180e+01, 1.00555553e+01,
          1.10795450e+00, 1.96527779e+00, 2.06250000e+00, 1.65277779e+00,
          7.68248439e-01, 6.35981321e-01, 6.35702074e-01, 7.17240572e-01,
          6.90860987e-01, 6.11505568e-01, 6.18927121e-01, 6.88971460e-01,
          5.35800934e-01, -8.52551684e-02, -1.19525835e-01,
          1.21825486e-01, 4.77288872e-01, 3.73939037e-01, 3.83070767e-01,
          4.74681705e-01 ]
      - [ 2.43750000e+00, 3.22222233e+00, 2.63636374e+00, 6.80555582e-01,
          3.57954532e-01, 4.72222209e-01, 3.86363626e-01, 9.72222239e-02,
          9.47085381e-01, 9.32042062e-01, 9.44398046e-01, 9.86388862e-01,
          9.43746388e-01, 9.31436121e-01, 9.43763494e-01, 9.86160040e-01,
          1.36855468e-01, -3.58427390e-02, -2.91360021e-02,
          -6.99300691e-03, 8.90657306e-01, 8.67573321e-01,
          8.90689552e-01, 9.72511590e-01 ]
      - [ 3.92045450e+00, 3.90277767e+00, 6.11363649e+00, 7.13194466e+00,
          6.36363626e-01, 6.11111104e-01, 9.77272749e-01, 1.14583337e+00,
          8.87131453e-01, 9.05302048e-01, 8.45249474e-01, 8.17666054e-01,
          8.53777111e-01, 9.03765500e-01, 8.43515635e-01, 8.16186428e-01,
          4.61912006e-01, -5.02491705e-02, -8.47271234e-02,
          -1.01377390e-01, 7.28935301e-01, 8.16792071e-01,
          7.11518586e-01, 6.66160285e-01 ]
      - [ 4.82386351e+00, 9.52777767e+00, 7.89204550e+00, 4.25694466e+00,
          1.25568187e+00, 2.38888884e+00, 2.02840900e+00, 1.14583337e+00,
          6.48186386e-01, 3.86046916e-01, 4.64033753e-01, 6.69071674e-01,
          4.11137551e-01, 2.84595162e-01, 3.18308622e-01, 4.42132652e-01,
          4.64329302e-01, 2.46060267e-02, 1.66765228e-01, 5.53341508e-01,
          1.69034094e-01, 8.09944049e-02, 1.01320378e-01, 1.95481285e-01 ]
      - [ 7.26704550e+00, 2.72222233e+00, 9.39204502e+00, 1.22638893e+01,
          1.27840912e+00, 4.72222209e-01, 1.61931813e+00, 2.05555558e+00,
          7.70326257e-01, 9.11501527e-01, 7.23281741e-01, 6.62632823e-01,
          7.14893758e-01, 8.36683095e-01, 7.20482767e-01, 6.78177536e-01,
          3.34978878e-01, 6.60246551e-01, -7.00753042e-03,
          -2.08117962e-01, 5.11073112e-01, 7.00038552e-01,
          5.19095421e-01, 4.59924757e-01 ]
      - [ 1.18522730e+01, 6.47916651e+00, 1.99886360e+01, 2.67708340e+01,
          2.36363626e+00, 1.46527779e+00, 3.45454550e+00, 4.59027767e+00,
          4.92383212e-01, 6.20216727e-01, 3.76030415e-01, 2.05003411e-01,
          3.75494689e-01, 4.11513269e-01, 3.31279725e-01, 3.44118059e-01,
          2.73952663e-01, 6.24277949e-01, -1.33114949e-01,
          -5.19380212e-01, 1.40996262e-01, 1.69343174e-01,
          1.09746255e-01, 1.18417248e-01 ]
      - [ 6.89772749e+00, 1.04861107e+01, 6.59659100e+00, 8.61111104e-01,
          1.28409088e+00, 1.88888884e+00, 1.21022725e+00, 2.08333328e-01,
          7.54508317e-01, 6.64034069e-01, 7.77146995e-01, 9.40840840e-01,
          7.12813497e-01, 6.58240318e-01, 7.13096499e-01, 8.56182694e-01,
          2.49669895e-01, -1.07590742e-01, 2.71153957e-01,
          8.77463639e-01, 5.08103073e-01, 4.33280289e-01, 5.08506596e-01,
          7.33048797e-01 ]
      - [ 5.56818199e+00, 9.64583302e+00, 7.72159100e+00, 4.09722233e+00,
          1.59090912e+00, 2.25694442e+00, 2.01704550e+00, 1.30555558e+00,
          5.25103092e-01, 4.16526288e-01, 4.21229303e-01, 5.68728387e-01,
          2.54891455e-01, 2.58721322e-01, 2.51030922e-01, 3.12268436e-01,
          2.70333618e-01, -2.64551461e-01, -1.36852011e-01,
          5.84271662e-02, 6.49696514e-02, 6.69367313e-02, 6.30165264e-02,
          9.75115746e-02 ]
      - [ 3.90340900e+00, 3.34027767e+00, 3.57386374e+00, 3.69444442e+00,
          1.55113637e+00, 1.36805558e+00, 1.42613637e+00, 1.51388884e+00,
          4.40864682e-01, 4.92266834e-01, 4.84211743e-01, 4.46857721e-01,
          2.30971321e-01, 2.47040749e-01, 2.30376527e-01, 2.67022699e-01,
          -2.65614446e-02, 4.93484028e-02, 4.94532622e-02,
          -9.46814865e-02, 5.33477515e-02, 6.10291287e-02,
          5.30733466e-02, 7.13011175e-02 ]
      - [ 8.30681801e+00, 7.88194466e+00, 5.55113649e+00, 7.61805534e+00,
          2.46590900e+00, 2.13194442e+00, 1.91477275e+00, 2.34027767e+00,
          2.70491540e-01, 3.81701529e-01, 3.61615390e-01, 2.97978669e-01,
          1.52353272e-01, 1.65505216e-01, 1.60051882e-01, 1.63157508e-01,
          -4.89172973e-02, -2.12223548e-02, 2.63069689e-01,
          3.51537801e-02, 2.32115183e-02, 2.73919757e-02, 2.56166067e-02,
          2.66203713e-02 ]
      - [ 2.78409100e+00, 5.10416651e+00, 4.17613649e+00, 2.38194442e+00,
          3.97727281e-01, 7.29166687e-01, 5.96590936e-01, 3.40277791e-01,
          9.44318175e-01, 8.97916675e-01, 9.16477263e-01, 9.52361107e-01,
          9.16095197e-01, 8.98856342e-01, 9.16755676e-01, 9.52009618e-01,
          4.69879508e-01, -5.49450554e-02, -4.45103869e-02,
          -2.49110311e-02, 8.39230359e-01, 8.07942688e-01,
          8.40440989e-01, 9.06322360e-01 ]
      - [ 8.94318199e+00, 6.66666651e+00, 2.39772725e+00, 7.14583349e+00,
          2.29545450e+00, 1.87500000e+00, 9.20454562e-01, 1.90972221e+00,
          3.99564594e-01, 4.74245846e-01, 6.72932267e-01, 4.76081550e-01,
          2.51641035e-01, 2.92286038e-01, 4.44345802e-01, 2.83406526e-01,
          9.04304069e-03, 2.36344352e-01, 7.22017229e-01, 2.33850479e-01,
          6.33232147e-02, 8.54311362e-02, 1.97443187e-01, 8.03192481e-02 ]
      - [ 7.04545450e+00, 5.11805534e+00, 8.53409100e+00, 7.55555534e+00,
          1.97727275e+00, 1.71527779e+00, 2.32954550e+00, 2.23611116e+00,
          4.00868565e-01, 4.38015968e-01, 3.37228060e-01, 3.25784236e-01,
          1.68549970e-01, 1.72636151e-01, 1.58887863e-01, 1.59722224e-01,
          8.26474801e-02, 1.74149364e-01, -1.05233669e-01,
          -3.63138467e-02, 2.84090918e-02, 2.98032407e-02,
          2.52453517e-02, 2.55111884e-02 ]
      - [ 1.08863640e+01, 2., 9.55681801e+00, 1.46111107e+01,
          1.76136363e+00, 4.30555552e-01, 1.59090912e+00, 2.33333325e+00,
          7.08090186e-01, 8.92058849e-01, 7.22629547e-01, 6.20851636e-01,
          6.86007500e-01, 8.28588903e-01, 6.84287667e-01, 6.24169946e-01,
          1.32871166e-01, 8.15382957e-01, 1.88366383e-01,
          -1.72226474e-01, 4.70606267e-01, 6.86559618e-01,
          4.68249619e-01, 3.89588147e-01 ]
      - [ 4.70454550e+00, 6.23611116e+00, 3.56250000e+00, 9.86111104e-01,
          9.43181813e-01, 1.22222221e+00, 7.55681813e-01, 2.36111104e-01,
          8.14399064e-01, 7.66585290e-01, 8.39768767e-01, 9.43407476e-01,
          8.06648135e-01, 7.65953660e-01, 8.05035651e-01, 9.10358131e-01,
          2.55566705e-02, -1.36069715e-01, 3.54105771e-01,
          6.48406088e-01, 6.50681198e-01, 5.86685002e-01, 6.48082376e-01,
          8.28751922e-01 ]
      - [ 7.85795450e+00, 8.99305534e+00, 7.78977251e+00, 4.72222233e+00,
          2.10795450e+00, 2.35416675e+00, 2.10795450e+00, 1.52777779e+00,
          4.02014315e-01, 3.47647130e-01, 3.87113363e-01, 5.04892290e-01,
          2.12176159e-01, 2.06356362e-01, 2.17695951e-01, 2.58021384e-01,
          -1.56577051e-01, -2.29142711e-01, -8.36411491e-02,
          7.76881948e-02, 4.50187251e-02, 4.25829478e-02, 4.73915301e-02,
          6.65750355e-02 ]
      - [ 5.51704550e+00, 7.13888884e+00, 5.69886351e+00, 5.25000000e+00,
          1.91477275e+00, 2.16666675e+00, 1.96022725e+00, 1.84722221e+00,
          3.71865988e-01, 3.42908502e-01, 3.52446675e-01, 3.76689702e-01,
          1.69837907e-01, 1.83732733e-01, 1.78005114e-01, 1.80020571e-01,
          1.95933576e-03, -3.77426267e-01, -1.27056226e-01,
          -7.08215311e-02, 2.88449116e-02, 3.37577164e-02,
          3.16858217e-02, 3.24074067e-02 ]
      - [ 4.46022749e+00, 6.40277767e+00, 7.25000000e+00, 5.61111116e+00,
          1.57386363e+00, 2.01388884e+00, 2.19318175e+00, 1.93055558e+00,
          4.60185260e-01, 3.67661715e-01, 3.37862283e-01, 3.68230671e-01,
          1.88615829e-01, 1.69748709e-01, 1.72712326e-01, 1.75063372e-01,
          2.59511352e-01, -5.33074886e-03, -1.26349151e-01,
          5.42179458e-02, 3.55759300e-02, 2.88146213e-02, 2.98295449e-02,
          3.06471828e-02 ]
      - [ 1.57897730e+01, 1.48819447e+01, 1.13579550e+01, 1.42430553e+01,
          3.06250000e+00, 3.02083325e+00, 2.53977275e+00, 2.97916675e+00,
          3.34474087e-01, 3.12494606e-01, 3.60233754e-01, 3.09625447e-01,
          2.06587031e-01, 2.09775105e-01, 2.03397974e-01, 1.93137974e-01,
          -2.30588078e-01, -2.54135698e-01, -1.31210089e-02,
          -6.38905615e-02, 4.26782034e-02, 4.40055951e-02,
          4.13707383e-02, 3.73022780e-02 ]
      - [ 5.35795450e+00, 4.90277767e+00, 5.56250000e+00, 6.81250000e+00,
          1.78977275e+00, 1.80555558e+00, 1.82386363e+00, 2.02083325e+00,
          4.18202907e-01, 3.81032348e-01, 4.09687877e-01, 3.93261015e-01,
          1.98131770e-01, 2.11149946e-01, 1.93599150e-01, 2.06764936e-01,
          -1.87867340e-02, -1.83267772e-01, -5.86677566e-02,
          -2.15660453e-01, 3.92562002e-02, 4.45842966e-02,
          3.74806300e-02, 4.27517369e-02 ]
      - [ 9.05113602e+00, 3.68055558e+00, 8.09659100e+00, 1.20069447e+01,
          1.66477275e+00, 6.94444418e-01, 1.49431813e+00, 2.20138884e+00,
          6.72422647e-01, 8.44428122e-01, 6.95851266e-01, 5.80082655e-01,
          6.43915713e-01, 7.86900878e-01, 6.47714794e-01, 5.71177900e-01,
          1.36009321e-01, 6.23040378e-01, 2.39786908e-01,
          -1.26223862e-01, 4.14627463e-01, 6.19212985e-01,
          4.19534475e-01, 3.26244205e-01 ]
      - [ 1.10340910e+01, 1.43680553e+01, 6.40909100e+00, 4.65972233e+00,
          2.34090900e+00, 2.86805558e+00, 1.59090912e+00, 1.34027779e+00,
          4.49857831e-01, 3.66519898e-01, 5.55386484e-01, 5.81394017e-01,
          2.67015219e-01, 2.72917539e-01, 2.99173504e-01, 2.82127410e-01,
          -3.94773949e-03, -2.82529116e-01, 4.70411241e-01,
          5.43121934e-01, 7.12971315e-02, 7.44839907e-02, 8.95047784e-02,
          7.95958713e-02 ]
      - [ 8.52272701e+00, 1.34583330e+01, 1.26761360e+01, 8.18750000e+00,
          1.85227275e+00, 2.87500000e+00, 2.76704550e+00, 1.82638884e+00,
          5.27635336e-01, 3.28132868e-01, 3.30456942e-01, 5.12376547e-01,
          2.81522483e-01, 2.22059399e-01, 2.10188881e-01, 2.57225811e-01,
          3.26846570e-01, -1.10822752e-01, -8.18653628e-02,
          2.64145434e-01, 7.92549103e-02, 4.93103787e-02, 4.41793650e-02,
          6.61651269e-02 ]
      - [ 5.34659100e+00, 1.30972223e+01, 1.47386360e+01, 1.34444447e+01,
          1.18750000e+00, 2.48611116e+00, 2.71590900e+00, 2.40277767e+00,
          6.91435099e-01, 4.95057702e-01, 4.64657426e-01, 5.38763046e-01,
          5.52890837e-01, 4.32734191e-01, 4.25890088e-01, 4.96588469e-01,
          6.10006511e-01, 1.11192562e-01, 1.10272877e-03, 1.21547274e-01,
          3.05688262e-01, 1.87258869e-01, 1.81382358e-01, 2.46600121e-01 ]
      - [ 4.84090900e+00, 1.16180553e+01, 1.03409090e+01, 7.31944466e+00,
          7.84090936e-01, 1.79861116e+00, 1.59090912e+00, 1.11111116e+00,
          8.55380833e-01, 7.22975194e-01, 7.56638825e-01, 8.30302060e-01,
          7.82318473e-01, 7.26599336e-01, 7.58815289e-01, 8.24109852e-01,
          5.92016220e-01, -1.61741123e-01, -1.39442235e-01,
          4.56740446e-02, 6.12022221e-01, 5.27946591e-01, 5.75800598e-01,
          6.79157019e-01 ]
      - [ 3.50568175e+00, 1.68750000e+00, 3.08522725e+00, 4.79166651e+00,
          9.26136374e-01, 4.51388896e-01, 8.57954562e-01, 1.25000000e+00,
          7.48189867e-01, 8.72449100e-01, 7.53100395e-01, 6.67907655e-01,
          6.69671655e-01, 8.20312023e-01, 6.69502914e-01, 6.15142167e-01,
          1.47465572e-01, 5.52963555e-01, 2.97766566e-01,
          -1.41150802e-01, 4.48460102e-01, 6.72911823e-01,
          4.48234111e-01, 3.78399879e-01 ]
      - [ 2.78409094e-01, 0., 2.78409094e-01, 3.40277791e-01,
          3.97727266e-02, 0., 3.97727266e-02, 4.86111119e-02,
          9.94431794e-01, 1., 9.94431794e-01, 9.93194461e-01,
          9.94326293e-01, 1., 9.94326293e-01, 9.93067682e-01,
          -2.84900283e-03, 1., -2.84900283e-03, -3.48432059e-03,
          9.88684773e-01, 1., 9.88684773e-01, 9.86183465e-01 ]
      - [ 1.36988640e+01, 6.84722233e+00, 1.13125000e+01, 1.72708340e+01,
          2.93750000e+00, 1.73611116e+00, 2.43750000e+00, 3.45138884e+00,
          3.01917642e-01, 4.85966980e-01, 4.12233770e-01, 2.41722062e-01,
          1.63197801e-01, 2.05008179e-01, 1.79719776e-01, 1.73124313e-01,
          -1.81285322e-01, 3.42611879e-01, 1.00287437e-01,
          -3.97193730e-01, 2.66335234e-02, 4.20283563e-02,
          3.22991982e-02, 2.99720298e-02 ]
      - [ 9.03409100e+00, 1.04583330e+01, 4.61931801e+00, 5.89583349e+00,
          1.55681813e+00, 1.81944442e+00, 9.14772749e-01, 1.06250000e+00,
          7.35779345e-01, 6.87153697e-01, 8.06424022e-01, 8.08227003e-01,
          7.36666977e-01, 6.87762976e-01, 7.32040048e-01, 7.75697887e-01,
          -1.54922366e-01, -1.32910535e-01, 5.63750088e-01,
          1.84043407e-01, 5.42678177e-01, 4.73017931e-01, 5.35882592e-01,
          6.01707160e-01 ]
      - [ 1.05852270e+01, 1.73263893e+01, 1.29431820e+01, 3.19444442e+00,
          1.93750000e+00, 3.11805558e+00, 2.34090900e+00, 6.66666687e-01,
          6.05418265e-01, 4.14989084e-01, 5.42755187e-01, 8.25130701e-01,
          4.84056234e-01, 3.86057407e-01, 4.50604349e-01, 6.07053280e-01,
          3.56086820e-01, -5.94120584e-02, 2.05113560e-01,
          8.05303574e-01, 2.34310433e-01, 1.49040312e-01, 2.03044295e-01,
          3.68513703e-01 ]
      - [ 4.07954550e+00, 1.12222223e+01, 1.04772730e+01, 1.18888893e+01,
          1.50000000e+00, 2.61111116e+00, 2.55681825e+00, 2.73611116e+00,
          4.76782858e-01, 3.53420705e-01, 3.22899878e-01, 3.21179658e-01,
          2.33231544e-01, 1.99100986e-01, 1.96495637e-01, 1.80221379e-01,
          4.99203444e-01, -2.19737709e-01, -3.01434785e-01,
          -2.77664900e-01, 5.43969534e-02, 3.96412052e-02,
          3.86105366e-02, 3.24797444e-02 ]
      - [ 4.97159100e+00, 4.84722233e+00, 4.76704550e+00, 5.45138884e+00,
          1.73295450e+00, 1.68055558e+00, 1.76704550e+00, 1.77083337e+00,
          4.26195502e-01, 4.27603871e-01, 3.90531152e-01, 4.19352025e-01,
          1.88316062e-01, 1.92262053e-01, 1.89171270e-01, 1.89864203e-01,
          5.74785098e-02, -5.79319634e-02, 5.27770929e-02,
          3.43372375e-02, 3.54629382e-02, 3.69646996e-02, 3.57857682e-02,
          3.60484198e-02 ]
      - [ 7.09659100e+00, 4.05555534e+00, 4.97159100e+00, 7.43750000e+00,
          1.91477275e+00, 1.40277779e+00, 1.58522725e+00, 2.09027767e+00,
          4.42464113e-01, 5.06279945e-01, 4.80186969e-01, 3.81373525e-01,
          1.93724170e-01, 2.05536783e-01, 1.91123724e-01, 1.75819293e-01,
          -9.02481079e-02, 2.82359362e-01, 3.11157674e-01,
          -7.81916901e-02, 3.75290550e-02, 4.22453694e-02,
          3.65282781e-02, 3.09124235e-02 ]
      - [ 3.89772725e+00, 1.02083337e+00, 3.61931825e+00, 4.76388884e+00,
          5.56818187e-01, 1.45833328e-01, 5.17045438e-01, 6.80555582e-01,
          9.22045469e-01, 9.79583323e-01, 9.27613616e-01, 9.04722214e-01,
          9.22171533e-01, 9.79277492e-01, 9.21952724e-01, 9.05391514e-01,
          -4.14201170e-02, -1.05263162e-02, 9.47576687e-02,
          -5.10948896e-02, 8.50400329e-01, 9.58984375e-01,
          8.49996746e-01, 8.19733799e-01 ]
      - [ 1.11988640e+01, 6.38194466e+00, 6.92613649e+00, 1.10069447e+01,
          2.72159100e+00, 1.97916663e+00, 1.92613637e+00, 2.65972233e+00,
          2.91096002e-01, 3.79910946e-01, 4.25665468e-01, 3.05176020e-01,
          1.45470083e-01, 1.56365693e-01, 1.63543612e-01, 1.53643385e-01,
          -2.09069699e-01, 2.98857987e-01, 2.19145745e-01,
          -2.61862427e-01, 2.11615451e-02, 2.44502313e-02,
          2.67465133e-02, 2.36062892e-02 ]
      - [ 4.07386351e+00, 2.79166675e+00, 3.33522725e+00, 4.53472233e+00,
          1.51704550e+00, 1.23611116e+00, 1.34659088e+00, 1.63194442e+00,
          4.74421531e-01, 5.26187778e-01, 5.05021095e-01, 4.43310082e-01,
          2.51448542e-01, 2.60578662e-01, 2.68792629e-01, 2.43551075e-01,
          2.77928654e-02, 3.20164412e-01, 7.23325908e-02,
          -1.15928009e-01, 6.32263720e-02, 6.79012313e-02,
          7.22494870e-02, 5.93171306e-02 ]
      - [ 4.35795450e+00, 4.10416651e+00, 2.34090900e+00, 4.76388884e+00,
          1.59659088e+00, 1.49305558e+00, 1.12500000e+00, 1.69444442e+00,
          4.45132494e-01, 4.76590604e-01, 5.51439762e-01, 4.21969980e-01,
          2.12214202e-01, 2.51202732e-01, 2.43656605e-01, 2.31574059e-01,
          1.48420230e-01, 2.21920945e-02, 5.55550098e-01, 4.80302200e-02,
          4.50348668e-02, 6.31028190e-02, 5.93685433e-02, 5.36265448e-02 ]
      - [ 2.35397720e+01, 1.81597214e+01, 7.64204550e+00, 2.21458340e+01,
          3.55113626e+00, 2.75694442e+00, 1.17613637e+00, 3.32638884e+00,
          4.70069230e-01, 5.82671821e-01, 8.09824944e-01, 5.05884469e-01,
          5.25714040e-01, 5.62735736e-01, 7.19395399e-01, 5.44795990e-01,
          -3.27450693e-01, -3.48594524e-02, 4.74660099e-01,
          -2.62014061e-01, 2.76375264e-01, 3.16671491e-01,
          5.17529726e-01, 2.96802670e-01 ]
      - [ 4.41477251e+00, 1.15208330e+01, 1.11306820e+01, 1.02847223e+01,
          1.26704550e+00, 2.61805558e+00, 2.41477275e+00, 2.22916675e+00,
          6.02530956e-01, 3.60176861e-01, 4.34281141e-01, 4.71847236e-01,
          3.95468414e-01, 2.40261719e-01, 2.52409607e-01, 2.88591594e-01,
          6.44674003e-01, 2.06430908e-02, 9.49399099e-02, 1.99121252e-01,
          1.56395271e-01, 5.77256940e-02, 6.37106150e-02, 8.32851082e-02 ]
      - [ 2.38068175e+00, 8.03472233e+00, 8.56818199e+00, 6.82638884e+00,
          8.92045438e-01, 2.21527767e+00, 2.40909100e+00, 2.04861116e+00,
          6.83614612e-01, 3.82775456e-01, 3.26417774e-01, 3.93201530e-01,
          3.99973363e-01, 2.48597533e-01, 2.19798997e-01, 2.37536550e-01,
          7.39383221e-01, 1.00191996e-01, 6.99646072e-03, 1.48054630e-01,
          1.59978688e-01, 6.18007332e-02, 4.83115949e-02, 5.64236119e-02 ]
      - [ 7.30113649e+00, 5.04166651e+00, 8.89772701e+00, 9.54166698e+00,
          1.59659088e+00, 9.86111104e-01, 1.84090912e+00, 2.09722233e+00,
          6.28763974e-01, 7.73082316e-01, 5.94111383e-01, 5.13701975e-01,
          5.57600319e-01, 6.50112748e-01, 5.16451955e-01, 4.52988625e-01,
          2.71343619e-01, 4.99075234e-01, 1.13797717e-01, 4.78903614e-02,
          3.10918123e-01, 4.22646612e-01, 2.66722620e-01, 2.05198690e-01 ]
      - [ 4.80681801e+00, 6.41666651e+00, 6.81250000e+00, 5.70138884e+00,
          1.65909088e+00, 1.98611116e+00, 1.93750000e+00, 1.70138884e+00,
          4.39358592e-01, 3.69707108e-01, 4.15498853e-01, 4.74036515e-01,
          2.05293775e-01, 1.97520316e-01, 2.01043248e-01, 2.15445727e-01,
          2.65045017e-01, -3.59389596e-02, -1.97207585e-01,
          -1.08341344e-01, 4.21455316e-02, 3.90142761e-02,
          4.04183902e-02, 4.64168601e-02 ]
      - [ 2.43750000e+01, 1.82638893e+01, 4.56250000e+00, 2.16875000e+01,
          4.04545450e+00, 3.04166675e+00, 9.26136374e-01, 3.64583325e+00,
          3.07293981e-01, 4.63613421e-01, 7.67926931e-01, 3.61239612e-01,
